-2.253244630992412567e-02
7.128427270799875259e-03
7.752601057291030884e-02
-6.221620738506317139e-02
-5.321124568581581116e-02
5.576810985803604126e-02
5.192819237709045410e-02
8.074214681982994080e-03
-1.077387481927871704e-01
-4.275314509868621826e-02
5.119859706610441208e-03
1.534292288124561310e-02
8.510230481624603271e-02
1.338517516851425171e-01
3.335756435990333557e-02
9.785377234220504761e-02
-6.238446757197380066e-02
-7.821210473775863647e-02
8.555914461612701416e-02
3.229080513119697571e-02
4.196816124022006989e-03
-5.395089276134967804e-03
9.340018779039382935e-02
2.713029459118843079e-02
1.556560490280389786e-02
-2.478019334375858307e-02
4.470762610435485840e-02
-1.034793853759765625e-01
8.313636481761932373e-02
1.289409548044204712e-01
3.061766177415847778e-02
-1.039108037948608398e-01
-4.121938347816467285e-02
8.287820965051651001e-04
1.031180173158645630e-01
-3.835324198007583618e-03
1.597541421651840210e-01
2.347181588411331177e-01
5.778582766652107239e-03
1.802547276020050049e-01
1.413023620843887329e-01
1.320601850748062134e-01
5.671542137861251831e-02
8.594197034835815430e-02
-3.441016748547554016e-02
1.119864210486412048e-01
1.491462886333465576e-01
-9.362879395484924316e-02
1.529569039121270180e-03
-5.092027038335800171e-02
3.037706017494201660e-02
-2.312001772224903107e-02
1.156457513570785522e-01
5.130529031157493591e-02
-4.095725715160369873e-02
-3.364994376897811890e-02
2.566867135465145111e-02
-8.942425996065139771e-02
7.203287631273269653e-02
7.437280565500259399e-02
4.567480459809303284e-02
-3.439114242792129517e-02
-4.947095364332199097e-02
-9.305502474308013916e-02
2.114281952381134033e-01
1.887104511260986328e-01
-1.263970434665679932e-01
7.607799023389816284e-02
9.104193747043609619e-02
8.847054094076156616e-02
-8.088129013776779175e-02
-6.447078287601470947e-02
1.069959104061126709e-01
4.279254004359245300e-02
1.351767033338546753e-01
7.086395472288131714e-02
5.574600771069526672e-03
1.181376203894615173e-01
3.844133391976356506e-02
-3.894746303558349609e-02
1.308089196681976318e-01
-2.613841928541660309e-02
6.788782775402069092e-02
-1.048229858279228210e-01
-2.582161314785480499e-02
3.657383099198341370e-02
5.761615931987762451e-03
1.490309536457061768e-01
4.724245890974998474e-02
2.615838125348091125e-02
2.208373844623565674e-01
-1.884837518446147442e-03
6.453943252563476562e-02
1.335283219814300537e-01
-8.221162855625152588e-02
1.333995610475540161e-01
1.263017356395721436e-01
8.674287796020507812e-02
2.171714454889297485e-01
3.573381155729293823e-02
