2.811108231544494629e-01 -9.874069690704345703e-02 -1.410141438245773315e-01 -2.778611518442630768e-02 -3.395814001560211182e-01 4.787942394614219666e-02 -2.411750331521034241e-02 2.827874124050140381e-01 5.926005914807319641e-02 -1.139332577586174011e-01 8.538448065519332886e-02 -5.705374479293823242e-02 2.263269871473312378e-01 -3.960044980049133301e-01 1.076342388987541199e-01 -2.779484540224075317e-02 -1.050555631518363953e-01 3.321414440870285034e-02 -6.874126940965652466e-02 1.722062006592750549e-02 1.093607470393180847e-01 1.946550235152244568e-02 3.762590512633323669e-02 2.522318661212921143e-01 4.112716764211654663e-02 -6.069225445389747620e-02 1.983310580253601074e-01 -1.378887593746185303e-01 7.158266007900238037e-02 -1.998223811388015747e-01 -9.350206702947616577e-02 1.134866103529930115e-01 -1.213178858160972595e-01 -1.125459372997283936e-01 7.792852818965911865e-02 -6.650565564632415771e-02 3.358105570077896118e-02 5.290205404162406921e-02 -9.669893234968185425e-02 2.021200805902481079e-01 4.986545443534851074e-02 3.682992756366729736e-01 -3.008119016885757446e-02 8.617447316646575928e-02 7.129754871129989624e-03 6.512027233839035034e-02 2.215932821854948997e-03 -2.384502440690994263e-03 -2.251683175563812256e-01 -1.560828685760498047e-01 -1.046346947550773621e-01 2.240461856126785278e-01 -2.019912749528884888e-01 -6.268766522407531738e-02 1.509942412376403809e-01 1.212404221296310425e-01 1.122359633445739746e-01 1.050589047372341156e-02 8.795252442359924316e-02 5.726591870188713074e-02 1.441834867000579834e-02 7.469589263200759888e-02 5.668581649661064148e-02 -5.181591212749481201e-02 5.112187191843986511e-02 -1.620461815036833286e-03 -2.736771702766418457e-01 -2.333357036113739014e-01 -1.186385676264762878e-01 9.028743207454681396e-02 -6.499698758125305176e-02 1.145291179418563843e-01 -6.427127122879028320e-02 -2.367695569992065430e-01 -2.566652595996856689e-01 -1.737584024667739868e-01 1.701320111751556396e-01 1.798310279846191406e-01 1.361575573682785034e-01 1.517790108919143677e-01 7.797914091497659683e-03 1.139069907367229462e-02 1.049353256821632385e-01 3.903085738420486450e-02 1.390981525182723999e-01 7.721684873104095459e-02 1.238123625516891479e-01 1.611064374446868896e-02 -4.238186776638031006e-01 1.662544161081314087e-01 1.724047400057315826e-02 1.384315043687820435e-01 8.401851356029510498e-02 6.278089247643947601e-03 2.781299687922000885e-02 4.130481183528900146e-02 -2.589617669582366943e-01 7.292173337191343307e-03 -2.943877577781677246e-01 -1.995252072811126709e-01
-2.360763847827911377e-01 -1.782719343900680542e-01 1.315181106328964233e-01 -2.388930618762969971e-01 8.215143345296382904e-03 2.199878245592117310e-01 3.738531470298767090e-02 1.340250968933105469e-01 -1.835563182830810547e-01 -1.821855902671813965e-01 6.920738518238067627e-02 -2.086990028619766235e-01 1.174338720738887787e-02 1.029915139079093933e-01 1.074880659580230713e-01 5.164353549480438232e-02 5.593017116189002991e-02 -9.382519870996475220e-02 -5.411259457468986511e-02 -4.238241538405418396e-02 4.950305819511413574e-02 7.715400308370590210e-02 -6.309263408184051514e-02 2.006488442420959473e-01 -1.526385992765426636e-01 -1.440986990928649902e-01 -5.650711059570312500e-02 1.933002024888992310e-01 1.168127954006195068e-01 2.360178083181381226e-01 8.426879346370697021e-02 1.649442501366138458e-02 8.853642642498016357e-02 8.970064669847488403e-02 -1.209850981831550598e-02 7.860939018428325653e-03 -3.514753654599189758e-02 2.188026346266269684e-02 4.345132410526275635e-01 7.872941903769969940e-03 2.331594238057732582e-03 2.078088819980621338e-01 -7.890556007623672485e-02 5.771341919898986816e-02 -3.585749492049217224e-02 1.332536432892084122e-02 -1.735564321279525757e-02 3.671157732605934143e-02 1.611916162073612213e-02 -1.698636561632156372e-01 2.382912784814834595e-01 2.974075637757778168e-02 5.330040678381919861e-02 -7.426910102367401123e-02 -8.390092290937900543e-03 -9.115198254585266113e-02 -1.739751696586608887e-01 1.005212664604187012e-01 -5.633551999926567078e-02 5.147068202495574951e-02 7.325536757707595825e-02 5.909229815006256104e-02 5.872830003499984741e-02 -1.996423155069351196e-01 -7.322044670581817627e-02 -3.596540540456771851e-02 -1.201930642127990723e-01 6.906726956367492676e-02 1.022612601518630981e-01 8.947268128395080566e-02 1.262552440166473389e-01 4.412695765495300293e-02 7.108376175165176392e-02 -1.111081242561340332e-01 -1.442530602216720581e-01 -3.410177305340766907e-02 -9.500990808010101318e-02 4.985054582357406616e-02 -1.430185884237289429e-01 -2.527508698403835297e-02 4.309501126408576965e-02 -4.859967157244682312e-02 3.134607151150703430e-02 -7.037244737148284912e-02 2.459439933300018311e-01 3.846101835370063782e-02 5.538845807313919067e-02 6.544302217662334442e-03 -2.395863234996795654e-01 -4.237319156527519226e-02 1.324732005596160889e-01 2.492005974054336548e-01 -2.547614090144634247e-02 9.219580143690109253e-02 2.788711786270141602e-01 1.483234912157058716e-01 -1.046447604894638062e-01 7.147426158189773560e-02 -1.602478176355361938e-01 -2.106340080499649048e-01
6.488461047410964966e-02 -5.439305305480957031e-02 -1.628860086202621460e-01 2.533890865743160248e-02 2.173948287963867188e-01 1.420530825853347778e-01 7.413839548826217651e-02 -1.582216024398803711e-01 9.366149455308914185e-02 -2.327001886442303658e-03 6.301719695329666138e-02 1.420783698558807373e-01 -5.594642087817192078e-02 1.986366808414459229e-01 1.140556931495666504e-01 1.079545468091964722e-01 2.507171332836151123e-01 6.601840257644653320e-02 4.024158045649528503e-02 3.209441900253295898e-02 1.680994406342506409e-02 -7.479476928710937500e-02 -5.580546334385871887e-02 -4.474321007728576660e-01 1.035377010703086853e-01 1.159037053585052490e-01 -1.653744131326675415e-01 1.392618715763092041e-01 1.776721477508544922e-01 -1.253615319728851318e-01 1.934982538223266602e-01 -1.156530752778053284e-01 -1.436319053173065186e-01 1.054559871554374695e-01 -7.882685400545597076e-03 7.871196419000625610e-02 8.527985960245132446e-02 1.659084693528711796e-03 2.612356841564178467e-02 -3.599142283201217651e-02 4.531856998801231384e-02 -2.850432395935058594e-01 -1.457280665636062622e-01 -1.053572446107864380e-01 1.805502688512206078e-05 -1.873707585036754608e-02 1.320695579051971436e-01 1.391685940325260162e-02 -1.503216177225112915e-01 2.508117258548736572e-01 1.644007116556167603e-01 -1.071733012795448303e-01 1.487725228071212769e-01 7.773140072822570801e-02 1.422467380762100220e-01 -7.631814479827880859e-02 1.369220167398452759e-01 3.522563725709915161e-02 5.172052606940269470e-02 -2.733136340975761414e-02 -4.222196340560913086e-02 -1.104976087808609009e-01 -2.014086544513702393e-01 -7.637310028076171875e-02 -4.801527410745620728e-02 1.809700280427932739e-01 1.382038891315460205e-01 1.504929065704345703e-01 -1.417538970708847046e-01 1.178053673356771469e-02 2.243837565183639526e-01 -1.302664279937744141e-01 3.622477129101753235e-02 -1.496345549821853638e-01 -7.306409627199172974e-02 1.599005609750747681e-01 -9.890343993902206421e-03 1.846285164356231689e-02 2.856131829321384430e-02 5.662081018090248108e-02 1.163218170404434204e-01 -3.443244099617004395e-02 7.068958133459091187e-02 -5.338756740093231201e-02 -2.211550176143646240e-01 9.437591582536697388e-02 -4.033390060067176819e-02 1.483018547296524048e-01 -1.504300385713577271e-01 4.793325811624526978e-02 1.321884691715240479e-01 -1.107916161417961121e-01 7.645009458065032959e-02 1.819034367799758911e-01 -8.779053390026092529e-02 1.425708979368209839e-01 5.038068816065788269e-02 -1.868445426225662231e-01 -1.195927187800407410e-01 3.510947227478027344e-01
-4.304493963718414307e-02 -9.616006165742874146e-02 2.798793092370033264e-02 -8.405875414609909058e-02 -1.449090540409088135e-01 -1.058078706264495850e-01 -4.145430773496627808e-02 1.146276071667671204e-01 -1.029283106327056885e-01 -1.306347548961639404e-01 1.941698230803012848e-02 -6.996796280145645142e-02 -3.344628959894180298e-02 -1.607029139995574951e-01 -2.620640955865383148e-02 9.352845698595046997e-02 3.558659553527832031e-02 -3.791091591119766235e-02 -5.155190080404281616e-02 -4.008278250694274902e-02 6.300791352987289429e-02 -3.069275617599487305e-02 -1.251317858695983887e-01 2.666857093572616577e-02 4.907732456922531128e-02 7.562097907066345215e-02 -8.122154325246810913e-02 8.291509933769702911e-03 -3.489007055759429932e-02 7.991946302354335785e-03 1.217038836330175400e-02 3.223918750882148743e-02 9.617360308766365051e-03 -8.527671545743942261e-02 -3.894970566034317017e-02 9.976813569664955139e-03 4.889439791440963745e-02 3.860216960310935974e-02 9.425337612628936768e-02 2.664897963404655457e-02 -1.434592902660369873e-01 3.072203509509563446e-02 -7.179923355579376221e-02 -1.293601691722869873e-01 5.688221752643585205e-02 -2.002665586769580841e-02 -7.268432527780532837e-02 -7.286401838064193726e-02 -2.636585012078285217e-02 -1.555332839488983154e-01 -1.216188892722129822e-01 8.039449900388717651e-02 -1.275790184736251831e-01 -5.533981323242187500e-02 -2.767850458621978760e-02 -5.816497281193733215e-02 -1.146830841898918152e-01 3.862469270825386047e-02 -9.240215271711349487e-02 3.693727776408195496e-02 -4.158626496791839600e-02 5.589940771460533142e-02 -1.253582239151000977e-01 -5.304570496082305908e-02 -1.667305082082748413e-01 -2.812608703970909119e-02 -1.200221106410026550e-01 -4.126532003283500671e-02 -1.565254628658294678e-01 -1.056918129324913025e-01 -6.654231250286102295e-02 -2.127304859459400177e-02 -3.013490512967109680e-02 -5.163126811385154724e-02 -1.278953552246093750e-01 -1.063183173537254333e-01 4.196366667747497559e-02 3.633391484618186951e-02 -9.640088677406311035e-02 -8.268761634826660156e-02 7.330927997827529907e-02 -6.131595000624656677e-02 -8.093173801898956299e-02 1.523926295340061188e-02 -4.534353315830230713e-02 2.221348881721496582e-02 -1.104053035378456116e-01 2.494937367737293243e-02 -8.613557368516921997e-02 -1.434510573744773865e-02 -9.457301348447799683e-02 2.059864811599254608e-02 -9.929093718528747559e-02 5.176326259970664978e-02 1.104327663779258728e-02 3.543048352003097534e-02 -1.295806020498275757e-01 -7.564568519592285156e-02 -2.166293710470199585e-01 -5.730020627379417419e-02
-7.603715360164642334e-02 7.608544826507568359e-02 1.711454242467880249e-01 -1.151767671108245850e-01 7.784187048673629761e-02 -1.865673810243606567e-01 1.429776996374130249e-01 -2.152413427829742432e-01 7.257445901632308960e-02 3.803622350096702576e-02 -1.850891709327697754e-01 -5.275117978453636169e-02 -4.015469551086425781e-01 1.363651305437088013e-01 6.123518943786621094e-02 -5.385776050388813019e-03 1.399607509374618530e-01 -7.765948027372360229e-02 1.188845112919807434e-01 9.785975515842437744e-02 -1.739803105592727661e-01 -6.653271615505218506e-02 7.426536828279495239e-02 -1.629975289106369019e-01 -1.958812959492206573e-02 3.909526392817497253e-02 -1.455044746398925781e-01 8.509756065905094147e-03 2.019497752189636230e-01 1.565876454114913940e-01 -4.136047884821891785e-02 5.269174650311470032e-02 -3.922628238797187805e-02 1.074380800127983093e-01 -9.886380285024642944e-02 6.333827227354049683e-02 -8.187449723482131958e-02 1.552276164293289185e-01 2.441022247076034546e-01 -1.055939942598342896e-01 3.582531213760375977e-02 -1.425555348396301270e-01 2.117021083831787109e-01 -1.964488625526428223e-02 1.896738260984420776e-02 7.871910929679870605e-02 -1.822654306888580322e-01 -1.223153397440910339e-01 1.756247282028198242e-01 -4.161856696009635925e-02 -9.737382084131240845e-02 -7.935535907745361328e-02 1.687287241220474243e-01 9.241483360528945923e-02 -3.206279277801513672e-01 -9.091836959123611450e-02 1.045674383640289307e-01 -7.194376736879348755e-02 1.341562867164611816e-01 -1.291164308786392212e-01 -5.372725799679756165e-02 -1.404709834605455399e-02 -6.074799969792366028e-02 2.292677313089370728e-01 -1.948511786758899689e-02 1.446098089218139648e-01 8.183232694864273071e-02 2.849773131310939789e-02 1.720073223114013672e-01 -5.934538319706916809e-02 -2.021533101797103882e-01 -7.598308846354484558e-03 -1.313019637018442154e-02 1.624962091445922852e-01 1.218056231737136841e-01 1.002709660679101944e-02 -5.603558570146560669e-02 1.135087236762046814e-01 2.147439122200012207e-01 -5.523856729269027710e-02 -3.510252758860588074e-02 -6.004947703331708908e-03 -1.752350479364395142e-01 -6.733762472867965698e-02 1.854640245437622070e-01 2.689241897314786911e-03 7.815481722354888916e-02 -1.421164125204086304e-01 1.730232685804367065e-01 8.610544353723526001e-02 -1.658318340778350830e-01 -1.058871001005172729e-01 7.521806657314300537e-02 -6.747118383646011353e-02 4.068097472190856934e-02 -5.544441938400268555e-02 1.177119165658950806e-01 1.743681132793426514e-01 2.308250367641448975e-01 1.596882790327072144e-01
6.613766551017761230e-01 1.266489923000335693e-01 2.064959704875946045e-01 1.932942718267440796e-01 -5.375934764742851257e-02 2.338190376758575439e-02 -6.122319400310516357e-02 1.384624540805816650e-01 -9.132278710603713989e-02 -2.654181607067584991e-02 2.078738212585449219e-01 -3.227336704730987549e-02 7.295119762420654297e-02 6.720530241727828979e-02 -6.067739799618721008e-02 -2.267451584339141846e-01 2.129860371351242065e-01 2.761329151690006256e-02 -3.639615699648857117e-02 -6.695076823234558105e-02 6.125470623373985291e-02 9.699156880378723145e-02 -1.201239228248596191e-01 1.613125950098037720e-01 2.667040750384330750e-02 2.506352961063385010e-01 3.141807019710540771e-02 9.104373864829540253e-03 -1.203777715563774109e-01 -2.036302238702774048e-01 -2.139788568019866943e-01 -3.097967430949211121e-02 1.699928045272827148e-01 1.877688020467758179e-01 -1.062334980815649033e-02 2.643628232181072235e-02 -2.115184254944324493e-02 1.940812543034553528e-02 -7.014126330614089966e-02 2.278243452310562134e-01 1.059825941920280457e-01 9.821618907153606415e-03 1.691680252552032471e-01 -3.867891430854797363e-01 -3.027996048331260681e-02 -2.683765590190887451e-01 7.275485992431640625e-02 3.909265622496604919e-02 -4.095175862312316895e-02 2.773644030094146729e-01 2.459385991096496582e-02 -3.357938723638653755e-03 1.002059504389762878e-01 4.843067750334739685e-02 -2.104782611131668091e-01 2.799998968839645386e-02 -8.943272382020950317e-02 -1.292839944362640381e-01 -1.823400706052780151e-01 7.415528409183025360e-03 -6.493228673934936523e-02 1.367062032222747803e-01 -3.814332559704780579e-02 -8.053170889616012573e-02 -1.040668264031410217e-01 4.593807086348533630e-02 2.774086408317089081e-02 -3.220054209232330322e-01 -9.268298000097274780e-02 -7.698217779397964478e-02 1.915486156940460205e-02 -1.386550515890121460e-01 9.305479377508163452e-02 -1.394546329975128174e-01 -1.758476644754409790e-01 2.540679462254047394e-02 2.114651538431644440e-02 4.464738443493843079e-02 1.957938261330127716e-02 3.208534419536590576e-02 1.603242009878158569e-01 3.967267274856567383e-02 1.789050847291946411e-01 -1.731208115816116333e-01 7.685153186321258545e-02 -9.029552340507507324e-02 1.123423203825950623e-01 -1.092536151409149170e-01 2.386496067047119141e-01 2.421187460422515869e-01 8.088341355323791504e-02 -3.290232270956039429e-02 -1.394340842962265015e-01 -1.107469797134399414e-01 1.585076446644961834e-03 -1.165094375610351562e-01 -2.115485668182373047e-01 -1.474286317825317383e-01 2.932969033718109131e-01 -4.623992834240198135e-03
-7.317343354225158691e-02 -1.170944049954414368e-01 1.304256021976470947e-01 2.423518709838390350e-02 1.029995828866958618e-01 -1.469095610082149506e-02 -6.519311666488647461e-02 -1.114574521780014038e-01 -2.690473012626171112e-02 1.860061287879943848e-01 5.916621536016464233e-02 3.730607777833938599e-02 7.162075489759445190e-02 8.579532057046890259e-02 1.242534071207046509e-01 1.506643146276473999e-01 4.119003713130950928e-01 -1.115592047572135925e-01 1.464815884828567505e-01 8.911572396755218506e-02 -1.908393949270248413e-01 4.966890066862106323e-02 -1.138649135828018188e-01 -5.927998572587966919e-02 -1.912398450076580048e-02 1.325520277023315430e-01 3.049926459789276123e-02 2.501395642757415771e-01 -2.027628272771835327e-01 -2.767921686172485352e-01 7.477279752492904663e-03 -7.692731916904449463e-02 2.638722658157348633e-01 5.967523320578038692e-04 -1.556477397680282593e-01 1.032029092311859131e-01 -4.411478638648986816e-01 3.220068290829658508e-02 1.354543715715408325e-01 -2.322112768888473511e-01 -3.158064186573028564e-01 -2.180267423391342163e-01 -1.174146682024002075e-01 1.109586730599403381e-01 4.745814949274063110e-03 -1.321388483047485352e-01 1.974329911172389984e-02 -7.823498547077178955e-02 1.421826332807540894e-01 -3.446296602487564087e-02 -1.915447860956192017e-01 -1.670065820217132568e-01 1.381739079952239990e-01 -2.138521894812583923e-02 1.751079112291336060e-01 -3.635287284851074219e-01 -9.848210215568542480e-02 9.412831626832485199e-03 -1.861216574907302856e-01 -7.385765761137008667e-02 1.454674452543258667e-01 1.794176250696182251e-01 -2.219824865460395813e-02 -6.716763973236083984e-02 1.123425364494323730e-01 1.559509932994842529e-01 -1.324575245380401611e-01 1.567502468824386597e-01 1.026155203580856323e-01 1.272890269756317139e-01 -4.791568964719772339e-02 -1.219507008790969849e-01 1.475283801555633545e-01 5.536182597279548645e-02 4.056601226329803467e-02 1.591647267341613770e-01 -1.983655542135238647e-01 3.655974194407463074e-02 -1.226277500391006470e-01 -2.573450505733489990e-01 -3.098185360431671143e-01 -5.492689087986946106e-02 -1.221979223191738129e-02 1.116544455289840698e-01 1.081087365746498108e-01 1.147764325141906738e-01 5.428650602698326111e-02 -7.536002993583679199e-02 1.977186948060989380e-01 -5.551572442054748535e-01 -6.351404637098312378e-02 2.439007610082626343e-01 -1.417405996471643448e-02 8.258425444364547729e-02 1.629708856344223022e-01 -6.214758381247520447e-02 9.033902734518051147e-02 8.604111522436141968e-02 2.191689461469650269e-01 -2.477801404893398285e-02
-4.921633303165435791e-01 -2.617854997515678406e-02 2.343824952840805054e-01 -1.295883506536483765e-01 1.989871412515640259e-01 -3.255337476730346680e-02 9.662851691246032715e-02 1.839705109596252441e-01 -1.328916549682617188e-01 4.549705237150192261e-02 -1.634347811341285706e-02 -1.865942925214767456e-01 4.565478302538394928e-03 -1.151892617344856262e-01 4.381102696061134338e-02 1.765109784901142120e-02 -1.692030280828475952e-01 4.533354565501213074e-02 -1.225759610533714294e-01 -5.492085590958595276e-03 6.892206519842147827e-02 7.654698938131332397e-02 -7.165975868701934814e-02 3.673536702990531921e-02 -7.165846228599548340e-02 -1.376212388277053833e-01 -1.489458084106445312e-01 1.920015066862106323e-01 1.643704921007156372e-01 2.690109312534332275e-01 1.553924530744552612e-01 2.558788657188415527e-01 3.181467652320861816e-01 -5.872385948896408081e-02 2.942217700183391571e-02 4.115441069006919861e-02 1.617301404476165771e-01 3.207203745841979980e-02 3.231904804706573486e-01 6.053086742758750916e-02 -2.885951660573482513e-02 2.692705951631069183e-02 5.802863463759422302e-02 1.576662957668304443e-01 -1.384977996349334717e-02 -3.194013237953186035e-02 1.053734943270683289e-01 1.222938075661659241e-01 7.740207016468048096e-02 -4.125439226627349854e-01 2.493648231029510498e-01 3.125357255339622498e-02 3.639682382345199585e-02 -1.279629170894622803e-01 2.761703170835971832e-02 -2.639080584049224854e-01 -1.623916625976562500e-01 -1.366349607706069946e-01 -2.626137435436248779e-02 -5.647699907422065735e-02 -4.270458966493606567e-02 2.025669664144515991e-01 2.299297451972961426e-01 -2.162114977836608887e-01 -2.149235643446445465e-02 1.713618636131286621e-01 -2.770534157752990723e-01 1.508538424968719482e-01 9.775088727474212646e-02 5.263511557132005692e-04 1.795429438352584839e-01 3.850470483303070068e-02 1.524031758308410645e-01 3.008726052939891815e-02 -7.477094978094100952e-02 -7.137821614742279053e-02 -4.194010049104690552e-02 -5.225875973701477051e-02 -1.810626983642578125e-01 -8.810569345951080322e-02 1.840765625238418579e-01 9.587848186492919922e-02 -1.066148933023214340e-02 -8.476338535547256470e-02 8.042108267545700073e-02 7.674342393875122070e-02 8.472247421741485596e-02 9.835998713970184326e-02 9.350838512182235718e-02 7.960306107997894287e-02 1.125137060880661011e-01 6.218895688652992249e-02 -2.533750794827938080e-02 -8.279056847095489502e-02 3.828949630260467529e-01 4.193529114127159119e-02 1.026359871029853821e-01 5.036825686693191528e-02 -1.953324973583221436e-01 -2.911284267902374268e-01
-7.318240404129028320e-02 5.905633792281150818e-02 1.795384585857391357e-01 -1.626614928245544434e-01 2.160608768463134766e-02 -6.846595555543899536e-02 1.093688383698463440e-01 -4.078273847699165344e-02 1.272418797016143799e-01 1.324397325515747070e-01 -2.794220149517059326e-01 -1.137250214815139771e-01 -5.542157590389251709e-02 -1.885980740189552307e-02 -5.912040825933218002e-03 -3.513822704553604126e-02 -5.800976604223251343e-02 -5.322919413447380066e-02 -7.605791836977005005e-02 1.019589528441429138e-01 6.983042508363723755e-02 -5.438391119241714478e-03 1.215814277529716492e-01 1.555727515369653702e-02 -5.170883610844612122e-02 -1.020401120185852051e-01 6.601169705390930176e-02 1.964984983205795288e-01 7.108359038829803467e-02 7.261285930871963501e-02 -1.568037420511245728e-01 2.197584509849548340e-01 1.912885159254074097e-02 -2.106666751205921173e-02 6.133194081485271454e-03 -3.445146139711141586e-04 7.982981950044631958e-02 -1.494723558425903320e-01 3.030781745910644531e-01 -6.813381612300872803e-02 2.463230118155479431e-02 -4.572222381830215454e-02 1.676535904407501221e-01 2.157445065677165985e-02 1.585094034671783447e-01 2.217654138803482056e-01 -2.066690474748611450e-01 6.108767166733741760e-02 5.460187792778015137e-02 -5.581233501434326172e-01 -6.702338904142379761e-02 3.876892477273941040e-02 2.051273286342620850e-01 -5.862669274210929871e-02 -3.440015017986297607e-02 -1.980883441865444183e-02 -4.424205049872398376e-02 1.355635821819305420e-01 9.790260344743728638e-02 -1.040863692760467529e-01 1.222122162580490112e-01 3.024465143680572510e-01 1.465587317943572998e-01 -1.944195106625556946e-02 -2.480302006006240845e-03 5.236294865608215332e-02 -8.478771150112152100e-02 -2.059957571327686310e-02 2.526274621486663818e-01 3.418100625276565552e-02 -2.773390710353851318e-01 -2.702179737389087677e-02 -3.647934272885322571e-02 5.310679785907268524e-03 1.978931427001953125e-01 2.396491728723049164e-02 -2.537463419139385223e-02 1.165029220283031464e-02 1.246618926525115967e-01 3.953665122389793396e-02 -2.710549533367156982e-02 -8.515113592147827148e-02 -2.829079926013946533e-01 -1.058711633086204529e-01 1.538927704095840454e-01 5.322596058249473572e-02 1.373438984155654907e-01 -1.572942733764648438e-01 4.738005623221397400e-02 -7.407774031162261963e-02 -1.858658194541931152e-01 -8.467431366443634033e-02 -6.394054740667343140e-03 1.989747025072574615e-02 2.712631821632385254e-01 7.249032706022262573e-02 1.526015400886535645e-01 -2.683794498443603516e-02 3.636151552200317383e-01 -7.796239107847213745e-02
-3.685902059078216553e-01 6.724331527948379517e-02 9.794902801513671875e-02 5.494543537497520447e-02 4.125766158103942871e-01 1.747694313526153564e-01 3.717563450336456299e-01 5.899259820580482483e-02 1.312311440706253052e-01 -2.215797826647758484e-02 -4.665040671825408936e-01 -1.343330293893814087e-01 6.397043168544769287e-02 2.982493042945861816e-01 -1.175766512751579285e-01 -1.205073967576026917e-01 -3.143945634365081787e-01 5.255384370684623718e-02 -8.375959098339080811e-02 -4.310511983931064606e-03 6.080644950270652771e-02 8.040429651737213135e-02 1.768286526203155518e-01 -2.129123955965042114e-01 -8.244169503450393677e-02 -2.063468545675277710e-01 -1.421196162700653076e-01 -9.920808672904968262e-02 2.118505090475082397e-01 3.782004415988922119e-01 3.631220757961273193e-02 2.567172944545745850e-01 1.021778956055641174e-01 1.969377398490905762e-01 -1.301760673522949219e-01 4.480822384357452393e-02 3.579691946506500244e-01 4.064297676086425781e-02 1.607252210378646851e-01 -8.298271149396896362e-02 4.934864118695259094e-02 -1.633023284375667572e-02 8.144982159137725830e-02 8.750739693641662598e-02 9.891898185014724731e-02 2.257149517536163330e-01 -9.316490590572357178e-02 -7.595130801200866699e-02 1.168298572301864624e-01 -3.601119220256805420e-01 -1.026531085371971130e-01 -8.705606684088706970e-03 1.905882358551025391e-01 -7.244370132684707642e-02 -1.404727846384048462e-01 1.663208007812500000e-01 1.392234265804290771e-01 2.292666397988796234e-02 -7.524877041578292847e-02 -1.207211092114448547e-01 -6.007450819015502930e-02 1.024387963116168976e-02 -1.000468358397483826e-01 7.458034157752990723e-02 -1.512694060802459717e-01 1.107549574226140976e-02 6.074460223317146301e-02 -4.940047394484281540e-03 -9.075451642274856567e-02 -3.493764996528625488e-02 1.145639922469854355e-02 1.058032885193824768e-01 8.421176671981811523e-02 -1.554401777684688568e-02 3.613676130771636963e-01 8.382353186607360840e-02 2.148324549198150635e-01 8.800016343593597412e-02 2.382108718156814575e-01 1.530949771404266357e-01 2.107886970043182373e-01 8.733082562685012817e-02 -2.534281611442565918e-01 6.839319318532943726e-02 4.315297305583953857e-02 2.004319615662097931e-02 4.660679027438163757e-02 5.305336322635412216e-03 1.485293805599212646e-01 -2.474900148808956146e-02 -2.281119823455810547e-01 -1.337048709392547607e-01 1.116743385791778564e-01 1.080520078539848328e-01 1.649636477231979370e-01 2.509892284870147705e-01 1.436791867017745972e-01 -5.979524925351142883e-02 8.992345631122589111e-02 1.114339530467987061e-01
1.311897933483123779e-01 3.258461952209472656e-01 1.986201480031013489e-02 7.875905930995941162e-02 -1.202770918607711792e-01 6.435821950435638428e-02 1.705007106065750122e-01 -1.287692785263061523e-01 -1.315617933869361877e-02 1.677516847848892212e-01 -3.586926683783531189e-02 9.090464562177658081e-02 2.420120388269424438e-01 -5.370734632015228271e-02 -9.197660535573959351e-02 -1.912585794925689697e-01 2.171544730663299561e-02 -7.560391724109649658e-02 -3.832763805985450745e-02 1.169794797897338867e-01 1.039404943585395813e-01 2.482622116804122925e-02 -6.390142440795898438e-02 1.593170166015625000e-01 1.510925590991973877e-01 7.574822753667831421e-03 4.498614743351936340e-02 -7.564596086740493774e-02 -1.236713752150535583e-01 3.032261729240417480e-01 -1.928745657205581665e-01 1.771000772714614868e-01 1.724911928176879883e-01 3.176276981830596924e-01 2.838302217423915863e-02 8.235882222652435303e-02 1.234274879097938538e-01 -7.291957736015319824e-02 -6.577473133802413940e-02 5.652565974742174149e-03 1.037139073014259338e-01 1.869192421436309814e-01 1.191676706075668335e-01 -1.378424316644668579e-01 8.128036558628082275e-02 -7.126306742429733276e-02 6.282714754343032837e-02 -2.377811260521411896e-02 8.669896423816680908e-02 -1.305953711271286011e-01 4.886316508054733276e-02 -4.929338768124580383e-02 8.614854514598846436e-02 1.730519384145736694e-01 -6.120302155613899231e-02 2.211825102567672729e-01 3.352125640958547592e-03 -6.814526766538619995e-02 3.281046450138092041e-02 6.728877127170562744e-02 -4.797989677172154188e-04 1.999677857384085655e-03 2.419650852680206299e-01 -1.899185031652450562e-01 -1.656513661146163940e-01 -1.737670451402664185e-01 1.302998214960098267e-01 -1.202811077237129211e-01 -4.389530792832374573e-02 9.358832240104675293e-02 -9.390990436077117920e-02 -6.516619771718978882e-02 -1.259944438934326172e-01 9.158866479992866516e-03 -8.951582759618759155e-02 -7.954797148704528809e-02 -5.929853022098541260e-02 -6.769301369786262512e-03 3.944268226623535156e-01 1.380083560943603516e-01 7.013645023107528687e-02 6.494800001382827759e-02 -1.398691236972808838e-01 4.156779870390892029e-02 1.928444951772689819e-02 -7.687638700008392334e-02 5.802576616406440735e-02 -7.225927710533142090e-02 9.334809333086013794e-02 2.583589637652039528e-03 -9.039484709501266479e-02 1.577901244163513184e-01 -3.166661411523818970e-02 2.239206619560718536e-02 8.271281421184539795e-02 -2.190980128943920135e-02 -1.868720948696136475e-01 -8.427484333515167236e-02 -2.558143436908721924e-02 6.319511681795120239e-02
-1.796251386404037476e-01 2.474261075258255005e-01 1.527389883995056152e-01 -8.539890497922897339e-02 5.533295869827270508e-02 2.228881977498531342e-02 3.842222392559051514e-01 -1.823255866765975952e-01 1.636878848075866699e-01 -5.732339806854724884e-03 -1.433426290750503540e-01 5.459135770797729492e-02 -8.069686591625213623e-02 2.564468979835510254e-01 -1.191146448254585266e-01 -3.254062309861183167e-02 -3.335850080475211143e-03 -6.900693476200103760e-02 -1.039730459451675415e-01 1.489200536161661148e-02 4.710804298520088196e-02 1.158444881439208984e-01 1.687231659889221191e-01 1.193998083472251892e-01 8.117292821407318115e-02 5.847531370818614960e-03 1.109341233968734741e-01 -1.588672995567321777e-01 6.407774984836578369e-02 3.446021378040313721e-01 -2.253788411617279053e-01 4.660423099994659424e-01 -3.724300861358642578e-02 1.251601576805114746e-01 -1.522610336542129517e-01 1.155609451234340668e-02 2.182078063488006592e-01 -6.761302053928375244e-02 1.554766893386840820e-01 -3.154751658439636230e-02 -7.457011379301548004e-03 5.866976454854011536e-02 2.683967910706996918e-02 3.447873890399932861e-02 1.273425221443176270e-01 1.976367831230163574e-01 -1.033355817198753357e-01 4.495579749345779419e-02 9.153182804584503174e-02 -2.552940845489501953e-01 -1.551316976547241211e-01 -1.563855633139610291e-02 1.869333982467651367e-01 6.398470140993595123e-03 6.270198523998260498e-02 1.176864653825759888e-01 5.470005795359611511e-02 6.907622516155242920e-02 1.347267162054777145e-02 8.779416233301162720e-02 -2.230967953801155090e-02 6.155512481927871704e-02 -5.176511406898498535e-02 -1.270258128643035889e-01 -7.362471520900726318e-02 -1.364827901124954224e-01 1.980302929878234863e-01 -1.402946710586547852e-01 5.668448284268379211e-02 -6.635627895593643188e-02 -1.854292601346969604e-01 1.049056202173233032e-01 4.326318204402923584e-02 3.451158478856086731e-02 2.064953595399856567e-01 -2.339916527271270752e-01 -9.002685546875000000e-03 7.533539086580276489e-02 3.125631809234619141e-01 6.447277963161468506e-02 8.459458127617835999e-03 -5.171433091163635254e-03 -5.093635991215705872e-02 9.787931293249130249e-02 -7.543085515499114990e-02 2.297294512391090393e-02 2.458994090557098389e-01 -1.656028777360916138e-01 1.439418345689773560e-01 -6.128243729472160339e-02 -1.794365048408508301e-01 -5.524376034736633301e-02 9.329053759574890137e-02 6.399235129356384277e-02 5.276374518871307373e-02 1.875675767660140991e-01 8.470936119556427002e-02 -5.389755964279174805e-02 3.169682994484901428e-02 9.828574955463409424e-02
-2.433546483516693115e-01 -1.405601352453231812e-01 -2.441205233335494995e-01 -3.393959254026412964e-02 1.410486698150634766e-01 -1.044730693101882935e-01 -4.856390878558158875e-02 -6.012079119682312012e-02 7.474838942289352417e-02 -5.797705054283142090e-02 -3.606145083904266357e-02 1.469103842973709106e-01 -3.588218241930007935e-02 1.867958605289459229e-01 5.764606967568397522e-02 2.666171640157699585e-02 6.743014603853225708e-02 6.252919137477874756e-02 -4.186650365591049194e-02 5.868798494338989258e-02 9.082576632499694824e-02 8.046836405992507935e-02 1.254572719335556030e-01 4.608778655529022217e-02 -1.285644173622131348e-01 3.000709973275661469e-02 3.627003729343414307e-02 2.786305174231529236e-02 -1.321658343076705933e-01 -1.306488513946533203e-01 1.580828279256820679e-01 -3.361450731754302979e-01 -2.224435955286026001e-01 1.001336518675088882e-02 1.165793687105178833e-01 -8.439381606876850128e-03 -4.274646192789077759e-02 -1.512418836355209351e-01 1.058541238307952881e-01 1.855225116014480591e-01 2.290622740983963013e-01 -7.929552346467971802e-02 -3.444034755229949951e-01 2.578013390302658081e-02 -2.548478357493877411e-02 1.048794761300086975e-01 1.310966759920120239e-01 -3.934719413518905640e-02 -1.272874921560287476e-01 2.121714875102043152e-02 3.257447183132171631e-01 5.933027341961860657e-02 -2.316173315048217773e-01 1.096615269780158997e-01 -4.973739758133888245e-02 2.048912197351455688e-01 1.183123439550399780e-01 1.619168519973754883e-01 8.352012932300567627e-02 8.688667416572570801e-02 -2.942181192338466644e-02 -6.477108597755432129e-02 -1.348777115345001221e-01 9.396319836378097534e-02 8.494438976049423218e-02 6.924924999475479126e-02 2.512899637222290039e-01 -3.285645507276058197e-03 2.168228663504123688e-02 4.528591781854629517e-02 1.970480233430862427e-01 -7.837841659784317017e-02 -6.032459065318107605e-02 -1.129497960209846497e-01 -3.649159371852874756e-01 1.736387014389038086e-01 1.154373809695243835e-01 -1.247389167547225952e-01 -1.921730786561965942e-01 1.445414721965789795e-01 6.855421513319015503e-02 3.384881466627120972e-02 8.814781159162521362e-02 -1.489123795181512833e-02 -1.647040843963623047e-01 -3.563637286424636841e-02 -2.598685920238494873e-01 8.824908733367919922e-02 -1.861086636781692505e-01 -2.259266972541809082e-01 -1.979910954833030701e-02 -4.665783047676086426e-02 4.866230860352516174e-02 1.183248758316040039e-01 7.677583396434783936e-02 2.990492433309555054e-02 1.614210903644561768e-01 2.549764700233936310e-02 -1.650281995534896851e-01 1.606069356203079224e-01
3.366189301013946533e-01 -1.232235413044691086e-02 -3.321747854351997375e-02 9.733074158430099487e-02 -1.494283974170684814e-01 1.109263449907302856e-01 9.026728570461273193e-03 9.941999614238739014e-02 8.770520240068435669e-02 -4.373380914330482483e-02 -6.784020923078060150e-03 8.264441788196563721e-02 1.258705407381057739e-01 1.851078569889068604e-01 -3.360183537006378174e-02 -6.851338595151901245e-02 5.501130968332290649e-02 1.361904442310333252e-01 2.145922742784023285e-02 8.663623034954071045e-02 -9.264558553695678711e-02 -5.820637568831443787e-02 1.142461523413658142e-01 2.390194535255432129e-01 6.690545380115509033e-02 4.623980261385440826e-03 -1.256344467401504517e-02 -3.492494300007820129e-02 3.693673759698867798e-02 1.259911805391311646e-02 -2.107483707368373871e-02 -2.218145877122879028e-01 3.642147930804640055e-04 3.161116242408752441e-01 -5.165687203407287598e-02 1.448432356119155884e-01 8.948612958192825317e-02 -9.257812052965164185e-02 -1.515625864267349243e-01 2.098512649536132812e-01 2.433796226978302002e-01 1.751663535833358765e-02 -1.083343774080276489e-01 -1.086383014917373657e-01 8.005429059267044067e-02 6.455388665199279785e-02 1.655678004026412964e-01 -9.518527239561080933e-02 2.778117656707763672e-01 7.088889926671981812e-02 1.149677857756614685e-01 -1.806136779487133026e-02 -1.606726050376892090e-01 2.333747223019599915e-02 -9.031042456626892090e-02 1.543917357921600342e-01 9.262545406818389893e-02 -8.723965846002101898e-03 -3.240486979484558105e-02 1.307964026927947998e-01 -6.948717683553695679e-02 -6.694470345973968506e-02 5.724290013313293457e-02 2.540559172630310059e-01 -1.284691542387008667e-01 1.637583822011947632e-01 -3.182327002286911011e-02 -2.495993487536907196e-02 -1.304401457309722900e-01 6.708651781082153320e-02 1.893716156482696533e-01 -3.856227174401283264e-02 -5.837342143058776855e-02 1.565248332917690277e-02 5.440622568130493164e-02 -4.960897564888000488e-02 1.712788939476013184e-01 1.359235197305679321e-01 4.764237999916076660e-02 1.104944013059139252e-02 2.083118408918380737e-01 4.627264291048049927e-02 -1.664989441633224487e-01 -3.943884745240211487e-02 3.055622987449169159e-02 -3.268937766551971436e-02 2.673757448792457581e-02 3.418424129486083984e-01 4.316393658518791199e-02 4.131329953670501709e-01 3.187572211027145386e-02 -1.464931070804595947e-01 5.368467536754906178e-04 1.146502196788787842e-01 -1.002910546958446503e-02 -8.895078301429748535e-02 5.621697381138801575e-02 1.307634562253952026e-01 -7.373067736625671387e-02 1.658618897199630737e-01
-3.384266197681427002e-01 3.288925290107727051e-01 -5.471533164381980896e-02 2.507308721542358398e-01 1.464516371488571167e-01 9.077981859445571899e-02 2.343278527259826660e-01 -1.677433103322982788e-01 6.402564793825149536e-02 1.574836969375610352e-01 -1.448678225278854370e-01 3.260528668761253357e-02 -1.232229173183441162e-01 2.351254224777221680e-01 -8.569751679897308350e-02 6.916789710521697998e-02 1.867309212684631348e-01 -7.198663800954818726e-02 6.267113238573074341e-02 -8.435799181461334229e-02 -2.578449063003063202e-02 1.505567282438278198e-01 -4.122981335967779160e-03 6.676470488309860229e-02 8.792231976985931396e-02 1.175485923886299133e-02 -1.074915900826454163e-01 -2.940219044685363770e-01 3.702478110790252686e-02 1.766755282878875732e-01 -5.770943686366081238e-02 4.248620867729187012e-01 1.429069340229034424e-01 1.110950931906700134e-01 -9.552428871393203735e-02 1.949846595525741577e-01 8.332103490829467773e-02 5.437509343028068542e-02 3.360906615853309631e-02 -5.488732829689979553e-02 -1.619726866483688354e-01 6.230441108345985413e-02 2.194680571556091309e-01 -5.189500283449888229e-03 -5.640020594000816345e-02 1.331773847341537476e-01 -1.550657004117965698e-01 -1.112335100769996643e-01 1.345590204000473022e-01 -1.668265461921691895e-01 -1.940268725156784058e-01 -1.306143850088119507e-01 5.580905452370643616e-02 1.467054430395364761e-02 -1.077091917395591736e-01 1.385987401008605957e-01 1.156756803393363953e-01 1.161578893661499023e-01 -7.071905583143234253e-02 1.091827452182769775e-01 1.003503277897834778e-01 1.879809498786926270e-01 1.356869749724864960e-02 -1.361481379717588425e-02 5.264800041913986206e-02 -9.700258076190948486e-02 -2.565717138350009918e-02 -1.712020114064216614e-02 -4.286437109112739563e-02 6.573154032230377197e-02 -1.235107406973838806e-01 6.483928114175796509e-02 6.775249727070331573e-03 9.962379932403564453e-02 4.202115237712860107e-01 -4.717338085174560547e-02 5.665958859026432037e-03 3.853106871247291565e-02 1.899848878383636475e-01 -1.823499351739883423e-01 -7.563009858131408691e-02 -9.040534496307373047e-03 2.969173341989517212e-02 7.218495011329650879e-02 -1.611561179161071777e-01 8.641153573989868164e-02 3.066413998603820801e-01 -5.688908323645591736e-02 1.798946410417556763e-01 -1.062206700444221497e-01 -8.040186017751693726e-02 1.150594442151486874e-03 7.942762225866317749e-02 3.700885921716690063e-02 2.102267146110534668e-01 -2.907912805676460266e-02 1.213552430272102356e-01 -3.074558824300765991e-02 1.485092639923095703e-01 6.486854702234268188e-02
5.259982496500015259e-02 -1.045892462134361267e-01 -1.008412167429924011e-01 -1.661542057991027832e-01 3.643779456615447998e-01 -1.575495898723602295e-01 -5.904389545321464539e-02 2.471394538879394531e-01 -1.505376398563385010e-01 1.448024660348892212e-01 9.621202945709228516e-02 -2.766860723495483398e-01 1.643473953008651733e-01 -1.867155432701110840e-01 1.076431274414062500e-01 7.261763513088226318e-02 1.301643550395965576e-01 -1.027988828718662262e-02 -5.962192639708518982e-02 -1.793847382068634033e-01 7.787484675645828247e-02 -1.826021075248718262e-01 -6.785448640584945679e-02 -1.079243049025535583e-01 1.600992679595947266e-01 8.716093003749847412e-02 -8.358034491539001465e-02 2.014543712139129639e-01 9.449749439954757690e-02 2.184063643217086792e-01 1.990943402051925659e-01 2.527396678924560547e-01 3.046510219573974609e-01 1.375641524791717529e-01 2.647853270173072815e-02 1.108952239155769348e-02 1.707815192639827728e-02 -6.236351560801267624e-03 2.784984884783625603e-03 1.776212751865386963e-01 -2.161340713500976562e-01 7.813834398984909058e-02 -2.753719687461853027e-02 7.633733749389648438e-02 -8.060930669307708740e-02 -2.901945710182189941e-01 6.547170877456665039e-02 6.888195127248764038e-02 1.453104913234710693e-01 1.657516658306121826e-01 1.647692173719406128e-01 -1.726275868713855743e-02 2.676519453525543213e-01 -9.151193499565124512e-02 3.077399358153343201e-02 -4.441239833831787109e-01 -1.817900538444519043e-01 -1.652295589447021484e-01 -3.365107253193855286e-02 8.595985360443592072e-03 -1.028151437640190125e-01 1.161716952919960022e-01 -6.244876980781555176e-02 -3.169235587120056152e-01 -9.733442217111587524e-02 7.999490201473236084e-02 -3.609978854656219482e-01 1.984959542751312256e-01 -1.532106846570968628e-02 -8.352560549974441528e-02 1.562645286321640015e-01 3.451593220233917236e-02 1.021141484379768372e-01 -1.215934380888938904e-01 6.702282279729843140e-02 2.464392632246017456e-01 -4.534724354743957520e-02 -3.296678662300109863e-01 -2.065538167953491211e-01 -1.996476799249649048e-01 6.479220837354660034e-02 2.675503492355346680e-02 2.151825610781088471e-04 2.863638475537300110e-02 7.791511714458465576e-02 -1.197517737746238708e-01 -2.068899720907211304e-01 1.881588101387023926e-01 3.436142206192016602e-01 4.457134753465652466e-02 1.941954195499420166e-01 1.279516965150833130e-01 -9.599470347166061401e-02 -5.367375910282135010e-02 -1.072456389665603638e-01 -1.055206581950187683e-01 2.096091657876968384e-01 -8.573520183563232422e-02 -7.203537970781326294e-03 -1.603085696697235107e-01
-4.205877482891082764e-01 -1.332965306937694550e-02 -1.472927778959274292e-01 8.174677938222885132e-02 1.540333777666091919e-01 -1.868290305137634277e-01 5.337239801883697510e-02 -3.351151645183563232e-01 2.030053921043872833e-02 1.417869776487350464e-01 -5.161939933896064758e-02 4.371595382690429688e-02 -3.772314190864562988e-01 1.672435402870178223e-01 1.701547019183635712e-02 4.842127114534378052e-02 9.374625980854034424e-02 -8.425112813711166382e-03 9.583359956741333008e-02 -7.169164717197418213e-02 -2.713999748229980469e-01 5.503461882472038269e-02 1.139310151338577271e-01 -1.533894687891006470e-01 9.624468535184860229e-02 -1.687116175889968872e-02 -1.434297766536474228e-03 -7.694225758314132690e-02 7.118799537420272827e-02 1.167366802692413330e-01 5.789354443550109863e-02 1.049497574567794800e-01 -1.764762848615646362e-01 5.600202083587646484e-02 -5.928454920649528503e-02 7.123279571533203125e-02 -4.646926745772361755e-02 1.207217480987310410e-02 5.001753941178321838e-02 -2.035252600908279419e-01 -3.881189227104187012e-02 -5.953395366668701172e-02 -4.693250171840190887e-03 9.615708142518997192e-02 7.637952268123626709e-02 2.888342142105102539e-01 -1.426732838153839111e-01 -2.425723075866699219e-01 1.938870549201965332e-01 -1.762289702892303467e-01 -3.437751829624176025e-01 -2.677948959171772003e-02 -6.566710770130157471e-02 1.610747128725051880e-01 -8.158104866743087769e-02 -1.372328959405422211e-02 1.107357325963675976e-03 9.438493102788925171e-02 1.989996135234832764e-01 1.759072579443454742e-02 -3.316418081521987915e-02 -7.058236747980117798e-02 -1.145495474338531494e-01 8.968562632799148560e-02 2.046721577644348145e-01 6.666953116655349731e-02 -3.422058653086423874e-03 -1.951383613049983978e-02 1.987408846616744995e-01 -7.835985720157623291e-02 -1.510235518217086792e-01 -2.502224966883659363e-02 1.362971663475036621e-01 1.611324697732925415e-01 2.911924123764038086e-01 1.932681649923324585e-01 -1.319311000406742096e-02 7.918260991573333740e-02 -3.604158759117126465e-02 -1.540852934122085571e-01 -1.315336823463439941e-01 -9.614830836653709412e-03 1.887919194996356964e-02 5.641404539346694946e-03 7.565431296825408936e-02 1.072575971484184265e-01 9.298738092184066772e-02 -1.775536686182022095e-01 4.303906485438346863e-02 -2.292604893445968628e-01 -1.511788368225097656e-01 -1.325493752956390381e-01 8.286647498607635498e-02 2.603530883789062500e-02 2.539855055510997772e-02 -1.184338517487049103e-02 2.758269906044006348e-01 -8.585207164287567139e-02 3.468087315559387207e-01 5.804624035954475403e-02
5.879901647567749023e-01 3.160380572080612183e-02 -9.071633964776992798e-02 2.017578110098838806e-03 -1.004649177193641663e-01 1.205886341631412506e-02 2.245835028588771820e-02 2.089204788208007812e-01 -9.428035467863082886e-02 9.120322763919830322e-02 1.065170094370841980e-01 6.534878909587860107e-02 2.027182281017303467e-02 -4.192928969860076904e-02 5.756419897079467773e-02 -1.435385197401046753e-01 8.472166955471038818e-02 -1.172293648123741150e-01 1.373326331377029419e-01 3.117821877822279930e-03 1.387526374310255051e-02 5.075139342807233334e-04 6.973700970411300659e-02 8.171716704964637756e-03 6.348066776990890503e-02 7.513633370399475098e-02 -1.424012929201126099e-01 -5.893741548061370850e-02 2.455994933843612671e-01 4.363224655389785767e-02 -7.997425273060798645e-03 -5.215299315750598907e-03 2.245209217071533203e-01 3.607603535056114197e-02 1.406968981027603149e-01 2.261084169149398804e-01 1.059680804610252380e-01 1.959906667470932007e-01 -3.645615279674530029e-01 1.562714427709579468e-01 2.526827156543731689e-01 -1.705020815134048462e-01 3.055377304553985596e-01 8.534563705325126648e-03 -9.321773052215576172e-02 -1.174124628305435181e-01 -3.454560181125998497e-03 -6.736097484827041626e-02 5.468288064002990723e-02 1.629386842250823975e-01 -2.251768559217453003e-01 -9.401601739227771759e-03 -8.494644425809383392e-03 5.781833827495574951e-02 -1.202162951231002808e-01 6.924046576023101807e-02 -3.162568807601928711e-02 -2.043741382658481598e-02 -5.114195868372917175e-03 -1.312769204378128052e-01 -1.288980692625045776e-01 -3.665848076343536377e-02 4.723079036921262741e-03 1.647075451910495758e-02 1.105583459138870239e-01 8.495463430881500244e-02 9.073574095964431763e-03 -2.770062386989593506e-01 -7.712716609239578247e-02 1.357735842466354370e-01 -2.127844095230102539e-01 8.380497246980667114e-02 6.746289785951375961e-03 -3.657359257340431213e-02 4.538718983530998230e-02 -3.447131067514419556e-02 1.982433721423149109e-03 -4.559707362204790115e-03 2.058535814285278320e-01 1.569353789091110229e-01 2.395962476730346680e-01 -8.132727444171905518e-02 4.898370057344436646e-02 -2.651498913764953613e-01 2.851665914058685303e-01 -1.294787973165512085e-01 -6.587375421077013016e-03 -3.348806202411651611e-01 -7.403182983398437500e-02 2.802151441574096680e-01 -1.205118279904127121e-02 -2.122009098529815674e-01 -6.989906076341867447e-03 -1.555978357791900635e-01 -1.058181747794151306e-01 -2.492830343544483185e-02 -1.416067332029342651e-01 -8.542037010192871094e-02 2.893049120903015137e-01 -7.868118584156036377e-02
-1.092896908521652222e-01 -6.458721309900283813e-02 -5.413292720913887024e-02 3.764781355857849121e-02 -5.725150555372238159e-02 9.937332570552825928e-02 -1.291465014219284058e-01 2.225809246301651001e-01 -8.145606517791748047e-02 1.039822325110435486e-01 7.174263149499893188e-02 -1.106591373682022095e-01 7.900158315896987915e-02 -1.492798328399658203e-01 1.467782109975814819e-01 -3.698441386222839355e-02 -2.845040559768676758e-01 3.615181893110275269e-02 -6.760747730731964111e-02 1.308296024799346924e-01 1.116824969649314880e-01 9.940122812986373901e-02 1.343718767166137695e-01 2.051615566015243530e-01 -5.084444582462310791e-02 -1.499993205070495605e-01 -5.105844233185052872e-03 -9.608525037765502930e-02 -8.595532923936843872e-02 -1.261931657791137695e-01 6.786189228296279907e-02 3.807066380977630615e-02 1.280550509691238403e-01 -3.289016783237457275e-01 2.651812136173248291e-02 -6.927046179771423340e-02 -6.267950683832168579e-02 6.107714399695396423e-02 -2.609962038695812225e-02 1.776996850967407227e-01 -1.014545708894729614e-01 2.305174469947814941e-01 -1.303604543209075928e-01 1.029670909047126770e-01 1.033765897154808044e-01 -6.781625002622604370e-02 1.393135040998458862e-01 3.513783961534500122e-02 -2.108281478285789490e-02 -1.769696772098541260e-01 5.595138296484947205e-02 7.734721153974533081e-02 -1.227881982922554016e-01 -8.943451941013336182e-02 -4.864346608519554138e-02 -1.413968354463577271e-01 -6.738316267728805542e-02 -8.188874274492263794e-02 1.123891677707433701e-02 1.445905566215515137e-01 2.627891674637794495e-02 -4.458926990628242493e-02 3.468473553657531738e-01 -1.810528337955474854e-02 -2.033981867134571075e-02 9.937947243452072144e-02 -7.187929004430770874e-02 2.110382542014122009e-02 2.178488671779632568e-02 1.451546549797058105e-01 7.123046368360519409e-02 3.239255398511886597e-02 1.708123385906219482e-01 1.758125843480229378e-03 -1.965420544147491455e-01 -5.396355874836444855e-03 1.000719144940376282e-01 1.426809094846248627e-02 -2.971077859401702881e-01 -1.281448602676391602e-01 1.622326821088790894e-01 -1.552485022693872452e-02 2.389438450336456299e-03 5.960226804018020630e-02 -1.003527780994772911e-03 5.752516165375709534e-02 9.223308414220809937e-02 1.886145174503326416e-01 -1.759470812976360321e-02 1.320545673370361328e-01 1.090013831853866577e-01 1.834831982851028442e-01 1.455129534006118774e-01 9.489163011312484741e-02 1.840310096740722656e-01 4.902183637022972107e-02 3.061560168862342834e-02 1.825105100870132446e-01 -2.223814725875854492e-01 -3.756856024265289307e-01
7.311914116144180298e-02 -1.357889454811811447e-02 -5.480776727199554443e-02 -2.335356175899505615e-02 2.285663634538650513e-01 3.225466609001159668e-02 -1.530103087425231934e-01 -1.637502461671829224e-01 -4.856724664568901062e-02 4.962768033146858215e-02 -1.150590833276510239e-02 -2.841648459434509277e-02 -9.641194343566894531e-02 6.830482184886932373e-02 4.279607534408569336e-02 1.187303066253662109e-01 1.642822325229644775e-01 -1.765935719013214111e-01 1.764281243085861206e-01 1.749255508184432983e-02 2.075149677693843842e-02 -1.055440213531255722e-02 -5.130616575479507446e-02 -3.126659691333770752e-01 -6.553743779659271240e-02 -7.946905493736267090e-02 8.681329200044274330e-04 -3.082329966127872467e-02 2.630504071712493896e-01 -1.517111510038375854e-01 2.112942487001419067e-01 -1.016331613063812256e-01 -2.219933718442916870e-01 -1.310130953788757324e-01 -1.173979490995407104e-01 -5.913588032126426697e-02 -1.336053200066089630e-02 7.543896138668060303e-02 -4.894169792532920837e-02 -6.917704641819000244e-02 -1.285231560468673706e-01 -2.908740425482392311e-03 1.520561724901199341e-01 1.643701940774917603e-01 1.126840338110923767e-01 -1.004827953875064850e-02 -1.096141710877418518e-01 -1.139044240117073059e-01 2.379188835620880127e-01 -1.926607079803943634e-02 -2.370338141918182373e-01 1.737053156830370426e-03 8.007291704416275024e-02 6.731202453374862671e-02 -3.825034573674201965e-02 3.842221572995185852e-02 8.609353750944137573e-02 6.475864350795745850e-02 -3.161916136741638184e-02 8.126505464315414429e-02 6.566932797431945801e-02 7.674450427293777466e-02 -1.624515205621719360e-01 1.874437928199768066e-01 2.483529746532440186e-01 7.250148057937622070e-02 4.563605040311813354e-02 1.427533179521560669e-01 6.484619528055191040e-02 2.487023593857884407e-03 8.764400333166122437e-02 5.114811006933450699e-03 1.069647222757339478e-01 2.008037567138671875e-01 1.250753551721572876e-01 1.894141137599945068e-01 -9.988921135663986206e-02 1.786291971802711487e-02 -1.278301775455474854e-01 -6.693757325410842896e-02 -7.732056826353073120e-02 5.802785232663154602e-02 -5.995533987879753113e-02 7.140766829252243042e-03 4.092533141374588013e-03 1.279493868350982666e-01 7.268695160746574402e-03 -3.121326677501201630e-02 1.606639027595520020e-01 4.133324697613716125e-02 1.889223009347915649e-01 -1.264236271381378174e-01 1.328843086957931519e-01 2.354938536882400513e-01 -1.058947145938873291e-01 3.389533981680870056e-02 1.112924814224243164e-01 1.189088150858879089e-01 2.352582514286041260e-01 1.157812774181365967e-01
6.524261087179183960e-02 -1.268439274281263351e-02 1.596958786249160767e-01 -1.538535505533218384e-01 -9.439003467559814453e-02 2.296556718647480011e-02 -1.102334260940551758e-01 4.776179790496826172e-02 -1.617738753557205200e-01 -1.846466958522796631e-01 7.041930221021175385e-03 -1.558087915182113647e-01 5.347048118710517883e-02 -1.411180198192596436e-01 6.647972762584686279e-02 -5.822154507040977478e-02 -6.376399844884872437e-02 -6.959608756005764008e-03 6.427152454853057861e-02 9.272271394729614258e-02 -5.073511973023414612e-02 7.486800104379653931e-02 1.004158258438110352e-01 2.597171962261199951e-01 -6.946646422147750854e-02 5.715206265449523926e-02 1.033849865198135376e-01 1.041899621486663818e-01 -1.279421150684356689e-02 1.243650093674659729e-01 5.005604401230812073e-02 -1.006548106670379639e-02 -9.006158262491226196e-02 1.402914077043533325e-01 1.244812607765197754e-01 -9.078262001276016235e-02 -5.299517512321472168e-02 -2.913460694253444672e-02 9.690283983945846558e-02 5.499273166060447693e-02 1.995291262865066528e-01 2.080731093883514404e-01 -8.594950288534164429e-02 8.030860126018524170e-02 4.071044921875000000e-02 2.763571441173553467e-01 -1.858283430337905884e-01 4.400731995701789856e-02 -1.462161093950271606e-01 7.310147583484649658e-02 1.405391842126846313e-01 4.490976780652999878e-02 -7.214395701885223389e-02 1.178959570825099945e-02 -8.187530934810638428e-02 1.294776201248168945e-01 -1.859576441347599030e-02 1.240671128034591675e-01 2.176222205162048340e-01 1.469347719103097916e-02 4.809969291090965271e-02 2.025701254606246948e-01 -5.144624039530754089e-03 6.236534938216209412e-02 8.079256862401962280e-02 -5.925894528627395630e-02 1.362667232751846313e-02 -5.617351084947586060e-02 -2.775911707431077957e-03 1.000178083777427673e-01 5.905783269554376602e-03 8.230160176753997803e-02 -7.803655415773391724e-02 -3.235055804252624512e-01 -2.752832174301147461e-01 -8.291763253509998322e-03 4.311861842870712280e-02 2.155826538801193237e-01 2.254914045333862305e-01 -4.922936111688613892e-02 -5.762876942753791809e-02 4.883673414587974548e-02 -9.842655062675476074e-02 -7.110307365655899048e-02 2.191043496131896973e-01 -5.880785640329122543e-03 1.925348490476608276e-01 -2.197927534580230713e-01 -4.620616734027862549e-01 -3.740238957107067108e-03 -1.439881511032581329e-02 2.395740449428558350e-01 9.123683720827102661e-02 -4.686589911580085754e-02 1.250882893800735474e-01 -2.468929812312126160e-02 -2.891378402709960938e-01 -2.199026383459568024e-02 -7.901615463197231293e-03 -1.424736827611923218e-01
3.861137032508850098e-01 8.013765513896942139e-02 -4.861618578433990479e-02 -1.905094385147094727e-01 -2.593402266502380371e-01 1.673168987035751343e-01 9.755761176347732544e-02 5.963269248604774475e-02 1.063919514417648315e-01 -4.698162432760000229e-03 -9.644103795289993286e-02 5.684388801455497742e-02 2.292094379663467407e-01 -3.734966814517974854e-01 7.769185304641723633e-02 2.873326465487480164e-02 -1.552861034870147705e-01 1.100910827517509460e-01 1.583473980426788330e-01 1.040458679199218750e-01 7.904689013957977295e-02 1.826080083847045898e-01 1.870718896389007568e-01 2.289279736578464508e-02 1.287331283092498779e-01 1.100510824471712112e-02 7.882983982563018799e-02 -1.407844722270965576e-01 3.447786718606948853e-02 1.975835710763931274e-01 -4.280210658907890320e-02 2.182579934597015381e-01 1.404035389423370361e-01 -1.259424090385437012e-01 5.153144523501396179e-02 1.485888063907623291e-01 2.646559178829193115e-01 2.111961543560028076e-01 -1.323516517877578735e-01 6.596765015274286270e-04 2.715067267417907715e-01 7.650648057460784912e-02 7.964219897985458374e-02 -3.555017709732055664e-02 1.338037569075822830e-02 -9.462337940931320190e-03 3.828343469649553299e-03 1.033280789852142334e-01 -1.658509820699691772e-01 -1.627416014671325684e-01 -8.310747891664505005e-02 7.039856165647506714e-02 2.541778143495321274e-03 1.319235414266586304e-01 -9.382300078868865967e-02 1.451645195484161377e-01 -1.062225997447967529e-01 -5.105601623654365540e-02 3.434585332870483398e-01 -1.012613400816917419e-01 1.366162151098251343e-01 -3.999540954828262329e-02 3.913728520274162292e-02 -9.653732925653457642e-02 -1.668025739490985870e-02 7.544983923435211182e-02 1.239396408200263977e-01 -5.469943583011627197e-02 -2.388794869184494019e-01 1.851104944944381714e-01 -1.719968020915985107e-01 2.013105899095535278e-01 4.786627832800149918e-03 -1.310424953699111938e-01 -3.160299062728881836e-01 2.456605434417724609e-02 8.262113481760025024e-02 1.946499198675155640e-01 3.102522194385528564e-01 3.532014191150665283e-01 1.543562859296798706e-01 -4.017446935176849365e-02 -1.536512933671474457e-02 -5.199012160301208496e-02 1.327298879623413086e-01 6.083481386303901672e-02 -4.046044126152992249e-02 -6.032103672623634338e-02 -4.742212295532226562e-01 2.559599876403808594e-01 -1.912098005414009094e-02 -1.237133145332336426e-01 1.100885644555091858e-01 -1.540647298097610474e-01 -3.024126589298248291e-01 2.076768279075622559e-01 -4.947649314999580383e-02 1.425521355122327805e-02 -1.080151051282882690e-01 7.398708164691925049e-02
-3.110080957412719727e-01 3.424147516489028931e-02 4.577230662107467651e-02 -6.352324038743972778e-02 3.496710211038589478e-02 5.848043039441108704e-02 8.875790983438491821e-02 1.025432497262954712e-01 -7.174715399742126465e-02 8.879056572914123535e-02 -4.878449812531471252e-02 -2.023122757673263550e-01 -1.043762639164924622e-01 5.408200621604919434e-02 2.092843316495418549e-02 -8.586471527814865112e-02 -3.100585341453552246e-01 4.437527433037757874e-02 -1.933582685887813568e-02 1.288917213678359985e-01 1.836903542280197144e-01 1.284631639719009399e-01 2.360025979578495026e-02 1.239881515502929688e-01 1.782957650721073151e-02 -1.799881309270858765e-01 3.735321760177612305e-02 -5.598059296607971191e-02 9.571103751659393311e-02 3.017064929008483887e-01 8.168490976095199585e-02 3.629210293292999268e-01 2.286408990621566772e-01 -2.869295477867126465e-01 1.174685284495353699e-01 -1.087886244058609009e-01 1.352214366197586060e-01 7.012672140263020992e-04 1.836988776922225952e-01 -6.306160986423492432e-02 -8.498210459947586060e-03 3.048587441444396973e-01 6.299895048141479492e-02 1.703267097473144531e-01 8.190959692001342773e-02 1.120091006159782410e-01 -3.055579587817192078e-02 7.909522205591201782e-02 -5.041294544935226440e-02 -2.124745696783065796e-01 1.143888756632804871e-01 -3.674535080790519714e-02 6.370402127504348755e-02 -1.674014516174793243e-02 -1.090505439788103104e-02 -2.849284186959266663e-02 -6.909436732530593872e-02 -6.715098768472671509e-02 1.406691670417785645e-01 9.578805416822433472e-02 9.059799462556838989e-02 -8.123520761728286743e-02 4.203881621360778809e-01 7.348995190113782883e-03 1.716423332691192627e-01 -4.152577370405197144e-02 -1.174318976700305939e-02 3.321816399693489075e-02 1.256420016288757324e-01 1.279917359352111816e-01 -3.543545678257942200e-02 1.710322499275207520e-01 8.081270009279251099e-02 2.113685756921768188e-02 2.449830994009971619e-02 -3.025540336966514587e-02 4.269961640238761902e-02 -2.069948613643646240e-01 -6.702856719493865967e-02 -3.608014062047004700e-02 -1.034077070653438568e-02 7.020744681358337402e-02 -1.185785531997680664e-01 3.328695148229598999e-02 -5.129563063383102417e-02 1.632986515760421753e-01 -4.225506633520126343e-02 1.347980201244354248e-01 -1.653281450271606445e-01 1.164303496479988098e-01 -8.867478027241304517e-05 1.803088337182998657e-01 -1.868833042681217194e-02 -4.968229681253433228e-02 1.354406028985977173e-01 -1.155305560678243637e-02 3.968866541981697083e-02 1.369049493223428726e-02 -2.365470528602600098e-01 -4.037280380725860596e-01
-3.498490154743194580e-01 -2.285991422832012177e-02 -1.308421045541763306e-01 3.107641264796257019e-02 1.109889373183250427e-01 -1.565804779529571533e-01 4.195278510451316833e-02 -1.288696676492691040e-01 1.461572945117950439e-01 9.269972145557403564e-02 -1.357263922691345215e-01 -5.301296710968017578e-02 2.661540359258651733e-02 2.974257171154022217e-01 3.153694560751318932e-03 -3.173493221402168274e-02 2.537743886932730675e-03 1.122664287686347961e-01 1.017609164118766785e-01 1.377590894699096680e-01 -9.851477295160293579e-02 7.372440397739410400e-02 1.072312444448471069e-01 2.303960919380187988e-01 8.300822228193283081e-02 -9.129141271114349365e-02 5.564886610954999924e-03 -8.120057731866836548e-02 -6.382886320352554321e-02 7.157617062330245972e-02 -1.209444776177406311e-01 -1.045478135347366333e-01 2.437813393771648407e-02 2.123880535364151001e-01 5.679524689912796021e-02 9.712357074022293091e-02 3.701378032565116882e-02 -2.707295492291450500e-02 1.764981001615524292e-01 1.809726208448410034e-01 -1.723107695579528809e-02 4.012954235076904297e-02 -1.093797758221626282e-01 -5.138343945145606995e-02 -6.395796686410903931e-02 1.936608552932739258e-01 -2.177430875599384308e-02 -7.969027012586593628e-02 3.765974640846252441e-01 -2.571099698543548584e-01 2.917089313268661499e-02 -3.731171786785125732e-02 -2.202049940824508667e-01 3.657004237174987793e-02 -9.727962315082550049e-03 -2.039637230336666107e-02 9.105252474546432495e-02 5.155345797538757324e-02 -1.336648911237716675e-01 1.598735898733139038e-01 5.837487056851387024e-03 -1.743638366460800171e-01 4.662235453724861145e-02 2.230930626392364502e-01 -1.686089299619197845e-02 9.846831113100051880e-02 2.444076351821422577e-02 -7.352218776941299438e-02 1.517247259616851807e-01 -5.503440648317337036e-02 3.869283944368362427e-02 1.122088506817817688e-01 -5.134368315339088440e-02 2.567614614963531494e-01 1.459103375673294067e-01 8.759362250566482544e-02 4.826509952545166016e-02 1.455486267805099487e-01 -1.466739922761917114e-01 -1.104833632707595825e-01 7.746315747499465942e-02 3.492129221558570862e-02 -6.500843167304992676e-02 -3.620154457166790962e-03 1.464943960309028625e-02 5.631535127758979797e-02 1.868049986660480499e-02 2.603976130485534668e-01 2.811148464679718018e-01 3.395363315939903259e-02 -9.745957702398300171e-02 2.804713696241378784e-02 4.950959980487823486e-02 9.431688487529754639e-02 4.434835538268089294e-02 -8.139200508594512939e-02 1.714412271976470947e-01 1.182551831007003784e-01 2.420024760067462921e-02 7.314823567867279053e-02
2.085455060005187988e-01 -1.049321442842483521e-01 -6.098752096295356750e-02 9.804803133010864258e-02 -3.278562799096107483e-02 1.078316755592823029e-02 -2.390616983175277710e-01 9.340497851371765137e-02 2.619713358581066132e-02 1.233095675706863403e-02 1.133048012852668762e-01 -9.069347754120826721e-03 1.435824930667877197e-01 -2.322884947061538696e-01 1.162793114781379700e-01 1.491231173276901245e-01 -9.873691946268081665e-02 1.487044095993041992e-01 -3.577805310487747192e-02 -2.327175997197628021e-02 1.544049233198165894e-01 2.418086491525173187e-02 8.455391973257064819e-03 9.263085573911666870e-02 1.347785890102386475e-01 7.303160429000854492e-02 5.723433941602706909e-02 -8.755292743444442749e-02 1.251698285341262817e-01 -3.855925500392913818e-01 -3.076388500630855560e-02 6.806263700127601624e-03 3.797411918640136719e-02 -2.814001142978668213e-01 1.978083401918411255e-01 -7.513480633497238159e-02 1.138153299689292908e-02 8.317681401968002319e-02 -1.993712484836578369e-01 2.695021629333496094e-01 1.747550368309020996e-01 1.914647221565246582e-01 -7.119554094970226288e-03 2.191139385104179382e-02 4.266649484634399414e-02 -8.833442814648151398e-03 8.576064556837081909e-02 1.153220683336257935e-01 -8.499602228403091431e-02 2.565887570381164551e-01 -1.530594751238822937e-02 1.089668795466423035e-01 -1.904244571924209595e-01 3.714492544531822205e-02 3.275515139102935791e-02 -9.790340811014175415e-02 -1.690931967459619045e-03 -1.167020946741104126e-01 8.993761241436004639e-02 9.278304874897003174e-02 1.203152090311050415e-01 4.497549310326576233e-02 -1.216420903801918030e-03 -7.869866490364074707e-02 1.751172989606857300e-01 1.869465857744216919e-01 3.857181221246719360e-02 1.239706128835678101e-01 4.128810763359069824e-02 1.117935497313737869e-02 1.227302923798561096e-01 2.191372215747833252e-01 -8.143752813339233398e-03 1.296962052583694458e-01 -2.945322394371032715e-01 -7.053828984498977661e-02 -2.215363644063472748e-02 -1.108658835291862488e-01 -2.265409976243972778e-01 9.884658455848693848e-02 6.204340234398841858e-02 7.132565230131149292e-02 2.449918091297149658e-01 -2.958455681800842285e-02 -2.203795164823532104e-01 8.116022497415542603e-02 -4.320459812879562378e-02 9.103499352931976318e-02 5.760960280895233154e-02 2.897410094738006592e-01 5.198815837502479553e-02 6.360242515802383423e-02 1.506443768739700317e-01 -8.494600653648376465e-02 -2.050549909472465515e-02 1.069106087088584900e-01 -2.373175323009490967e-02 1.737229377031326294e-01 -2.199596166610717773e-01 -2.975460588932037354e-01
-1.950976401567459106e-01 5.908671021461486816e-02 -7.481054402887821198e-03 -1.446524541825056076e-02 -1.370187476277351379e-02 -6.316691637039184570e-02 -2.080333977937698364e-01 7.074730005115270615e-03 4.292714223265647888e-02 -5.471409857273101807e-02 1.573449671268463135e-01 -3.405097522772848606e-04 -7.273600250482559204e-02 -1.906062066555023193e-01 6.186858937144279480e-02 9.586298465728759766e-02 -2.977843582630157471e-01 1.857593655586242676e-02 1.200454831123352051e-01 9.382597357034683228e-02 1.521494984626770020e-01 5.043428763747215271e-02 8.690503239631652832e-02 7.230623811483383179e-02 2.479883842170238495e-02 2.057524770498275757e-02 2.385260760784149170e-01 3.563086211215704679e-04 1.469815969467163086e-01 -3.266976475715637207e-01 1.054482683539390564e-01 1.710086911916732788e-01 -2.581476978957653046e-02 -1.982567608356475830e-01 1.483857333660125732e-01 -1.565995044074952602e-03 -8.170539140701293945e-02 1.447578668594360352e-01 -2.144277468323707581e-02 1.876142919063568115e-01 -4.355412349104881287e-02 1.480847299098968506e-01 -3.760276362299919128e-02 1.814460754394531250e-01 1.870832592248916626e-02 1.367757469415664673e-01 2.414274401962757111e-02 1.298790425062179565e-01 -1.011471077799797058e-01 -1.259135603904724121e-01 -4.001057893037796021e-02 3.206371143460273743e-02 -9.977772831916809082e-02 1.184028014540672302e-01 1.498358249664306641e-01 -2.649823017418384552e-02 1.235899552702903748e-01 -6.284338980913162231e-02 7.007993012666702271e-02 1.213521286845207214e-01 1.924742362461984158e-03 -4.898523539304733276e-02 1.603364646434783936e-01 -4.527816921472549438e-02 2.341798096895217896e-01 -1.211537122726440430e-01 -4.442704375833272934e-03 7.484383881092071533e-02 1.698344498872756958e-01 8.589255809783935547e-02 -1.954776979982852936e-02 2.193314284086227417e-01 3.405509889125823975e-02 4.061842709779739380e-02 -2.359691858291625977e-01 4.176132753491401672e-02 5.843125749379396439e-03 9.269602596759796143e-02 -2.167287021875381470e-01 6.327039748430252075e-02 -1.141449250280857086e-02 -6.305722147226333618e-02 1.572999209165573120e-01 1.493269354104995728e-01 -6.650261580944061279e-02 1.353367269039154053e-01 1.234216690063476562e-01 -1.570251882076263428e-01 -2.752299308776855469e-01 -3.734979033470153809e-02 -5.768501199781894684e-03 9.245271235704421997e-02 6.568160653114318848e-02 -1.317286789417266846e-01 -4.262916371226310730e-02 -1.373633649200201035e-02 4.297833144664764404e-02 3.077343804761767387e-03 -8.856488019227981567e-02 -1.544614434242248535e-01
2.535023689270019531e-01 -4.818627145141363144e-03 2.094707340002059937e-01 5.833950266242027283e-02 -2.056543678045272827e-01 -7.080627232789993286e-02 2.405059188604354858e-01 2.849450707435607910e-01 -8.369828015565872192e-02 -1.128972098231315613e-01 2.259732931852340698e-01 9.263138473033905029e-02 1.876507252454757690e-01 -1.632869057357311249e-02 9.274521470069885254e-02 6.005547568202018738e-02 1.348658949136734009e-01 -5.029779393225908279e-03 -7.936874032020568848e-02 -1.075272634625434875e-01 1.682093888521194458e-01 -1.041158810257911682e-01 -9.224630147218704224e-02 -1.874028742313385010e-01 4.601011797785758972e-02 2.401435077190399170e-01 1.512014567852020264e-01 5.160451680421829224e-02 1.311769932508468628e-01 6.984371691942214966e-02 -3.327986896038055420e-01 -2.637158147990703583e-02 8.784142136573791504e-02 1.887995600700378418e-01 6.255077570676803589e-02 -9.921651333570480347e-02 2.188888490200042725e-01 7.095827162265777588e-02 6.185590848326683044e-02 -1.495422124862670898e-01 1.601053774356842041e-01 -9.301315993070602417e-02 1.207702159881591797e-01 9.900070726871490479e-02 6.642998754978179932e-02 6.591314077377319336e-02 -5.689320620149374008e-03 5.539999902248382568e-02 -1.368848085403442383e-01 3.172860741615295410e-01 -1.329156453721225262e-03 -1.128976121544837952e-01 1.945543140172958374e-01 1.445576082915067673e-03 -4.082836210727691650e-02 2.282506600022315979e-02 -4.392633587121963501e-02 1.158287096768617630e-02 1.184166818857192993e-01 3.453104943037033081e-02 5.980926379561424255e-02 7.634230703115463257e-02 -1.799852848052978516e-01 6.475879251956939697e-02 -2.383209913969039917e-01 -2.366812974214553833e-01 1.944687962532043457e-01 1.949562691152095795e-02 -9.256069362163543701e-02 -7.007799297571182251e-02 -2.514223754405975342e-01 2.120731323957443237e-01 -1.865076869726181030e-01 -1.251948997378349304e-02 1.442335247993469238e-01 -8.883341401815414429e-02 -5.749665945768356323e-02 3.941840678453445435e-02 5.399171113967895508e-01 2.674579024314880371e-01 -1.206815093755722046e-01 4.653952643275260925e-02 -9.026732295751571655e-02 9.917854331433773041e-03 1.051276326179504395e-01 -2.616310119628906250e-02 1.025498136878013611e-01 -2.498333901166915894e-01 -1.581876575946807861e-01 -1.863252967596054077e-01 9.666360914707183838e-02 -3.865861147642135620e-02 1.333589106798171997e-01 -1.140383724123239517e-02 3.324625641107559204e-02 9.720627218484878540e-03 1.159791797399520874e-01 -3.412970304489135742e-01 1.001844704151153564e-01 1.934018284082412720e-01
-1.891725659370422363e-01 1.081294640898704529e-01 -1.211580261588096619e-02 1.696355938911437988e-01 1.409329324960708618e-01 2.853459492325782776e-02 1.912336647510528564e-01 5.731733143329620361e-02 -3.551220521330833435e-02 -9.170537441968917847e-02 1.612896919250488281e-01 1.378791481256484985e-01 -1.113230809569358826e-01 -4.741260781884193420e-02 5.512285232543945312e-02 5.013652518391609192e-02 2.867449820041656494e-01 2.385186031460762024e-02 2.300941757857799530e-02 -8.134811371564865112e-02 -1.277475208044052124e-01 4.376045241951942444e-02 -3.340403735637664795e-02 -2.380536496639251709e-01 9.606697410345077515e-02 2.249844521284103394e-01 9.273200482130050659e-02 1.268550902605056763e-01 8.476727455854415894e-02 1.870523840188980103e-01 -7.415301632136106491e-03 -1.521969288587570190e-01 -1.141683831810951233e-01 1.511465758085250854e-01 -1.178172696381807327e-02 1.260706037282943726e-01 -1.918699592351913452e-02 9.523040056228637695e-02 1.691521257162094116e-01 -2.735262215137481689e-01 -2.282824367284774780e-01 -2.184083163738250732e-01 1.503140777349472046e-01 -1.690964587032794952e-02 -9.414456784725189209e-02 1.567666977643966675e-01 -1.721578538417816162e-01 1.102799642831087112e-02 -6.074895337224006653e-02 1.809245795011520386e-01 -1.705391108989715576e-01 -1.462724059820175171e-01 2.744803428649902344e-01 1.659543663263320923e-01 1.542225480079650879e-01 -8.320919424295425415e-02 1.047938764095306396e-01 1.462689135223627090e-02 -3.613967075943946838e-02 -2.004721947014331818e-02 1.231509372591972351e-01 6.549762934446334839e-02 -3.234387040138244629e-01 -2.227138876914978027e-01 1.693657189607620239e-01 -1.384291350841522217e-01 1.936830878257751465e-01 1.187362819910049438e-01 6.924648582935333252e-02 -2.920102328062057495e-02 -2.530687749385833740e-01 -1.756119774654507637e-03 1.383125633001327515e-01 -1.132594868540763855e-01 1.515649557113647461e-01 9.672280400991439819e-02 6.541283428668975830e-02 9.645097702741622925e-02 1.508159786462783813e-01 -6.107270251959562302e-03 -1.338389068841934204e-01 8.286029845476150513e-02 -6.390590220689773560e-02 5.170033499598503113e-02 1.428948938846588135e-01 4.897940531373023987e-02 9.245577454566955566e-02 -2.730732858180999756e-01 -7.036672532558441162e-02 -5.075805187225341797e-01 -2.953246422111988068e-02 1.490238904953002930e-01 8.393633365631103516e-02 7.570895552635192871e-02 8.470299839973449707e-02 -1.319276690483093262e-01 -4.204284399747848511e-02 -2.130459696054458618e-01 2.401023060083389282e-01 1.810487210750579834e-01
-4.854856133460998535e-01 5.896747112274169922e-03 9.253778308629989624e-02 9.728797525167465210e-02 2.279503643512725830e-02 -1.636485382914543152e-02 7.240854948759078979e-02 -4.967433586716651917e-02 7.972234487533569336e-02 1.184250935912132263e-01 -1.487188935279846191e-01 -3.072078898549079895e-02 1.090738996863365173e-01 2.269455492496490479e-01 -7.440091669559478760e-02 -1.031818091869354248e-01 1.114371791481971741e-01 -8.628991432487964630e-03 -6.016286462545394897e-02 -1.721991039812564850e-02 -2.413081191480159760e-02 -1.085741538554430008e-02 2.087294496595859528e-02 1.412024535238742828e-02 6.421414017677307129e-02 -2.312222868204116821e-01 7.807041704654693604e-02 2.119916081428527832e-01 -7.882042974233627319e-02 -3.472544625401496887e-02 -9.048204123973846436e-02 -1.614533513784408569e-01 1.125718280673027039e-01 2.680828571319580078e-01 -1.555956602096557617e-01 4.255009815096855164e-02 -9.396434575319290161e-02 -2.727457284927368164e-01 1.757745891809463501e-01 2.306940853595733643e-01 -7.770312577486038208e-02 1.539440006017684937e-01 -1.920055001974105835e-01 -1.777794808149337769e-01 6.128118187189102173e-02 -3.166914731264114380e-02 1.348406076431274414e-01 2.251741709187626839e-03 2.317060530185699463e-01 -9.915276616811752319e-02 6.651565432548522949e-02 -1.742386259138584137e-03 -1.144510880112648010e-01 -1.102640703320503235e-01 -1.046771109104156494e-01 6.747128069400787354e-02 1.114393547177314758e-01 -3.263509273529052734e-02 -1.373353004455566406e-01 1.865173280239105225e-01 1.121222004294395447e-01 -5.859188735485076904e-02 -1.765682175755500793e-02 -7.450710982084274292e-03 4.126318916678428650e-02 -2.071310579776763916e-02 8.909618481993675232e-03 1.801724433898925781e-01 -7.788742333650588989e-02 7.381799072027206421e-02 1.770716309547424316e-01 4.074437543749809265e-02 -3.635383769869804382e-02 1.502590328454971313e-01 5.531986430287361145e-02 1.637909561395645142e-01 -4.870159924030303955e-02 -1.061817482113838196e-01 -5.269334912300109863e-01 -1.107316464185714722e-01 2.681258134543895721e-02 -2.457464486360549927e-02 1.277905106544494629e-01 -6.455687433481216431e-02 -1.120153218507766724e-01 4.518680647015571594e-02 -3.164474666118621826e-02 1.133182942867279053e-01 4.796190857887268066e-01 5.568729247897863388e-03 7.590571790933609009e-02 -1.072563827037811279e-01 -1.468393392860889435e-02 8.444076776504516602e-02 1.457807719707489014e-01 -8.367389440536499023e-02 2.463837713003158569e-01 9.129267185926437378e-02 -5.370843410491943359e-02 -1.382629722356796265e-01
-2.099596709012985229e-01 -2.633934617042541504e-01 8.198580890893936157e-02 -3.266651928424835205e-01 2.566422522068023682e-02 1.211221143603324890e-01 -1.772129088640213013e-01 1.578627228736877441e-01 -4.451948776841163635e-02 -7.904661446809768677e-02 -1.336489170789718628e-01 -2.585660517215728760e-01 3.292470797896385193e-02 8.881086111068725586e-02 8.412490785121917725e-02 -2.930779755115509033e-02 -5.798029527068138123e-02 1.519379317760467529e-01 -2.892054244875907898e-02 8.917697519063949585e-02 1.012873426079750061e-01 -5.560480430722236633e-02 8.244764804840087891e-02 -4.103425890207290649e-02 -5.505156889557838440e-02 -1.484237313270568848e-01 -6.621886789798736572e-02 2.168958932161331177e-01 3.325421735644340515e-02 1.468222588300704956e-01 1.462068408727645874e-01 -9.804606437683105469e-02 3.858816623687744141e-02 -1.286742240190505981e-01 -1.007507517933845520e-01 -1.407212205231189728e-02 -1.356129199266433716e-01 1.313804239034652710e-01 3.091086447238922119e-01 1.573608219623565674e-01 -3.455420583486557007e-02 2.396634519100189209e-01 1.354948151856660843e-02 1.445224881172180176e-01 -8.538742363452911377e-02 2.172258682548999786e-02 4.745273664593696594e-02 1.109487488865852356e-01 2.350249737501144409e-01 -2.942152023315429688e-01 2.896599471569061279e-01 2.267992496490478516e-02 5.027382448315620422e-02 -1.192507445812225342e-01 -1.312198210507631302e-02 -2.744382321834564209e-01 -9.423731267452239990e-02 1.177916899323463440e-01 1.002225577831268311e-01 -7.801549136638641357e-02 8.102341741323471069e-02 3.194192945957183838e-01 1.677276492118835449e-01 1.450257003307342529e-01 7.866249419748783112e-03 1.980359107255935669e-01 -3.026840388774871826e-01 1.924478411674499512e-01 1.197056025266647339e-01 1.680728280916810036e-03 1.279546320438385010e-01 2.319854125380516052e-02 1.260027587413787842e-01 -9.580357372760772705e-02 9.906737506389617920e-02 -6.122915446758270264e-02 2.657883055508136749e-02 1.450582407414913177e-02 -1.447105854749679565e-01 -1.568217128515243530e-01 -4.924647137522697449e-02 2.211068011820316315e-02 -1.163628026843070984e-01 -2.158562839031219482e-02 2.340953797101974487e-01 1.136744543910026550e-01 1.074480488896369934e-01 2.154817283153533936e-01 -7.908390462398529053e-02 9.075492620468139648e-02 2.633250057697296143e-01 -5.999936908483505249e-02 -8.122375607490539551e-02 1.836570501327514648e-01 8.945865184068679810e-02 1.185060814023017883e-01 5.467092851176857948e-04 1.225646138191223145e-01 -1.887088268995285034e-02 -1.886701136827468872e-01
4.361116588115692139e-01 -2.235391549766063690e-02 -7.672311365604400635e-02 2.754955887794494629e-01 4.440033435821533203e-02 1.191931739449501038e-01 4.378321766853332520e-02 -5.006022285670042038e-03 -2.464006096124649048e-02 8.192455023527145386e-02 1.806645542383193970e-01 4.402451217174530029e-02 2.266701906919479370e-01 -7.010954618453979492e-02 1.408965885639190674e-01 -2.089418917894363403e-01 2.154481858015060425e-01 1.545680612325668335e-01 -1.183323562145233154e-02 9.729469567537307739e-02 7.724862545728683472e-02 4.068664088845252991e-02 4.641897603869438171e-02 9.458553791046142578e-02 1.612877100706100464e-01 1.330212950706481934e-01 3.938974812626838684e-02 -5.703795701265335083e-03 -2.349573224782943726e-01 -2.399453967809677124e-01 -1.319806724786758423e-01 8.938626199960708618e-02 1.709268689155578613e-01 1.793384253978729248e-01 -4.229229316115379333e-02 1.322821825742721558e-01 1.802031993865966797e-01 -1.110796406865119934e-01 -1.529095321893692017e-01 2.301998436450958252e-01 -5.756698176264762878e-02 1.244276687502861023e-01 -2.296575903892517090e-01 -2.354067414999008179e-01 9.912438690662384033e-02 -1.058688238263130188e-01 1.959546655416488647e-01 1.263217926025390625e-01 -4.907538648694753647e-03 4.146173894405364990e-01 -2.858259715139865875e-03 2.310641482472419739e-02 -4.897120408713817596e-03 -9.493622928857803345e-02 2.072506025433540344e-02 -1.545746624469757080e-01 1.227693166583776474e-02 6.207006424665451050e-02 -1.690563112497329712e-01 8.573214709758758545e-02 -1.043165847659111023e-01 -1.421326398849487305e-01 1.650091633200645447e-02 -2.047761082649230957e-01 -2.193521335721015930e-02 -7.908663898706436157e-02 -8.244761079549789429e-02 -1.239946484565734863e-01 -4.671977460384368896e-01 1.473411768674850464e-01 2.011965215206146240e-01 3.225578367710113525e-02 6.184292957186698914e-02 4.772213101387023926e-02 -9.441747516393661499e-02 7.570424675941467285e-02 -2.008951641619205475e-02 -3.227748349308967590e-02 -7.197955250740051270e-02 1.323490887880325317e-01 1.573510169982910156e-01 6.338591128587722778e-02 2.553890347480773926e-01 -1.927598845213651657e-03 -1.632496863603591919e-01 6.874620914459228516e-02 -1.223656013607978821e-01 6.245640292763710022e-02 1.289397925138473511e-01 2.460724562406539917e-01 -2.095985412597656250e-02 7.314257323741912842e-02 5.174163356423377991e-02 2.797146514058113098e-02 -1.221014112234115601e-01 -7.410003989934921265e-02 6.194380670785903931e-02 -1.546414196491241455e-01 -1.328214257955551147e-01 3.304232656955718994e-02
6.474848091602325439e-02 -9.055546671152114868e-02 -6.735898554325103760e-02 -5.376044660806655884e-02 6.155938655138015747e-02 5.230897571891546249e-03 -9.365172684192657471e-02 -1.113386377692222595e-01 -5.375263467431068420e-02 -1.078692451119422913e-01 -3.964004293084144592e-02 6.795281171798706055e-02 1.783249527215957642e-02 1.739211380481719971e-02 -2.661241777241230011e-02 -7.591551542282104492e-02 3.581806644797325134e-02 -3.197740763425827026e-02 -9.978987276554107666e-02 -6.613175570964813232e-02 -4.647218808531761169e-02 -1.251547187566757202e-01 -6.053296476602554321e-02 -1.260451972484588623e-02 -1.690596900880336761e-02 -1.305326912552118301e-02 -1.386045292019844055e-02 -4.932815674692392349e-03 2.907580882310867310e-02 -9.868616610765457153e-02 -8.081877231597900391e-02 -3.233388811349868774e-02 7.277369499206542969e-03 -3.046676702797412872e-02 -9.567032009363174438e-02 -8.770587295293807983e-02 3.840968757867813110e-02 -7.286652177572250366e-02 6.958784162998199463e-02 -9.586423635482788086e-02 -9.908048436045646667e-03 1.105251163244247437e-02 -1.808042265474796295e-02 -8.075567334890365601e-02 -1.104221418499946594e-01 -8.911557495594024658e-02 4.255245998501777649e-02 4.209517687559127808e-02 8.797975629568099976e-02 4.827504605054855347e-02 -1.013569459319114685e-01 -2.576876990497112274e-02 -9.148271381855010986e-02 -7.948343455791473389e-02 -9.175810962915420532e-02 4.692286998033523560e-02 -4.456037282943725586e-02 -1.225467026233673096e-02 -7.259323447942733765e-02 -2.389256283640861511e-02 1.833198824897408485e-03 2.138535678386688232e-02 -3.622436523437500000e-02 -9.469585865736007690e-02 -8.706068247556686401e-02 -4.443239048123359680e-02 1.659967750310897827e-02 -9.529432654380798340e-02 5.058980733156204224e-02 -6.922701746225357056e-02 -6.251573562622070312e-03 -2.905856585130095482e-03 -1.015950292348861694e-01 6.529105454683303833e-02 6.604509800672531128e-02 5.482584983110427856e-02 -2.982376515865325928e-02 -2.635356038808822632e-02 -5.153969675302505493e-02 -5.375909153372049332e-03 -1.194501742720603943e-01 9.642919152975082397e-02 -2.343683876097202301e-02 -1.021737977862358093e-01 -1.139669343829154968e-01 2.667600847780704498e-02 -6.244498491287231445e-02 -8.438085764646530151e-02 -7.197962701320648193e-02 3.686296567320823669e-02 -2.311550080776214600e-03 -9.562224149703979492e-02 -4.396400600671768188e-02 -5.599107965826988220e-02 -8.957102894783020020e-03 5.575842410326004028e-02 -7.130875438451766968e-02 -8.860826492309570312e-02 2.543517015874385834e-02 -9.416263201273977757e-04
-1.345082521438598633e-01 -2.916370145976543427e-02 1.385405361652374268e-01 -1.037695705890655518e-01 7.953164726495742798e-02 -3.124867752194404602e-02 -1.931844800710678101e-01 5.439010635018348694e-02 -7.399362325668334961e-02 1.046332120895385742e-01 1.745409891009330750e-02 -4.687562584877014160e-01 4.013663157820701599e-02 -1.865147054195404053e-01 1.225578486919403076e-01 -8.900567190721631050e-04 1.225009411573410034e-01 -1.173305958509445190e-01 4.968986287713050842e-02 -2.456713765859603882e-01 9.694170206785202026e-03 -6.056937947869300842e-02 7.779290433973073959e-03 -2.456164807081222534e-01 8.301997929811477661e-02 -1.122727990150451660e-01 1.229844093322753906e-01 2.127998918294906616e-01 1.076065301895141602e-01 2.176959216594696045e-01 5.942399799823760986e-02 1.686717122793197632e-01 2.667329609394073486e-01 1.086854934692382812e-01 7.443141192197799683e-02 -1.161032244563102722e-01 -6.770350039005279541e-02 7.461284101009368896e-02 -3.469353541731834412e-02 -1.456687748432159424e-01 -2.509823441505432129e-01 7.032445818185806274e-02 3.397170603275299072e-01 1.754311770200729370e-01 -1.110197380185127258e-01 -1.706586778163909912e-02 -2.776712477207183838e-01 5.403255671262741089e-02 7.774324715137481689e-02 -5.495743826031684875e-02 2.370468154549598694e-02 -4.005308449268341064e-02 2.448179125785827637e-01 -1.367561891674995422e-02 5.747565254569053650e-02 -4.331036806106567383e-01 -1.234462931752204895e-01 -1.825036406517028809e-01 7.912579178810119629e-02 -5.458562076091766357e-02 -5.822555162012577057e-03 2.201001942157745361e-01 2.041519284248352051e-01 -2.881573438644409180e-01 7.633458077907562256e-02 1.050796732306480408e-01 -2.217415571212768555e-01 1.714745759963989258e-01 2.547964751720428467e-01 6.467211991548538208e-02 1.247094571590423584e-02 1.006245240569114685e-01 4.137937352061271667e-02 3.922355361282825470e-03 1.444075852632522583e-01 1.971973478794097900e-01 -4.060343205928802490e-01 -6.915815919637680054e-02 -1.363052576780319214e-01 -1.894726008176803589e-01 -2.636727392673492432e-01 -5.076314508914947510e-02 2.016011252999305725e-02 5.797238554805517197e-03 2.258938848972320557e-01 9.046950936317443848e-02 -4.224846884608268738e-02 -5.369641631841659546e-02 3.263730704784393311e-01 -9.374847263097763062e-02 1.494304537773132324e-01 1.011056303977966309e-01 -7.388168573379516602e-02 -1.813505217432975769e-02 1.083721742033958435e-01 -1.698114573955535889e-01 -4.148138687014579773e-03 6.184852123260498047e-02 2.347953319549560547e-01 -1.291552186012268066e-01
1.179655864834785461e-01 1.965769678354263306e-01 1.375893354415893555e-01 -5.177753418684005737e-02 -1.868762224912643433e-01 -8.670935034751892090e-02 8.087484538555145264e-02 2.793262014165520668e-03 5.329220741987228394e-02 4.114042967557907104e-02 -2.003308534622192383e-01 -3.798487409949302673e-02 -4.321037232875823975e-02 2.286110669374465942e-01 -7.534979283809661865e-02 -1.208567619323730469e-01 -1.049431785941123962e-01 1.620748192071914673e-01 -5.563168227672576904e-02 5.661151558160781860e-02 2.074089832603931427e-02 8.222994208335876465e-02 6.240554153919219971e-02 5.593987107276916504e-01 5.687419325113296509e-02 2.538927947171032429e-04 1.550066769123077393e-01 1.716376990079879761e-01 -8.216635882854461670e-02 2.217781245708465576e-01 -1.756090968847274780e-01 2.099746093153953552e-02 1.280837506055831909e-01 2.526232302188873291e-01 -2.008754573762416840e-02 -5.571454763412475586e-02 7.962699979543685913e-02 -1.635352969169616699e-01 1.121202483773231506e-01 1.385855376720428467e-01 8.457150310277938843e-02 2.329934090375900269e-01 1.592836230993270874e-01 2.490367367863655090e-02 -5.313980951905250549e-02 9.086564183235168457e-02 -1.971785537898540497e-02 2.885619737207889557e-02 2.602885663509368896e-01 -1.722967177629470825e-01 1.517003625631332397e-01 -4.544622451066970825e-02 5.567992851138114929e-02 -2.647511288523674011e-02 -1.452281475067138672e-01 1.316220313310623169e-01 9.190332889556884766e-02 -8.693365007638931274e-02 -8.196525275707244873e-02 1.293498873710632324e-01 -1.431422084569931030e-01 2.706243693828582764e-01 1.196649149060249329e-01 2.353169620037078857e-01 -9.743121266365051270e-02 -1.231826841831207275e-01 -5.656531080603599548e-02 -4.900037124752998352e-02 7.219675183296203613e-02 -1.486112177371978760e-01 1.130613312125205994e-02 -1.540776938199996948e-01 -4.278516024351119995e-02 1.581623405218124390e-01 5.871015414595603943e-02 -7.898304611444473267e-02 9.892332553863525391e-02 -1.710336506366729736e-01 8.610175549983978271e-02 -9.150814265012741089e-02 -1.073615252971649170e-02 -3.416393697261810303e-02 -1.978907585144042969e-01 4.463078081607818604e-02 4.478079453110694885e-02 -1.325607597827911377e-01 1.792841963469982147e-02 1.211315542459487915e-01 2.004877626895904541e-01 2.190766632556915283e-01 1.044634133577346802e-01 -1.187519282102584839e-01 -1.178656071424484253e-01 5.629040300846099854e-02 1.904447674751281738e-01 -4.808155074715614319e-02 -1.748729199171066284e-01 -8.652304857969284058e-02 1.208832114934921265e-01 -1.581944376230239868e-01
-4.312817454338073730e-01 -1.213905736804008484e-01 2.794773280620574951e-01 -2.616403400897979736e-01 -9.456085413694381714e-02 -1.581743657588958740e-01 -6.983992457389831543e-02 2.465792186558246613e-02 1.878790929913520813e-02 -1.091221463866531849e-03 1.555760297924280167e-02 8.704557083547115326e-03 -1.836767941713333130e-01 -7.589876651763916016e-02 -1.123952046036720276e-01 -6.787455826997756958e-02 1.217464208602905273e-01 1.636892110109329224e-01 -6.798450648784637451e-02 1.184537075459957123e-03 7.120017707347869873e-02 8.425417542457580566e-02 2.100541628897190094e-02 1.611777693033218384e-01 -1.320318132638931274e-01 -6.230287626385688782e-02 -5.845706909894943237e-03 3.255832195281982422e-01 -8.479224145412445068e-02 -1.594589501619338989e-01 7.978083193302154541e-02 -1.389307808130979538e-02 1.467012614011764526e-01 -1.984626054763793945e-01 9.906382858753204346e-02 -7.021531462669372559e-02 -3.019240219146013260e-03 -1.162706911563873291e-01 3.664638996124267578e-01 1.904686689376831055e-01 6.917417049407958984e-02 2.372847199440002441e-01 -4.866866469383239746e-01 5.401868000626564026e-02 -5.994059890508651733e-02 1.383720785379409790e-01 5.573110189288854599e-03 1.772598475217819214e-01 2.396599203348159790e-02 -7.879552245140075684e-02 1.840167790651321411e-01 -8.089038729667663574e-02 -3.079585731029510498e-01 -1.818571090698242188e-01 -1.525719463825225830e-02 6.402133405208587646e-02 -1.472201943397521973e-01 1.649122312664985657e-02 3.039600886404514313e-02 1.656795740127563477e-01 2.741628512740135193e-02 4.183929860591888428e-01 1.403433829545974731e-01 -1.040753126144409180e-01 -8.658274263143539429e-02 2.332394942641258240e-02 -3.700201585888862610e-02 2.884908914566040039e-01 -2.737058326601982117e-03 3.714212402701377869e-02 3.114105165004730225e-01 -8.111172914505004883e-02 4.176784679293632507e-02 -2.416879385709762573e-01 -1.266152411699295044e-01 9.177964180707931519e-02 2.147067338228225708e-01 -1.679116338491439819e-01 -4.705721139907836914e-01 -1.815550476312637329e-01 5.543718580156564713e-03 -4.302174597978591919e-02 3.691757097840309143e-02 4.284223914146423340e-02 6.498721241950988770e-02 8.440013229846954346e-02 1.928340829908847809e-02 2.273113094270229340e-02 4.845631867647171021e-02 -1.815484911203384399e-01 2.935470938682556152e-01 3.065034151077270508e-01 -9.613429754972457886e-02 1.627001725137233734e-02 2.012234926223754883e-01 5.235941708087921143e-02 2.265235036611557007e-01 2.527781948447227478e-02 -3.106144368648529053e-01 -1.362161189317703247e-01
-3.688407242298126221e-01 -5.911348387598991394e-02 -4.977109655737876892e-02 1.129032820463180542e-01 2.013354003429412842e-01 -9.104439988732337952e-03 3.888386860489845276e-02 -4.865933209657669067e-02 1.684728451073169708e-02 -3.780013322830200195e-02 8.220756798982620239e-02 -3.549987077713012695e-02 -1.285538226366043091e-01 1.139327734708786011e-01 -2.020114101469516754e-02 9.355697780847549438e-02 2.788415253162384033e-01 1.296639144420623779e-01 1.868868013843894005e-03 -9.366390109062194824e-02 -1.773780286312103271e-01 1.016281321644783020e-01 8.600621949881315231e-04 9.382349252700805664e-02 -2.561047673225402832e-02 -2.984623052179813385e-02 -1.279759686440229416e-02 1.845612823963165283e-01 -3.056811690330505371e-01 -1.811952590942382812e-01 2.400531992316246033e-02 1.933607757091522217e-01 4.027198627591133118e-02 -2.581267617642879486e-02 -1.497025191783905029e-01 9.848049283027648926e-02 -2.219846248626708984e-01 -1.669217050075531006e-01 2.433881759643554688e-01 -2.076002210378646851e-02 -5.660723447799682617e-01 4.225741699337959290e-02 -2.544756829738616943e-01 9.339701384305953979e-02 -5.498049035668373108e-02 -1.229079589247703552e-01 5.152448266744613647e-02 8.153739571571350098e-02 1.898546814918518066e-01 -1.305933203548192978e-02 -3.907291218638420105e-03 -9.018982201814651489e-02 -2.345932871103286743e-01 -2.166458666324615479e-01 1.178666949272155762e-01 -3.816376328468322754e-01 3.106670081615447998e-02 4.830450937151908875e-02 -2.669709622859954834e-01 9.073021262884140015e-02 -2.171678654849529266e-02 8.706284314393997192e-02 -2.945899218320846558e-02 -6.283703260123729706e-03 3.061198815703392029e-02 -1.644579111598432064e-03 -2.133077085018157959e-01 1.279435008764266968e-01 -1.121095567941665649e-01 1.385528892278671265e-01 7.479681819677352905e-02 -1.821508407592773438e-01 -2.273219404742121696e-03 5.635142698884010315e-02 1.124331578612327576e-01 1.480533629655838013e-01 -4.992877691984176636e-02 9.911603480577468872e-02 -2.005283832550048828e-01 -3.964164853096008301e-01 -7.305119186639785767e-02 -7.224476337432861328e-02 1.185389012098312378e-01 1.234896853566169739e-01 5.233990401029586792e-02 -2.475322410464286804e-02 1.146668344736099243e-01 5.667370185256004333e-02 3.255712389945983887e-01 -2.968493998050689697e-01 -5.397560074925422668e-03 1.464467495679855347e-01 -8.106124401092529297e-02 1.388477832078933716e-01 4.205964207649230957e-01 -3.077292814850807190e-02 5.064708739519119263e-02 -9.728636592626571655e-02 -6.081220880150794983e-02 8.347552269697189331e-03
2.597321569919586182e-01 -8.111139386892318726e-02 -1.870020329952239990e-01 1.272103637456893921e-01 -6.203731149435043335e-02 1.464488059282302856e-01 -1.056067645549774170e-01 4.629703238606452942e-02 5.851098522543907166e-02 1.032518744468688965e-01 7.267308980226516724e-02 4.443624988198280334e-02 7.165056467056274414e-02 -5.930819362401962280e-02 5.021690577268600464e-02 1.810688711702823639e-02 1.159078534692525864e-02 9.735374152660369873e-02 1.097239777445793152e-01 -1.947445212863385677e-03 -6.577343679964542389e-03 7.241916842758655548e-03 1.247021183371543884e-01 -9.172730892896652222e-02 -5.098213441669940948e-03 1.504708197899162769e-04 -1.265710741281509399e-01 -1.809239387512207031e-01 -1.944887638092041016e-01 -3.110858500003814697e-01 2.839023470878601074e-01 -2.269794978201389313e-02 -1.152655482292175293e-01 -1.943246573209762573e-01 1.006321012973785400e-01 9.199455380439758301e-02 -1.607818901538848877e-01 2.538778819143772125e-02 -7.024813443422317505e-02 9.070133417844772339e-02 4.547430202364921570e-02 4.418180882930755615e-02 -1.473333388566970825e-01 9.674759954214096069e-02 1.628778129816055298e-02 -1.835864186286926270e-01 1.806863993406295776e-01 4.300234466791152954e-02 -1.933042258024215698e-01 1.265301406383514404e-01 -1.173759158700704575e-02 1.338104605674743652e-01 -2.569807767868041992e-01 4.789336118847131729e-03 3.029260337352752686e-01 -5.220578238368034363e-02 7.653352618217468262e-02 1.523637771606445312e-01 1.230817008763551712e-02 -6.187422573566436768e-02 1.147709116339683533e-01 -3.002834022045135498e-01 7.416995614767074585e-02 -1.870664395391941071e-02 1.231819316744804382e-01 -2.069528587162494659e-02 -5.894014239311218262e-02 -4.838144406676292419e-02 -2.845402359962463379e-01 1.113739237189292908e-01 1.128658056259155273e-01 -1.017759889364242554e-01 -3.483705222606658936e-02 -6.145862117409706116e-02 -1.742796599864959717e-01 -2.852022089064121246e-02 1.446887701749801636e-01 1.323876678943634033e-01 -2.025635093450546265e-01 1.291591972112655640e-01 6.076816469430923462e-02 4.383835941553115845e-02 2.656988501548767090e-01 -3.445078153163194656e-03 -2.968144416809082031e-02 1.406286805868148804e-01 1.663124188780784607e-02 2.716712355613708496e-01 -2.615811824798583984e-01 2.074221223592758179e-01 6.708034873008728027e-02 3.401201590895652771e-02 1.031916812062263489e-01 5.825400725007057190e-02 -1.370225846767425537e-01 1.223215982317924500e-01 -8.687122166156768799e-02 3.468012809753417969e-02 -2.788154184818267822e-01 -2.791926264762878418e-02
2.178389728069305420e-01 -1.047939509153366089e-01 -1.253031641244888306e-01 -1.065432187169790268e-02 1.464871317148208618e-01 -1.032717525959014893e-01 2.215192764997482300e-01 1.644652187824249268e-01 -3.226943686604499817e-02 5.464284494519233704e-02 1.210930049419403076e-01 5.529430508613586426e-02 1.554924547672271729e-01 -7.309530675411224365e-02 -7.797068357467651367e-02 1.070816740393638611e-01 3.336710333824157715e-01 7.153616845607757568e-02 6.159399822354316711e-02 -4.974660649895668030e-02 8.311088383197784424e-02 -3.791335970163345337e-02 -6.513535231351852417e-02 -3.272870182991027832e-01 -1.735696010291576385e-02 7.497335225343704224e-02 -4.903240129351615906e-02 1.865215152502059937e-01 2.047391086816787720e-01 1.616878509521484375e-01 -5.697311833500862122e-02 -6.543385237455368042e-02 1.544106006622314453e-01 1.438167244195938110e-01 1.334339976310729980e-01 -1.685737371444702148e-01 2.576045691967010498e-02 7.264980673789978027e-02 -6.109247356653213501e-02 -7.514785230159759521e-02 -6.477564573287963867e-02 -2.889374792575836182e-01 1.071473434567451477e-01 6.743622012436389923e-03 -9.339003264904022217e-02 -1.301675140857696533e-01 1.108873113989830017e-01 -1.962783187627792358e-02 -1.160851120948791504e-01 5.205895900726318359e-01 7.149322330951690674e-02 -6.233359500765800476e-02 2.363774627447128296e-01 -1.235474180430173874e-02 -7.764183729887008667e-02 -1.503611356019973755e-01 -1.468381583690643311e-01 -2.060905396938323975e-01 9.627811610698699951e-03 -1.737217456102371216e-01 9.344980120658874512e-03 -3.042283654212951660e-02 -1.255486458539962769e-01 -2.293562442064285278e-01 2.367370016872882843e-02 -1.472101956605911255e-01 1.425002887845039368e-02 1.869469135999679565e-01 -1.522257179021835327e-01 -1.969002783298492432e-01 -4.874648898839950562e-02 -5.224445462226867676e-02 4.536212980747222900e-02 -8.950450271368026733e-02 7.832754403352737427e-02 1.009346023201942444e-01 -7.348871976137161255e-02 -2.304755747318267822e-01 2.614591270685195923e-03 1.092891842126846313e-01 5.635713785886764526e-02 6.115530431270599365e-02 2.301632054150104523e-02 -1.828869730234146118e-01 9.031944908201694489e-03 -7.078410685062408447e-02 -9.817171096801757812e-02 -9.398802369832992554e-02 1.391752995550632477e-02 1.411582529544830322e-01 2.611254155635833740e-01 -1.267051994800567627e-01 3.944483399391174316e-02 -1.930056810379028320e-01 -2.000644505023956299e-01 -1.493712142109870911e-02 1.498010307550430298e-01 -3.604803085327148438e-01 8.111598342657089233e-02 1.406740844249725342e-01
-4.713388383388519287e-01 8.611513301730155945e-03 -9.470036625862121582e-02 1.451811343431472778e-01 1.822524070739746094e-01 -2.586646936833858490e-02 1.870335191488265991e-01 -8.478168398141860962e-02 -3.856618329882621765e-02 8.934550732374191284e-02 2.771900594234466553e-01 1.317850593477487564e-02 -1.220044642686843872e-01 1.138898655772209167e-01 1.587067693471908569e-01 1.071018800139427185e-01 3.264970481395721436e-01 -3.752650693058967590e-02 4.589758440852165222e-02 2.792386710643768311e-02 -1.119102388620376587e-01 -1.487594842910766602e-01 -7.504040747880935669e-02 -3.778385818004608154e-01 1.033543050289154053e-01 2.121052332222461700e-02 9.829863160848617554e-02 2.320843189954757690e-01 1.013406515121459961e-01 6.522212922573089600e-02 1.805307865142822266e-01 1.666733175516128540e-01 1.559919714927673340e-01 1.056640595197677612e-02 -2.381710708141326904e-02 3.494799137115478516e-02 -3.426174819469451904e-02 5.650096386671066284e-02 1.413294523954391479e-01 -1.177765876054763794e-01 -2.544144392013549805e-01 -1.392238140106201172e-01 -2.150160670280456543e-01 9.963273257017135620e-02 -5.978710576891899109e-02 -1.211245357990264893e-02 4.183567315340042114e-02 1.509589999914169312e-01 1.081031933426856995e-01 3.790812566876411438e-02 -1.428116951137781143e-02 -1.173741742968559265e-01 3.606453537940979004e-01 -7.879994064569473267e-02 1.424841731786727905e-01 -4.273359477519989014e-01 3.045126562938094139e-03 5.703978613018989563e-02 3.116066195070743561e-02 -8.650518208742141724e-02 9.305528551340103149e-02 -1.337307393550872803e-01 -9.119682013988494873e-02 -1.536673158407211304e-01 7.931422442197799683e-02 -3.228931501507759094e-02 -2.516143210232257843e-02 2.569649219512939453e-01 -3.488824144005775452e-02 1.041574105620384216e-01 1.306751221418380737e-01 -8.957184106111526489e-02 1.723587810993194580e-01 2.836385741829872131e-02 4.120603948831558228e-02 2.438313364982604980e-01 1.518010813742876053e-02 -1.459368169307708740e-01 1.845218427479267120e-02 4.263285920023918152e-02 -1.370728164911270142e-01 -4.343332722783088684e-02 3.646747767925262451e-02 1.332812607288360596e-01 7.654737681150436401e-02 -4.658221453428268433e-02 -3.769579902291297913e-02 -7.777670770883560181e-02 1.959580332040786743e-01 -4.943577051162719727e-01 1.658527404069900513e-01 2.234801799058914185e-01 1.492079754825681448e-04 1.051743328571319580e-01 5.051518231630325317e-02 -1.756693869829177856e-01 2.073096036911010742e-01 -1.439297795295715332e-01 1.153105348348617554e-01 -9.387182071805000305e-03
