2.012186124920845032e-02 1.290115714073181152e-02 6.418213248252868652e-03 -2.094589546322822571e-02 2.644617110490798950e-03 5.897287279367446899e-03 -1.705467700958251953e-02 -2.483724057674407959e-02 -1.004334911704063416e-02 -1.975745521485805511e-02 -3.495302423834800720e-02 -2.898555248975753784e-03 -4.638506099581718445e-03 3.398297354578971863e-02 -3.005912527441978455e-02 3.287535160779953003e-03 -6.568014621734619141e-03 -3.118647634983062744e-02 -8.493177592754364014e-03 -3.323160856962203979e-02 6.041437387466430664e-03 3.053551539778709412e-02 -1.599242538213729858e-02 -2.863071300089359283e-02 4.705585539340972900e-03 -1.543955318629741669e-02 3.142748400568962097e-02 1.714293658733367920e-02 6.329167634248733521e-03 -1.785796880722045898e-02 2.842992544174194336e-03 2.282908186316490173e-02 -1.613382436335086823e-02 -1.550491899251937866e-02 1.546778157353401184e-02 1.322669535875320435e-02 7.672022096812725067e-03 -8.817420341074466705e-03 8.026185445487499237e-03 3.677285462617874146e-02 1.646019518375396729e-02 -4.211004450917243958e-02 3.094624355435371399e-02 -2.302934601902961731e-02 -2.587166428565979004e-02 4.022590443491935730e-02 -2.736739255487918854e-02 -1.479472592473030090e-02 -1.341613661497831345e-02 -2.493825927376747131e-02 -3.558392450213432312e-02 1.150175929069519043e-02 -1.857386343181133270e-02 8.769392967224121094e-03 2.848747745156288147e-02 3.070875629782676697e-02 -5.564583465456962585e-03 -2.677835896611213684e-02 1.154592353850603104e-02 -3.566865622997283936e-02 1.174009591341018677e-02 -2.902841381728649139e-02 -1.461353525519371033e-02 -1.997964084148406982e-02 1.996933482587337494e-02 -2.595723979175090790e-02 -3.898315131664276123e-02 1.748359948396682739e-02 -4.125984385609626770e-02 -3.901438089087605476e-03 -5.805250629782676697e-02 -7.852233015000820160e-03 2.281398139894008636e-02 1.973173171281814575e-01 2.163507491350173950e-01 1.972187757492065430e-01 1.205603852868080139e-01 9.302765130996704102e-02 1.009371876716613770e-01 3.994821012020111084e-02 1.548466831445693970e-02 -2.215084061026573181e-02 2.329650893807411194e-02 3.166676685214042664e-02 1.718778163194656372e-03 -2.462708950042724609e-02 3.304814174771308899e-02 -3.960319235920906067e-02 1.026272680610418320e-02 2.085967957973480225e-01 1.909442991018295288e-01 -4.535198584198951721e-02 -2.860659919679164886e-02 -1.010041832923889160e-01 -7.460573315620422363e-02 -2.479437366127967834e-02 -1.355420239269733429e-02 -9.675623476505279541e-02 -8.644314855337142944e-02 3.625202691182494164e-03 2.251344174146652222e-02 9.908358752727508545e-02 1.241185963153839111e-01 4.023526329547166824e-03 1.407815609127283096e-02 -1.498290803283452988e-02 -8.216752111911773682e-02 -1.269666403532028198e-01 -3.676214255392551422e-03 -8.870420604944229126e-02 7.785372901707887650e-03 2.115322276949882507e-02 4.545189440250396729e-04 4.345180001109838486e-03 6.207215413451194763e-02 5.119212344288825989e-02 7.686745375394821167e-02 -2.310489490628242493e-02 -1.940319687128067017e-02 -4.321430996060371399e-02 2.936431206762790680e-02 6.542538851499557495e-02 1.519901454448699951e-01 8.084888756275177002e-02 -1.726228743791580200e-02 -3.495283424854278564e-02 2.322714589536190033e-02 1.225696057081222534e-01 4.167812876403331757e-03 -4.545185714960098267e-02 -2.161363139748573303e-02 -2.903611026704311371e-02 -1.122073233127593994e-01 4.371476918458938599e-02 8.219312131404876709e-02 1.083996444940567017e-01 8.152103424072265625e-02 2.360491454601287842e-01 1.101847216486930847e-01 5.656447261571884155e-03 -6.381392478942871094e-03 3.095008060336112976e-02 -5.092493724077939987e-03 -4.125180840492248535e-02 1.371245980262756348e-01 1.764267869293689728e-02 4.277059435844421387e-02 4.495730623602867126e-02 1.547901891171932220e-02 2.226070873439311981e-02 2.221022732555866241e-02 -2.758556231856346130e-02 -2.976856939494609833e-02 7.581204921007156372e-02 6.210395321249961853e-02 5.137975793331861496e-03 4.215665534138679504e-02 2.711850963532924652e-02 7.861099205911159515e-03 -2.573294192552566528e-02 -1.087189372628927231e-02 -7.324949651956558228e-02 4.729517549276351929e-02 1.466915458440780640e-01 2.777194604277610779e-02 2.141053825616836548e-01 -4.799929633736610413e-02 -4.993614926934242249e-02 3.198042884469032288e-02 7.332837581634521484e-02 1.503098458051681519e-01 5.871290341019630432e-02 2.853150479495525360e-03 -1.322308033704757690e-01 -8.701815456151962280e-02 -3.784788399934768677e-02 -5.240180343389511108e-02 2.899328991770744324e-02 -1.354541722685098648e-02 1.252241549082100391e-03 -3.224403131753206253e-03 4.308931529521942139e-02 6.968642771244049072e-02 4.024716466665267944e-02 5.791989341378211975e-02 1.063378900289535522e-01 1.215109229087829590e-01 7.164224237203598022e-02 6.154686957597732544e-02 6.849215924739837646e-02 6.059126928448677063e-02 2.744992077350616455e-02 1.356708556413650513e-01 1.305210888385772705e-01 5.600555334240198135e-03 1.283586770296096802e-01 2.091063931584358215e-02 1.088433712720870972e-01 1.618868261575698853e-01 -4.052759334444999695e-02 -3.222024440765380859e-02 4.897945001721382141e-02 -8.156979829072952271e-02 -1.912063546478748322e-02 1.021166052669286728e-02 1.778759434819221497e-02 3.341777250170707703e-02 -2.031348273158073425e-02 -7.369863335043191910e-03 7.233750540763139725e-03 6.098604947328567505e-02 2.117181569337844849e-02 1.522895097732543945e-01 1.008354052901268005e-01 1.376162171363830566e-01 1.122106462717056274e-01 1.153449341654777527e-01 5.242749676108360291e-02 8.738926611840724945e-03 4.294715356081724167e-03 8.806184679269790649e-02 9.859093278646469116e-02 1.610068976879119873e-01 1.109224930405616760e-01 -1.720451563596725464e-02 8.320297300815582275e-02 6.933885812759399414e-02 4.490355495363473892e-03 2.708871848881244659e-02 1.442555636167526245e-01 -5.538846016861498356e-05 2.283047139644622803e-02 5.101460590958595276e-02 8.011622726917266846e-02 1.868931017816066742e-02 -4.942874982953071594e-02 -1.810224354267120361e-02 -2.184049924835562706e-03 4.004756361246109009e-02 5.347437411546707153e-02 1.017240136861801147e-01 4.318926483392715454e-02 3.312436491250991821e-02 4.196081683039665222e-02 4.334440827369689941e-02 8.847277611494064331e-02 8.497641980648040771e-02 4.009628295898437500e-02 1.062882468104362488e-01 8.121751248836517334e-02 1.747265458106994629e-01 1.412027180194854736e-01 9.346641600131988525e-04 2.707080170512199402e-02 4.766018688678741455e-02 3.548140078783035278e-02 1.262200474739074707e-01 2.488936856389045715e-02 5.969755724072456360e-02 3.119548968970775604e-02 5.853400379419326782e-02 5.056901276111602783e-02 -8.121877908706665039e-02 -8.829137682914733887e-02 -1.663780957460403442e-02 -4.526891559362411499e-02 -3.421396762132644653e-02 -5.954580008983612061e-02 -1.030163094401359558e-01 -8.989358693361282349e-02 -1.006600260734558105e-01 -1.594071537256240845e-01 -9.916874766349792480e-02 8.728931657969951630e-03 3.921722248196601868e-02 -1.265988051891326904e-01 4.253559559583663940e-02 1.568721979856491089e-01 1.670414060354232788e-01 7.650225609540939331e-02 -2.014610171318054199e-02 8.936775848269462585e-03 9.063579142093658447e-02 1.388829350471496582e-01 4.801448434591293335e-03 2.139490842819213867e-02 3.661685064435005188e-02 -3.465062007308006287e-02 4.992721974849700928e-02 -7.577949017286300659e-02 -8.362356573343276978e-02 -1.123828291893005371e-01 2.515302225947380066e-02 -4.434023052453994751e-02 -1.272871643304824829e-01 -1.716447472572326660e-01 -1.550589799880981445e-01 -1.923524290323257446e-01 -2.247813194990158081e-01 -2.340559512376785278e-01 -1.581491678953170776e-01 -1.791925132274627686e-01 -1.703710108995437622e-01 -2.543296813964843750e-01 -6.755537539720535278e-02 7.385016977787017822e-02 2.636879384517669678e-01 9.878910332918167114e-02 -2.822581864893436432e-02 -2.029393985867500305e-02 7.228919863700866699e-02 1.033415924757719040e-02 2.267853170633316040e-02 -4.192596301436424255e-02 -7.933080941438674927e-02 -1.153391748666763306e-01 -1.006962060928344727e-01 -7.278531789779663086e-02 -9.531462937593460083e-02 -8.925303816795349121e-02 -2.911750413477420807e-02 -3.934849426150321960e-02 -8.897817134857177734e-02 -6.603141129016876221e-02 4.125252831727266312e-03 -7.049479335546493530e-02 -4.026089981198310852e-02 -1.171778813004493713e-01 -1.276234090328216553e-01 -1.858939528465270996e-01 -2.036843299865722656e-01 -1.687175482511520386e-01 -1.134250536561012268e-01 2.558738552033901215e-02 1.644485145807266235e-01 7.686971873044967651e-02 -3.394675999879837036e-02 -5.912236124277114868e-02 5.258414521813392639e-02 -2.061597555875778198e-01 -1.710090436972677708e-03 -5.194269493222236633e-02 -3.866515308618545532e-02 -9.557960182428359985e-02 -1.111066564917564392e-01 -5.475682020187377930e-02 -1.955436728894710541e-02 3.427168726921081543e-02 5.960840731859207153e-02 6.743316352367401123e-02 1.640832424163818359e-02 1.273070927709341049e-02 -6.164842285215854645e-03 -3.297541290521621704e-02 5.330773442983627319e-02 -1.135241985321044922e-01 -5.759950727224349976e-02 -7.438099384307861328e-02 -9.029501676559448242e-02 -1.208757087588310242e-01 -1.961705535650253296e-01 -1.385299265384674072e-01 -9.515691548585891724e-03 2.863283082842826843e-02 2.301633730530738831e-02 -5.487525463104248047e-02 -9.747803956270217896e-02 -2.027492523193359375e-01 8.694208413362503052e-02 1.372770965099334717e-01 8.651489764451980591e-02 2.391517534852027893e-02 -1.028609052300453186e-01 -6.747106462717056274e-02 5.734830629080533981e-04 8.516849577426910400e-02 1.101375073194503784e-01 6.014601141214370728e-02 9.469808638095855713e-02 8.426155894994735718e-03 2.931941300630569458e-03 -4.611250013113021851e-02 -1.342415926046669483e-03 -9.924024343490600586e-02 -3.738368675112724304e-02 -5.853988230228424072e-02 -7.804605364799499512e-02 -8.992298692464828491e-02 -4.414733126759529114e-02 -7.797193527221679688e-02 -1.242198795080184937e-01 -4.792606085538864136e-02 3.306787088513374329e-02 1.816101558506488800e-02 -3.285800293087959290e-02 -2.223543524742126465e-01 9.839447587728500366e-02 -4.063332825899124146e-02 5.685954913496971130e-02 1.240317150950431824e-01 2.328672632575035095e-02 3.527959808707237244e-02 5.059833079576492310e-02 9.877028316259384155e-02 6.463214010000228882e-02 6.087268888950347900e-02 7.062640041112899780e-02 5.473002046346664429e-02 -3.953374922275543213e-02 -7.777575403451919556e-02 1.463097892701625824e-02 -5.790607258677482605e-02 2.164521068334579468e-02 3.256023628637194633e-03 -2.458005025982856750e-02 -9.489644318819046021e-02 -7.436479628086090088e-02 1.524834660813212395e-04 -1.159854829311370850e-01 -9.171151369810104370e-02 1.781688071787357330e-02 1.036048755049705505e-01 1.562848985195159912e-01 -4.610254243016242981e-02 -5.795049667358398438e-02 -1.314848661422729492e-01 -1.395710278302431107e-02 6.214520428329706192e-03 3.351504728198051453e-02 7.012652605772018433e-02 1.403667032718658447e-01 1.896128058433532715e-01 1.431547552347183228e-01 1.399930100888013840e-02 1.997309923171997070e-02 -2.205858752131462097e-02 -2.576644159853458405e-02 -3.331834077835083008e-02 -6.574853509664535522e-02 -2.880328148603439331e-02 -3.019455121830105782e-03 1.132424771785736084e-01 7.997436076402664185e-02 1.075953915715217590e-01 -1.688412725925445557e-01 -6.814833730459213257e-03 1.607764810323715210e-01 -2.720756828784942627e-02 8.267931640148162842e-03 9.879095852375030518e-02 2.105859220027923584e-01 -2.822376787662506104e-02 -3.244377672672271729e-01 -2.787526249885559082e-01 -3.563936650753021240e-01 -3.207774758338928223e-01 -2.298377305269241333e-01 -6.156807392835617065e-02 1.539859920740127563e-01 2.355854809284210205e-01 2.073745876550674438e-01 1.659898012876510620e-01 6.354156136512756348e-02 -2.099436149001121521e-02 2.018103934824466705e-02 2.445615828037261963e-02 2.225039899349212646e-02 -5.058788694441318512e-03 -5.488437134772539139e-03 3.782292827963829041e-02 1.565882116556167603e-01 1.224039494991302490e-01 -5.790507886558771133e-03 -3.064282424747943878e-02 3.509148722514510155e-03 -3.561976552009582520e-02 -9.007642045617103577e-03 9.330111742019653320e-02 8.831547945737838745e-02 3.283622488379478455e-02 -2.323497384786605835e-01 -3.350813984870910645e-01 -5.705021619796752930e-01 -3.849152326583862305e-01 -5.255755186080932617e-01 -4.642108082771301270e-01 -3.139879703521728516e-01 -1.506791561841964722e-01 -7.776186615228652954e-02 -3.302486147731542587e-03 -1.111698448657989502e-01 2.290812321007251740e-03 -6.758470088243484497e-02 -2.438552444800734520e-03 4.405820742249488831e-02 -1.266871951520442963e-02 1.906479336321353912e-02 2.428103424608707428e-02 5.325643345713615417e-02 4.575738683342933655e-02 -2.167564816772937775e-02 -2.350430563092231750e-02 1.092995777726173401e-01 3.520800266414880753e-03 1.285818368196487427e-01 -3.293268010020256042e-02 6.744896620512008667e-02 1.697012633085250854e-01 -4.505084455013275146e-02 -3.154362142086029053e-01 -4.459911882877349854e-01 -3.680222332477569580e-01 -4.726836979389190674e-01 -5.997857451438903809e-01 -6.306026577949523926e-01 -6.842375993728637695e-01 -6.204442977905273438e-01 -4.559794366359710693e-01 -1.789180636405944824e-01 -9.945935010910034180e-02 2.415254153311252594e-02 -7.008263468742370605e-02 -4.735251422971487045e-03 3.430326282978057861e-02 8.314467221498489380e-02 9.286527335643768311e-02 -4.764279583469033241e-04 5.006669834256172180e-02 -1.339909583330154419e-01 1.109094545245170593e-02 1.513516306877136230e-01 -1.401690207421779633e-02 6.047431379556655884e-03 -4.853368923068046570e-02 1.258999109268188477e-01 2.566038370132446289e-01 9.620449692010879517e-02 -1.638114899396896362e-01 -2.564516663551330566e-01 -2.034021764993667603e-01 -3.154151439666748047e-01 -3.862647414207458496e-01 -4.594761729240417480e-01 -3.417210876941680908e-01 -2.588577270507812500e-01 -2.342535108327865601e-01 -1.352472603321075439e-01 -6.588916480541229248e-02 -1.980209490284323692e-03 -3.908860310912132263e-02 -1.106813270598649979e-02 2.723688073456287384e-02 1.034742444753646851e-01 7.750532776117324829e-02 -3.392755240201950073e-02 1.008233800530433655e-02 3.502864390611648560e-02 7.482857257127761841e-02 -9.344346821308135986e-02 -2.793473936617374420e-02 1.509021967649459839e-02 6.200597435235977173e-02 1.332487314939498901e-01 2.419335991144180298e-01 1.558679044246673584e-01 1.536502409726381302e-02 -4.101592302322387695e-02 -6.137860938906669617e-02 -5.168399214744567871e-02 -8.817435055971145630e-02 -5.278989672660827637e-02 -2.285880595445632935e-02 -4.279381409287452698e-02 -5.389847233891487122e-02 -1.021263934671878815e-02 4.846650362014770508e-02 -3.625762090086936951e-02 3.068970516324043274e-02 1.941790245473384857e-02 6.492944061756134033e-02 8.158583939075469971e-02 1.897614635527133942e-02 -7.366806268692016602e-02 -6.465908139944076538e-02 1.711945608258247375e-02 3.045055828988552094e-02 -3.911546245217323303e-02 4.135911539196968079e-02 3.419021889567375183e-02 1.828408427536487579e-02 -3.920497745275497437e-02 1.499480605125427246e-01 2.249582111835479736e-01 1.245702877640724182e-01 1.211941912770271301e-01 2.105085253715515137e-01 1.664650738239288330e-01 8.935505896806716919e-02 1.462776809930801392e-01 1.806409657001495361e-01 2.007565796375274658e-01 1.108279973268508911e-01 7.749828696250915527e-02 5.954346805810928345e-02 -2.601049654185771942e-02 -6.516502797603607178e-02 -3.166535869240760803e-02 5.708631128072738647e-02 1.372150238603353500e-02 9.011276997625827789e-03 -1.317391097545623779e-01 -2.547972835600376129e-02 -1.919876188039779663e-01 -1.743173450231552124e-01 -5.918094888329505920e-02 1.991377212107181549e-02 -1.688095182180404663e-02 5.856061354279518127e-02 -5.876762419939041138e-02 1.552821248769760132e-01 1.962844580411911011e-01 2.086492031812667847e-01 1.570066064596176147e-01 1.326160430908203125e-01 1.828315705060958862e-01 8.423268049955368042e-02 2.733152806758880615e-01 2.328765839338302612e-01 1.110696196556091309e-01 8.542014658451080322e-02 2.705753594636917114e-02 4.957839101552963257e-02 -4.386585205793380737e-02 -6.915761530399322510e-02 -1.049294546246528625e-01 -3.538608178496360779e-02 5.966279655694961548e-02 -1.842253655195236206e-02 -1.160180754959583282e-02 4.167187493294477463e-03 -1.188784316182136536e-01 -1.005175709724426270e-01 7.334163878113031387e-03 -2.532707713544368744e-02 -3.529766201972961426e-02 -3.171837329864501953e-02 1.756726503372192383e-01 1.913329511880874634e-01 3.767403066158294678e-01 2.712599337100982666e-01 1.850434243679046631e-01 2.217312604188919067e-01 1.680115163326263428e-01 1.542390435934066772e-01 2.365894317626953125e-01 1.974275857210159302e-01 8.246031403541564941e-02 7.910547405481338501e-02 5.846675112843513489e-02 6.451426446437835693e-02 -1.211179699748754501e-02 -2.279456518590450287e-02 -5.811238661408424377e-02 -3.590746782720088959e-03 2.736324816942214966e-02 -4.811673611402511597e-02 -5.965002253651618958e-02 -8.426696807146072388e-02 -1.051279529929161072e-01 -8.508101850748062134e-02 1.146168187260627747e-01 1.285609602928161621e-02 -4.934072494506835938e-04 -1.612518168985843658e-02 5.718817934393882751e-02 2.672777771949768066e-01 3.396059274673461914e-01 2.776286900043487549e-01 2.401552349328994751e-01 3.151749670505523682e-01 2.665981054306030273e-01 1.881559640169143677e-01 2.496611326932907104e-01 9.574919193983078003e-02 7.917100936174392700e-02 2.226850017905235291e-02 6.702773272991180420e-02 8.955019526183605194e-03 -1.030040085315704346e-01 7.448600232601165771e-02 1.964930631220340729e-02 -1.109968572854995728e-01 1.131349056959152222e-02 8.842539042234420776e-02 6.309460848569869995e-02 -9.639234840869903564e-02 -1.359042823314666748e-01 -1.004639714956283569e-01 -2.220801776275038719e-03 -5.672160536050796509e-03 -3.230606764554977417e-02 -8.865710347890853882e-03 1.071150526404380798e-01 6.637175381183624268e-02 6.884412467479705811e-02 1.631585359573364258e-01 1.852617859840393066e-01 2.457218170166015625e-01 1.063134521245956421e-01 8.617103844881057739e-02 1.030628085136413574e-01 3.328893706202507019e-02 1.116835772991180420e-01 1.409951746463775635e-01 -1.417843252420425415e-01 -4.963416978716850281e-02 1.571685448288917542e-02 -3.992339223623275757e-02 6.622846424579620361e-02 8.044658601284027100e-02 3.822923079133033752e-02 1.196038201451301575e-01 1.596904844045639038e-01 -2.602997794747352600e-02 -6.120421737432479858e-02 -3.435729071497917175e-02 -1.046272367238998413e-02 8.085563778877258301e-03 -7.004920393228530884e-03 2.667401358485221863e-02 3.131844103336334229e-03 2.773846499621868134e-03 6.988867651671171188e-03 6.865368783473968506e-02 8.351604640483856201e-02 -6.477087736129760742e-03 -2.400961332023143768e-02 5.523341149091720581e-02 4.335982352495193481e-02 1.128354892134666443e-01 1.240858156234025955e-02 7.525657117366790771e-02 -5.228916928172111511e-02 -4.540342837572097778e-02 -1.505335271358489990e-01 -1.106850579380989075e-01 3.443539515137672424e-02 1.041670590639114380e-01 1.787894517183303833e-01 1.761321425437927246e-01 2.069930881261825562e-01 1.645884811878204346e-01 -1.470773667097091675e-02 -5.971636623144149780e-03 2.182228863239288330e-02 -2.895924076437950134e-02 -3.003730624914169312e-02 1.083537936210632324e-02 9.348832070827484131e-03 -7.051536813378334045e-03 2.007353678345680237e-02 3.294312581419944763e-02 -2.209651097655296326e-02 -9.059952571988105774e-03 1.942795515060424805e-02 -6.542940437793731689e-02 -7.223937660455703735e-02 -4.271469637751579285e-02 1.711758226156234741e-02 -7.992741465568542480e-02 -5.020528286695480347e-02 -2.366083115339279175e-02 -2.499151043593883514e-02 -7.966504432260990143e-03 -3.025372698903083801e-02 -4.562998563051223755e-02 -3.918092697858810425e-02 2.045853808522224426e-02 -1.076802378520369530e-03 -2.876998856663703918e-02 2.746851369738578796e-02 -2.959650941193103790e-02 2.612544223666191101e-02 -2.689155936241149902e-02
-1.012560725212097168e-02 3.564579412341117859e-02 -7.855130359530448914e-03 -1.577316597104072571e-02 -9.492516517639160156e-03 -2.805214002728462219e-02 1.677173376083374023e-02 -3.470073640346527100e-02 1.442343369126319885e-02 -3.120576590299606323e-02 -2.815944515168666840e-02 2.773276343941688538e-02 -4.766140133142471313e-02 -2.358015626668930054e-04 8.011710643768310547e-02 1.656120829284191132e-02 -2.689867466688156128e-02 -2.296554669737815857e-02 -1.156624779105186462e-02 3.022329136729240417e-02 1.360909640789031982e-02 -8.935669437050819397e-03 -2.018293738365173340e-02 -1.763503998517990112e-03 1.936189830303192139e-02 -1.265293918550014496e-02 -1.361713372170925140e-02 -3.961291164159774780e-03 -3.126387298107147217e-02 -1.325362175703048706e-02 -1.564297825098037720e-03 2.322533354163169861e-02 -3.086808323860168457e-02 2.528096362948417664e-02 1.552456989884376526e-02 3.673382848501205444e-02 5.463283136487007141e-02 2.111517637968063354e-02 2.768386527895927429e-02 8.833668380975723267e-02 6.641740351915359497e-02 1.383337676525115967e-01 -3.265211731195449829e-02 3.318611904978752136e-02 1.377453356981277466e-01 1.259419023990631104e-01 1.161513105034828186e-02 4.003275558352470398e-02 4.172027111053466797e-02 1.289635710418224335e-02 5.004340782761573792e-02 3.580684214830398560e-02 -7.355723530054092407e-03 -2.039319276809692383e-02 1.274767518043518066e-02 -1.270236819982528687e-02 -6.923662498593330383e-03 3.046477958559989929e-02 -1.474932581186294556e-02 8.572736382484436035e-02 1.245944574475288391e-01 6.818569265305995941e-03 2.286251634359359741e-03 4.513859003782272339e-02 -5.234657321125268936e-03 9.868430346250534058e-02 1.913124769926071167e-01 1.105929911136627197e-01 2.938894629478454590e-01 2.984643280506134033e-01 2.470375746488571167e-01 1.440696567296981812e-01 1.853954941034317017e-01 3.724057227373123169e-02 -4.511222988367080688e-02 -1.857538968324661255e-01 -1.452056691050529480e-02 4.287442564964294434e-02 2.678669989109039307e-02 6.245061755180358887e-02 5.174141377210617065e-02 5.822309479117393494e-02 -3.442080691456794739e-02 3.387771919369697571e-02 -3.537310287356376648e-02 2.131103724241256714e-02 8.312507718801498413e-02 8.732970803976058960e-02 -4.605465009808540344e-02 8.671156316995620728e-02 9.523184597492218018e-02 1.147723942995071411e-01 9.348016232252120972e-02 1.611296683549880981e-01 2.094884216785430908e-01 3.203593194484710693e-01 3.564950823783874512e-01 2.850065231323242188e-01 2.153845131397247314e-01 9.319727867841720581e-02 1.904328167438507080e-01 1.071082726120948792e-01 6.440755724906921387e-02 1.545576192438602448e-02 3.354884311556816101e-02 -2.173639647662639618e-02 -7.217911630868911743e-02 -3.165775537490844727e-02 6.343265995383262634e-03 -6.445408612489700317e-02 -3.373806551098823547e-02 -1.980048418045043945e-02 3.160998597741127014e-02 6.377849727869033813e-03 1.101198941469192505e-01 8.850388985592871904e-05 3.643682226538658142e-03 2.095253467559814453e-01 2.166167646646499634e-01 9.276012331247329712e-02 9.931898862123489380e-02 1.197824478149414062e-01 1.434644311666488647e-01 1.860933154821395874e-01 1.843950599431991577e-01 1.433746516704559326e-01 9.031314402818679810e-02 1.572906821966171265e-01 1.441658884286880493e-01 5.926980823278427124e-02 6.126941740512847900e-02 -4.001837223768234253e-03 -4.939587414264678955e-02 -1.199308186769485474e-01 3.070086007937788963e-03 -1.551949381828308105e-01 -1.562814861536026001e-01 -1.652651131153106689e-01 -3.900283947587013245e-02 5.192455276846885681e-02 2.616821229457855225e-02 1.983232796192169189e-02 1.206691861152648926e-01 -4.437063634395599365e-02 7.746655493974685669e-02 1.411122977733612061e-01 1.878432035446166992e-01 8.770027197897434235e-03 -2.125054597854614258e-02 -2.573976293206214905e-02 8.405133336782455444e-02 6.705275923013687134e-02 8.689428865909576416e-02 3.201730176806449890e-02 7.104565948247909546e-02 1.227163001894950867e-01 1.082499176263809204e-01 1.059788279235363007e-02 4.891206324100494385e-02 9.031829237937927246e-02 1.901652850210666656e-02 5.453189462423324585e-02 1.615861058235168457e-01 3.434059023857116699e-02 3.485679998993873596e-02 -6.341005116701126099e-02 -6.871486455202102661e-02 1.301599014550447464e-02 -1.989830285310745239e-03 1.183807104825973511e-01 -3.578825853765010834e-03 7.049469649791717529e-02 8.263772726058959961e-02 2.027268856763839722e-01 1.040568128228187561e-01 -7.360819727182388306e-02 -9.256924688816070557e-02 -9.674862027168273926e-02 5.252524837851524353e-02 9.227035194635391235e-02 5.807781964540481567e-02 1.508631855249404907e-01 7.386779785156250000e-02 6.773650646209716797e-02 7.603459060192108154e-02 8.037217706441879272e-02 1.284757107496261597e-01 9.240125864744186401e-02 -6.730471551418304443e-02 2.365462481975555420e-02 1.077925562858581543e-01 -6.248050928115844727e-02 -5.062355473637580872e-02 -6.833048909902572632e-02 -9.060745686292648315e-02 4.419244453310966492e-02 -3.788105770945549011e-02 1.664014756679534912e-01 -2.440264075994491577e-02 3.962150216102600098e-02 2.240735441446304321e-01 1.543787270784378052e-01 -1.072013843804597855e-02 -2.252710750326514244e-03 1.408160198479890823e-02 3.943927213549613953e-02 6.763432174921035767e-02 7.439471036195755005e-02 5.332742258906364441e-02 -2.872406877577304840e-02 1.875647902488708496e-02 1.225273087620735168e-01 1.032296344637870789e-01 1.059732958674430847e-01 1.394103169441223145e-01 1.176172718405723572e-01 3.336991369724273682e-02 -1.167056523263454437e-02 3.822550550103187561e-02 -7.109999656677246094e-02 -5.286591500043869019e-02 8.412463217973709106e-02 -1.713902354240417480e-01 2.082698047161102295e-02 1.609682738780975342e-01 4.916378855705261230e-02 -1.334797292947769165e-01 5.956173315644264221e-02 1.485532820224761963e-01 8.560130372643470764e-03 -2.940216474235057831e-02 -1.511576026678085327e-02 -6.101475283503532410e-02 -4.329515248537063599e-02 4.898117855191230774e-02 -1.282802820205688477e-01 -2.189989089965820312e-01 -1.812259703874588013e-01 -1.401095371693372726e-02 1.089148372411727905e-01 1.449296176433563232e-01 8.966690301895141602e-02 9.148491173982620239e-02 8.496870845556259155e-02 7.639227900654077530e-03 -7.540409453213214874e-03 1.077832281589508057e-01 3.523468226194381714e-02 -2.174833416938781738e-01 -1.371251195669174194e-01 -2.343625724315643311e-01 -3.567694500088691711e-02 1.559352036565542221e-02 -8.939246647059917450e-03 5.955306440591812134e-02 3.270377218723297119e-02 -1.574262045323848724e-02 -1.207964569330215454e-01 -1.718509793281555176e-01 -1.679928451776504517e-01 -1.688051670789718628e-01 -2.259029895067214966e-01 -2.140518277883529663e-01 -3.595795035362243652e-01 -3.204410374164581299e-01 -2.722420692443847656e-01 -7.344252616167068481e-02 4.142697155475616455e-02 1.553138792514801025e-01 4.913575947284698486e-02 1.323211789131164551e-01 6.212000176310539246e-02 2.520499378442764282e-02 1.861500367522239685e-02 6.594623625278472900e-02 3.288555890321731567e-02 -1.583787351846694946e-01 -2.033374011516571045e-01 -3.042053878307342529e-01 2.271126955747604370e-02 -1.022350322455167770e-02 2.390477061271667480e-02 -4.382991790771484375e-02 -5.894649773836135864e-02 -2.191569507122039795e-01 -3.286993205547332764e-01 -2.750124037265777588e-01 -3.494407534599304199e-01 -3.911927342414855957e-01 -3.814471662044525146e-01 -4.218414723873138428e-01 -3.293134272098541260e-01 -1.934660822153091431e-01 -1.359643787145614624e-01 -8.414451777935028076e-02 -2.472498826682567596e-02 7.855080068111419678e-02 9.999635070562362671e-02 4.015574976801872253e-02 -6.185133382678031921e-02 2.854931913316249847e-02 5.920485034584999084e-02 1.944545656442642212e-01 1.135312840342521667e-01 -2.005010247230529785e-01 -3.283163011074066162e-01 -5.574311688542366028e-02 4.453563317656517029e-02 -2.417260315269231796e-03 3.259929642081260681e-02 -2.081230282783508301e-01 -1.361313611268997192e-01 -2.894511818885803223e-01 -3.996743261814117432e-01 -3.801776766777038574e-01 -2.786009907722473145e-01 -2.452626824378967285e-01 -2.433216273784637451e-01 -1.199524179100990295e-01 -7.915458828210830688e-02 -5.775298178195953369e-02 -1.062245015054941177e-02 5.105426162481307983e-02 5.153767392039299011e-02 2.790599502623081207e-02 4.302313551306724548e-02 -7.170142978429794312e-02 3.451523184776306152e-02 6.293340027332305908e-02 9.162499569356441498e-03 1.754111200571060181e-01 7.807090878486633301e-02 -1.586614996194839478e-01 -1.460289359092712402e-01 -1.863797195255756378e-02 -8.937033708207309246e-04 -4.262065887451171875e-02 -1.930066011846065521e-02 -2.390971630811691284e-01 -1.063710674643516541e-01 -2.757293879985809326e-01 -2.521832287311553955e-01 -1.805129647254943848e-01 -1.020221635699272156e-01 -8.437661826610565186e-02 9.722992032766342163e-02 1.489219367504119873e-01 1.413698792457580566e-01 1.415048092603683472e-01 5.448116362094879150e-02 8.589135855436325073e-02 -4.598013125360012054e-03 -1.705622486770153046e-02 -4.756190627813339233e-02 -1.049512252211570740e-01 -9.579472988843917847e-02 -3.653878346085548401e-02 4.215727373957633972e-02 1.144941374659538269e-01 1.656929776072502136e-02 -3.994986042380332947e-02 2.544998191297054291e-02 -6.310964375734329224e-02 -2.734567038714885712e-03 8.178919553756713867e-02 -5.609047040343284607e-02 -6.402701139450073242e-02 6.525254994630813599e-02 -1.039236932992935181e-01 -3.956176340579986572e-02 1.360749155282974243e-01 1.575296968221664429e-01 1.731210798025131226e-01 1.422442197799682617e-01 1.395787745714187622e-01 1.522068530321121216e-01 5.177842080593109131e-02 2.427066490054130554e-02 -5.836934782564640045e-03 3.945007454603910446e-03 -5.687641352415084839e-02 -9.759903699159622192e-02 -7.205601781606674194e-02 -6.636903434991836548e-02 -4.309040307998657227e-02 3.420382365584373474e-02 1.695806346833705902e-02 3.176042810082435608e-02 8.793981745839118958e-03 6.974681746214628220e-03 3.895261138677597046e-02 6.771764159202575684e-02 -5.199020728468894958e-03 -1.040402334183454514e-02 -3.815628960728645325e-02 9.784046560525894165e-02 2.716360986232757568e-02 1.211483404040336609e-01 3.387604951858520508e-01 2.462605088949203491e-01 2.899653613567352295e-01 1.650388538837432861e-01 9.933082014322280884e-02 6.364943832159042358e-02 -5.590608343482017517e-03 -3.197607398033142090e-02 9.845239669084548950e-02 2.417807700112462044e-03 -5.225012078881263733e-02 -8.097783476114273071e-02 -5.127380043268203735e-02 -2.340155094861984253e-02 3.321048617362976074e-02 9.054711461067199707e-02 5.674993246793746948e-02 5.485913902521133423e-02 -8.628575131297111511e-03 -8.876637369394302368e-02 9.820709377527236938e-02 7.087753713130950928e-02 -4.873125255107879639e-02 2.746038511395454407e-02 -3.252835944294929504e-02 1.355876475572586060e-01 1.376512944698333740e-01 1.842767745256423950e-01 2.039590775966644287e-01 1.498877257108688354e-01 3.809892386198043823e-02 5.789458006620407104e-02 -4.640865325927734375e-02 -7.951018214225769043e-02 -1.027596443891525269e-01 -9.286540746688842773e-02 -1.603549532592296600e-02 2.769597619771957397e-02 8.229949511587619781e-03 -1.357414722442626953e-01 -4.176317900419235229e-02 -5.156866461038589478e-02 -9.918507188558578491e-02 -1.174480561167001724e-02 -4.355759546160697937e-02 -3.123355563730001450e-03 -3.001068532466888428e-02 -1.007682457566261292e-01 7.651786506175994873e-02 1.664718836545944214e-01 -1.629957556724548340e-02 1.085279881954193115e-01 4.754225537180900574e-02 2.962663955986499786e-02 1.771326214075088501e-01 1.698871701955795288e-01 1.577367037534713745e-01 1.643339395523071289e-01 8.549284934997558594e-02 9.902489185333251953e-02 -2.485295059159398079e-03 -3.832089900970458984e-02 -5.173352360725402832e-02 -9.065747261047363281e-02 -5.671275779604911804e-02 -5.152283236384391785e-02 -3.497261926531791687e-02 1.954749785363674164e-02 2.798752859234809875e-02 1.697296462953090668e-02 -4.963749647140502930e-02 1.391265634447336197e-02 1.994584687054157257e-03 -5.557797476649284363e-02 -1.276840106584131718e-03 2.232093364000320435e-02 7.004714012145996094e-02 1.871321052312850952e-01 2.851208671927452087e-02 1.871164329349994659e-02 6.910608708858489990e-02 1.088921949267387390e-01 1.130987182259559631e-01 9.701233357191085815e-02 4.778245091438293457e-02 7.651028782129287720e-02 1.604001969099044800e-03 -6.879357993602752686e-02 -7.505504786968231201e-02 -3.737446293234825134e-02 -3.629606962203979492e-02 -2.108537219464778900e-02 -7.918704301118850708e-02 1.000090036541223526e-03 5.258832126855850220e-02 -2.253661677241325378e-02 -5.881335958838462830e-02 -3.221741691231727600e-02 -1.108852252364158630e-01 3.882895922288298607e-03 1.320611499249935150e-02 -8.346071094274520874e-02 -1.009218022227287292e-01 4.154002293944358826e-02 -3.573835641145706177e-02 1.589657217264175415e-01 1.296342313289642334e-01 1.056349352002143860e-01 9.904060512781143188e-02 1.688920259475708008e-01 2.822555042803287506e-02 8.224505931138992310e-02 8.827760070562362671e-02 2.797073870897293091e-02 5.274630710482597351e-02 2.098729833960533142e-02 -7.980898767709732056e-02 -1.041348055005073547e-01 -1.169687584042549133e-01 -3.460396081209182739e-02 3.819378092885017395e-02 7.113724946975708008e-02 9.467260539531707764e-02 -6.802117824554443359e-02 1.000226195901632309e-02 -6.376639008522033691e-02 -6.618218868970870972e-02 6.538527086377143860e-03 4.160353168845176697e-02 -5.962963774800300598e-02 -1.337790340185165405e-01 1.965222507715225220e-01 -4.652773961424827576e-02 1.577747762203216553e-01 -5.859820172190666199e-02 -5.403783544898033142e-02 1.046822778880596161e-02 1.013908311724662781e-01 5.021323636174201965e-02 7.076672464609146118e-02 6.269888579845428467e-02 -4.374004784040153027e-04 3.143927454948425293e-02 3.955077379941940308e-02 -1.101348735392093658e-02 -8.090182393789291382e-02 2.070930786430835724e-02 1.680660843849182129e-01 7.091920822858810425e-02 3.206738829612731934e-02 -7.273045927286148071e-02 8.896812796592712402e-03 -5.874350294470787048e-02 5.598876159638166428e-03 2.239425294101238251e-02 -3.280074521899223328e-02 1.757847145199775696e-02 -8.830748498439788818e-03 -7.516251504421234131e-02 1.017139777541160583e-01 1.276659220457077026e-01 1.408765166997909546e-01 -4.767239093780517578e-03 -6.460177898406982422e-02 -5.964852496981620789e-02 1.591790467500686646e-01 6.530940299853682518e-04 -1.058128103613853455e-02 4.967111744917929173e-04 -1.094633247703313828e-02 3.476404398679733276e-02 -3.008158877491950989e-02 9.794419631361961365e-03 -2.227948978543281555e-02 1.181249767541885376e-01 1.002145856618881226e-01 -1.757373102009296417e-02 -4.808820784091949463e-02 -1.242050454020500183e-01 -4.048677533864974976e-02 -5.129930563271045685e-03 -1.667576283216476440e-02 1.129918545484542847e-02 -3.240199293941259384e-03 2.952704951167106628e-02 -7.281080633401870728e-02 -6.104451417922973633e-02 -5.432298779487609863e-02 6.214149296283721924e-03 -6.582108885049819946e-02 -2.715511620044708252e-02 4.273618012666702271e-02 1.214346438646316528e-01 2.065263986587524414e-01 -1.002608016133308411e-01 -7.453989982604980469e-02 -3.663137927651405334e-02 3.422157093882560730e-02 -1.367034111171960831e-02 -3.957280889153480530e-02 -1.149982772767543793e-02 -2.437333203852176666e-02 -5.298725888133049011e-02 -3.214462473988533020e-02 -8.246602863073348999e-02 -1.254193633794784546e-01 -5.261179059743881226e-02 -1.934849843382835388e-02 -2.896608971059322357e-02 -4.803635645657777786e-03 -9.471045434474945068e-02 -3.282003477215766907e-02 -2.598330564796924591e-02 -4.120462015271186829e-02 -1.000863090157508850e-01 6.955257616937160492e-03 3.677842766046524048e-02 3.261955454945564270e-02 -6.854333728551864624e-02 7.455547153949737549e-02 1.456549316644668579e-01 2.147531956434249878e-01 -2.182685211300849915e-02 -2.441164851188659668e-02 7.605087012052536011e-03 -7.296511903405189514e-03 -8.489633351564407349e-02 -2.698377147316932678e-02 3.676898404955863953e-02 2.973997592926025391e-02 -7.871265709400177002e-02 -3.218620270490646362e-02 -1.687393710017204285e-02 1.010656822472810745e-03 -1.754941605031490326e-02 9.698609937913715839e-04 -6.792812794446945190e-02 2.432576147839426994e-03 1.306072622537612915e-01 -1.604060269892215729e-02 9.378018788993358612e-03 -3.931106254458427429e-02 -6.312512606382369995e-02 2.861568331718444824e-02 8.835948258638381958e-02 -6.556346546858549118e-03 7.895831018686294556e-03 -1.375472545623779297e-02 2.384340465068817139e-01 1.234894543886184692e-01 -3.135552629828453064e-02 -4.019734635949134827e-02 -7.671903818845748901e-02 1.394037995487451553e-02 -3.494972828775644302e-03 4.881753027439117432e-02 2.674452029168605804e-02 4.155829548835754395e-02 4.753435775637626648e-02 4.848439130000770092e-05 6.302633881568908691e-02 6.910638511180877686e-02 -1.522156409919261932e-02 -7.712909579277038574e-02 -8.752093464136123657e-02 -7.065332680940628052e-02 7.970199733972549438e-02 1.495917588472366333e-01 1.984720826148986816e-01 2.947648800909519196e-02 -5.096352845430374146e-02 5.004568025469779968e-02 1.867252737283706665e-01 -2.597346529364585876e-02 -1.948317885398864746e-02 2.237986773252487183e-02 -3.246163949370384216e-02 1.749225705862045288e-01 1.462781280279159546e-01 2.869761176407337189e-02 7.314950972795486450e-02 7.295669615268707275e-02 7.295192033052444458e-02 6.405524164438247681e-02 3.196783736348152161e-02 -4.048271477222442627e-02 -1.909980922937393188e-02 1.487303711473941803e-02 1.206204593181610107e-01 4.297995939850807190e-02 -1.086676940321922302e-01 -8.774382621049880981e-02 -1.600710004568099976e-01 -1.882950961589813232e-01 -1.022346876561641693e-02 9.901932626962661743e-02 5.546391755342483521e-02 -1.097340509295463562e-01 8.472404442727565765e-03 2.317006140947341919e-02 2.002491801977157593e-02 -2.585697919130325317e-03 -1.246236264705657959e-03 -1.868695579469203949e-02 6.056162342429161072e-02 -4.767923429608345032e-02 2.417296543717384338e-02 3.870116919279098511e-02 1.931804232299327850e-02 -3.166547045111656189e-03 2.688943594694137573e-02 6.879792083054780960e-03 -3.051593899726867676e-02 -9.878335893154144287e-02 -1.482544243335723877e-01 3.189374133944511414e-02 5.772155895829200745e-02 3.531480906531214714e-03 -7.827138900756835938e-02 -1.350148320198059082e-01 -1.416915506124496460e-01 -1.317986249923706055e-01 -1.312599331140518188e-01 -1.776487231254577637e-01 -6.372844427824020386e-02 -6.889257580041885376e-02 -6.105848029255867004e-02 -1.058176532387733459e-02 -1.829273812472820282e-02 -2.080576866865158081e-02 -9.229792281985282898e-03 3.394931182265281677e-02 -2.306042052805423737e-02 -8.367894589900970459e-02 1.092135831713676453e-01 2.754477597773075104e-02 5.482742190361022949e-02 -4.138194024562835693e-02 5.217441543936729431e-02 1.539621502161026001e-02 -1.451191399246454239e-02 -1.799768656492233276e-01 -1.855305582284927368e-02 9.486590325832366943e-02 5.927645042538642883e-02 -3.556612133979797363e-02 -1.677544042468070984e-02 -4.336340725421905518e-02 -9.770713001489639282e-02 -1.974836736917495728e-02 -5.473567172884941101e-02 -2.431269921362400055e-02 1.474912045523524284e-03 -6.561306118965148926e-02 -3.771955147385597229e-02 1.461960957385599613e-03 1.622775197029113770e-02 6.285637617111206055e-03 -1.861410215497016907e-02 2.064685150980949402e-02 3.517925739288330078e-03 -1.428779214620590210e-02 -4.385746549814939499e-03 -1.186508033424615860e-02 -5.512015148997306824e-02 -5.843815952539443970e-02 -8.355600386857986450e-02 -5.688605457544326782e-02 -1.103148013353347778e-01 -1.001438647508621216e-01 -7.596105337142944336e-02 -5.133340507745742798e-02 -7.009718567132949829e-02 -8.202503621578216553e-02 -1.027284413576126099e-01 -3.839785605669021606e-02 -5.726109445095062256e-02 -2.183149196207523346e-02 1.703857444226741791e-02 -3.471466153860092163e-02 2.029383368790149689e-02 -3.309410065412521362e-02 -1.979197375476360321e-02 -8.509162813425064087e-03 3.401676937937736511e-02 -1.148246228694915771e-04
-3.103394061326980591e-03 -3.466133400797843933e-02 1.866035535931587219e-02 -1.270284876227378845e-02 -3.516853973269462585e-02 2.829337492585182190e-02 -1.901731826364994049e-02 3.557231277227401733e-03 -2.883841469883918762e-02 9.848561137914657593e-03 -1.923145726323127747e-02 -2.505570650100708008e-03 -3.248969838023185730e-02 2.271076291799545288e-02 5.969360470771789551e-03 3.674148023128509521e-02 -1.428722590208053589e-02 -3.323173150420188904e-02 2.303841710090637207e-02 9.003285318613052368e-03 1.106784120202064514e-02 2.609084546566009521e-02 -2.915710769593715668e-02 9.381167590618133545e-03 -1.647089235484600067e-02 2.639710158109664917e-02 -2.433719485998153687e-02 -2.646458707749843597e-02 -2.504469826817512512e-02 2.463908866047859192e-02 -2.602443657815456390e-02 3.593988716602325439e-03 -5.484497547149658203e-02 -5.832560732960700989e-02 -4.892310872673988342e-02 -4.129825159907341003e-02 -4.730063676834106445e-02 -3.025694191455841064e-02 -6.769225746393203735e-02 -1.162153556942939758e-01 -1.375025212764739990e-01 -7.419140636920928955e-02 1.250160187482833862e-01 1.129297986626625061e-01 -8.091413415968418121e-03 -1.516391336917877197e-01 -1.035913005471229553e-01 -1.088232472538948059e-01 -1.519800722599029541e-01 -6.539828330278396606e-02 -5.248153582215309143e-02 -6.195333600044250488e-02 5.713898688554763794e-03 -1.702829822897911072e-02 -5.168978124856948853e-03 3.210597112774848938e-02 1.092900708317756653e-02 2.231156826019287109e-02 1.993875950574874878e-02 1.247956301085650921e-03 -1.001563891768455505e-01 -4.761094599962234497e-02 -4.466807097196578979e-02 -1.071196645498275757e-01 -6.350746005773544312e-02 -8.091514557600021362e-02 -4.632572457194328308e-02 -3.666665777564048767e-02 -4.070540517568588257e-02 9.868828952312469482e-02 -1.848020777106285095e-02 1.222468353807926178e-02 1.849978268146514893e-01 1.104650422930717468e-01 -4.945154860615730286e-02 -6.204498186707496643e-02 -5.355233699083328247e-02 -2.321445643901824951e-01 -1.651454269886016846e-01 -1.473430693149566650e-01 -1.764112897217273712e-02 -1.536525040864944458e-02 -1.014130003750324249e-02 1.718832552433013916e-02 6.330721080303192139e-03 -2.489022910594940186e-02 8.118246681988239288e-03 -1.207522004842758179e-01 -1.742518842220306396e-01 -1.199687793850898743e-01 -9.208003431558609009e-02 -1.493453234434127808e-01 -1.408619135618209839e-01 -1.966557502746582031e-01 -1.145171374082565308e-01 -1.124370619654655457e-01 -1.667881608009338379e-01 -7.551624625921249390e-02 3.863426297903060913e-02 1.532194614410400391e-01 1.590721607208251953e-01 1.694053709506988525e-01 3.786493837833404541e-02 -4.876359552145004272e-02 -9.568437933921813965e-02 -2.265718877315521240e-01 -7.744116336107254028e-02 -2.080124020576477051e-01 -1.290306746959686279e-01 9.979801625013351440e-02 -4.085659608244895935e-02 -1.450682617723941803e-02 -6.879419088363647461e-03 -2.339587919414043427e-02 2.657400630414485931e-02 -3.485046327114105225e-03 -9.532619267702102661e-02 -7.018520683050155640e-02 9.900636039674282074e-03 -5.543923377990722656e-02 -1.371280550956726074e-01 -7.431410998106002808e-02 -9.870660305023193359e-02 -4.308595508337020874e-02 -7.459614425897598267e-02 -4.685242474079132080e-02 -2.335485536605119705e-03 1.264125257730484009e-01 1.773619800806045532e-01 1.042400002479553223e-01 5.840240046381950378e-02 8.440492302179336548e-02 7.387938350439071655e-02 -5.529210343956947327e-02 3.073130548000335693e-02 -1.987241059541702271e-01 -2.333707660436630249e-01 -1.265126019716262817e-01 -6.929508596658706665e-02 -1.119138970971107483e-01 2.077233046293258667e-03 -3.014852479100227356e-02 -8.340334147214889526e-02 -1.313503980636596680e-01 -8.446829766035079956e-02 1.520812064409255981e-01 1.851209849119186401e-01 -2.978493459522724152e-02 9.443039447069168091e-02 4.225205630064010620e-02 4.607829451560974121e-02 -2.468908764421939850e-02 -8.535861968994140625e-02 -4.833810962736606598e-03 1.068166177719831467e-02 -4.514281637966632843e-03 1.215516496449708939e-02 3.776742145419120789e-02 1.147579848766326904e-01 -7.797851692885160446e-03 1.982189342379570007e-02 6.447406485676765442e-03 1.292517334222793579e-01 8.437506854534149170e-02 -3.333761915564537048e-02 -8.647347241640090942e-02 -1.370407193899154663e-01 -9.197903424501419067e-02 1.355666294693946838e-02 1.088336259126663208e-01 -2.655347064137458801e-02 4.283186793327331543e-02 -3.384480252861976624e-02 6.720852851867675781e-02 2.322399057447910309e-02 -2.460442483425140381e-02 3.740681335330009460e-02 4.686611518263816833e-02 4.107603058218955994e-02 -5.553995817899703979e-02 -1.968413777649402618e-02 9.066808968782424927e-03 -2.373314090073108673e-02 3.062029555439949036e-02 3.591258451342582703e-02 1.231711432337760925e-01 1.940557360649108887e-01 1.106096357107162476e-01 -1.575413905084133148e-02 2.429584041237831116e-03 2.716458216309547424e-02 -1.370898038148880005e-01 -1.189439445734024048e-01 -2.166324108839035034e-01 7.482078392058610916e-03 1.221485957503318787e-01 2.666543982923030853e-02 2.025393247604370117e-01 -2.478863671422004700e-02 3.724054247140884399e-02 -1.280977129936218262e-01 -7.835399359464645386e-02 -3.499641641974449158e-02 6.168671883642673492e-03 1.873063109815120697e-02 7.305687665939331055e-02 7.169213145971298218e-02 -7.933735847473144531e-02 -2.654311433434486389e-02 8.521160110831260681e-03 9.545281529426574707e-03 5.471161007881164551e-02 1.797304600477218628e-01 2.008745372295379639e-01 1.378843486309051514e-01 1.987859606742858887e-01 1.500019282102584839e-01 1.221563741564750671e-01 -3.292446199338883162e-04 -1.518447250127792358e-01 -1.568865329027175903e-01 -1.912523210048675537e-01 -3.029031679034233093e-02 4.851267859339714050e-02 -2.324010804295539856e-02 2.490096837282180786e-01 -3.883659094572067261e-02 -1.418661139905452728e-02 -1.779114753007888794e-01 -4.497690126299858093e-02 -7.699102908372879028e-02 -1.181605923920869827e-02 6.194442883133888245e-02 9.018333256244659424e-02 -6.435363087803125381e-03 -1.624696329236030579e-02 -2.869660593569278717e-02 -1.503011435270309448e-01 -3.885043039917945862e-02 1.212249919772148132e-01 2.322317510843276978e-01 1.938543170690536499e-01 1.684399247169494629e-01 1.738585084676742554e-01 4.696929082274436951e-02 3.498385474085807800e-02 3.173788636922836304e-02 -1.112920865416526794e-01 -2.950444519519805908e-01 -3.990245759487152100e-01 -1.538181863725185394e-02 -2.151265554130077362e-02 5.719904322177171707e-03 1.511132717132568359e-01 -6.849627941846847534e-03 -1.016512163914740086e-03 -1.236769407987594604e-01 -3.318780660629272461e-02 2.218098938465118408e-02 3.303994983434677124e-02 1.504564136266708374e-01 8.083652704954147339e-02 -3.337879106402397156e-02 -6.917121261358261108e-02 -3.534321486949920654e-02 -1.969000548124313354e-01 -2.063360810279846191e-01 7.543905824422836304e-02 2.481843233108520508e-01 2.171618491411209106e-01 1.621123403310775757e-01 9.680110216140747070e-02 -2.927077002823352814e-02 -1.184332668781280518e-01 8.828284218907356262e-03 -6.089867651462554932e-02 -3.441158831119537354e-01 -3.090491592884063721e-01 -7.740542292594909668e-02 -4.281524568796157837e-02 4.068262875080108643e-02 9.125686436891555786e-02 7.389362901449203491e-02 -9.235011041164398193e-02 -5.323324725031852722e-02 1.795073226094245911e-02 8.814364671707153320e-02 -3.452787920832633972e-02 6.006705388426780701e-02 1.282504945993423462e-02 -1.219756081700325012e-01 -1.106985509395599365e-01 -1.991623491048812866e-01 -2.399774491786956787e-01 -2.518921792507171631e-01 1.804903522133827209e-02 2.004509121179580688e-01 2.060570269823074341e-01 1.014378294348716736e-01 1.120292246341705322e-01 -1.126740779727697372e-02 -7.285869121551513672e-02 -1.885378360748291016e-02 -1.388579159975051880e-01 -3.636283576488494873e-01 -2.245259135961532593e-01 -1.296481490135192871e-01 -9.029077365994453430e-03 4.345560446381568909e-02 -5.599979776889085770e-04 -1.267383694648742676e-01 -6.015415489673614502e-02 -1.664412319660186768e-01 -9.214736521244049072e-02 -8.660030364990234375e-02 -2.227371484041213989e-01 -1.259116232395172119e-01 -1.022985726594924927e-01 -1.330906599760055542e-01 -1.198197081685066223e-01 -1.239850595593452454e-01 -1.612229049205780029e-01 -2.680639326572418213e-01 1.927105011418461800e-03 9.180938452482223511e-02 9.906850010156631470e-02 1.174396499991416931e-01 7.046603411436080933e-02 -2.128145191818475723e-03 -4.913181439042091370e-02 -7.493729889392852783e-02 -1.289875209331512451e-01 -1.810591220855712891e-01 -1.322379410266876221e-01 -9.225290268659591675e-02 -1.004537940025329590e-02 5.977426096796989441e-02 -1.728853583335876465e-02 -2.028928250074386597e-01 -1.232741996645927429e-01 -3.011095821857452393e-01 -2.166280299425125122e-01 -1.583425402641296387e-01 -2.770066559314727783e-01 -1.667881608009338379e-01 -1.291223168373107910e-01 -6.888111680746078491e-02 -1.252033710479736328e-01 6.107677239924669266e-03 -1.741056442260742188e-01 -1.429494470357894897e-01 -6.003072485327720642e-02 7.211098074913024902e-02 6.771244108676910400e-02 5.655286833643913269e-02 -4.234115779399871826e-02 -1.015350967645645142e-01 -1.896223127841949463e-01 -1.351750046014785767e-01 -8.241455256938934326e-02 -1.372859627008438110e-01 -2.308319695293903351e-02 1.424012705683708191e-02 2.489315718412399292e-02 1.410949975252151489e-03 -8.907529525458812714e-03 6.824143975973129272e-02 -2.085415273904800415e-01 -3.800608217716217041e-01 -3.153552412986755371e-01 -2.154385000467300415e-01 -2.105181068181991577e-01 -2.000275813043117523e-02 -9.840031713247299194e-02 -1.014202013611793518e-01 -5.161081627011299133e-02 -1.057026982307434082e-01 -1.365560442209243774e-01 -1.255438625812530518e-01 -7.901595532894134521e-02 -2.062824182212352753e-02 2.465380169451236725e-02 2.875851653516292572e-02 -8.226728439331054688e-02 -1.402591019868850708e-01 -1.464115530252456665e-01 -7.476160675287246704e-02 -6.594385951757431030e-02 -2.952843904495239258e-02 8.608864992856979370e-02 -1.941989548504352570e-02 2.671070583164691925e-02 -6.299813836812973022e-02 1.949485205113887787e-02 6.384542584419250488e-02 -1.153088212013244629e-01 -2.000966966152191162e-01 -1.943289935588836670e-01 -1.023438423871994019e-01 9.008961915969848633e-02 -2.106274850666522980e-02 5.705316364765167236e-02 -6.497655808925628662e-02 -4.854457452893257141e-02 -1.132234707474708557e-01 -8.413153886795043945e-02 -6.670664250850677490e-02 -3.659017756581306458e-02 3.583830595016479492e-02 1.064173579216003418e-01 1.109383162111043930e-02 6.142439786344766617e-03 -9.004299342632293701e-02 4.524467512965202332e-03 6.890026852488517761e-03 -2.439898438751697540e-02 5.154649168252944946e-02 7.220572978258132935e-02 9.806592017412185669e-02 8.325092494487762451e-02 1.726084575057029724e-02 -6.580531597137451172e-03 -2.403713390231132507e-02 -2.183391004800796509e-01 -1.903489679098129272e-01 -1.137689724564552307e-01 -9.608849883079528809e-02 -1.718098483979701996e-02 2.936380542814731598e-02 3.198193386197090149e-02 1.555012073367834091e-02 -3.705259039998054504e-02 -1.351511180400848389e-01 -8.844710141420364380e-02 -1.289388537406921387e-01 -1.291246153414249420e-02 3.880308195948600769e-02 1.107385978102684021e-01 2.171038836240768433e-02 -3.571151942014694214e-02 -9.926254302263259888e-02 9.886512905359268188e-02 8.437118493020534515e-03 -1.912886090576648712e-02 9.326548129320144653e-02 -3.966081142425537109e-02 1.201477870345115662e-01 8.501519262790679932e-02 3.787657618522644043e-02 1.147254779934883118e-01 8.362766355276107788e-02 -2.392842471599578857e-01 -2.783770859241485596e-01 -9.423310309648513794e-02 -6.060315296053886414e-02 1.811927370727062225e-02 3.778624162077903748e-02 5.797489732503890991e-02 -2.138415537774562836e-02 -1.770917698740959167e-02 -1.224085688591003418e-02 -9.997119754552841187e-02 -6.854155659675598145e-02 6.679744273424148560e-02 7.268982380628585815e-02 9.145721048116683960e-02 -7.533315103501081467e-03 -1.034366153180599213e-02 -4.066253453493118286e-02 5.742642283439636230e-02 -3.012177534401416779e-02 -3.884214162826538086e-02 1.518982350826263428e-01 6.935061514377593994e-02 1.146204695105552673e-01 1.007053852081298828e-01 8.750267326831817627e-03 1.133697926998138428e-01 8.138503134250640869e-02 -1.259961575269699097e-01 -1.630913913249969482e-01 -5.079529434442520142e-02 4.505171906203031540e-03 3.519900888204574585e-02 3.421535342931747437e-02 1.207686308771371841e-02 5.854120105504989624e-02 5.843893438577651978e-02 1.119615882635116577e-02 -9.219886362552642822e-02 -5.628534033894538879e-02 7.868651300668716431e-02 7.074411213397979736e-02 -1.027753669768571854e-02 3.682348132133483887e-02 3.128461539745330811e-03 9.172257967293262482e-03 1.830047927796840668e-02 -2.157552354037761688e-02 -4.463117942214012146e-02 3.001680076122283936e-01 1.751684397459030151e-01 1.880822032690048218e-01 -4.087237641215324402e-02 1.280420720577239990e-01 1.386053115129470825e-01 7.241417467594146729e-02 3.936208039522171021e-02 -7.120748609304428101e-02 2.552446676418185234e-03 1.686883158981800079e-02 7.981605082750320435e-02 7.383619993925094604e-02 1.874931529164314270e-02 6.643348373472690582e-03 -5.288031883537769318e-03 1.400917395949363708e-02 -1.060575898736715317e-02 -7.550777867436408997e-03 7.409348338842391968e-02 5.159549415111541748e-02 1.013902276754379272e-01 1.539885997772216797e-01 7.693931460380554199e-02 4.070773348212242126e-02 5.831476673483848572e-02 4.103598743677139282e-02 -2.695810608565807343e-02 2.321019917726516724e-01 9.588937461376190186e-02 1.616769880056381226e-01 2.608229592442512512e-02 -4.093264788389205933e-02 2.374816313385963440e-02 -4.326187074184417725e-02 1.111157089471817017e-01 3.658850118517875671e-02 3.941938630305230618e-04 7.032896578311920166e-02 5.770941823720932007e-02 5.700557306408882141e-02 1.439380496740341187e-01 9.634948521852493286e-02 6.311043351888656616e-02 5.580813810229301453e-02 7.660384476184844971e-02 -4.177243262529373169e-02 3.933819755911827087e-02 2.305185794830322266e-02 5.418250709772109985e-02 2.985042228829115629e-04 2.660701982676982880e-02 4.224585741758346558e-02 3.226011618971824646e-02 1.109491512179374695e-01 7.137586176395416260e-02 1.319400221109390259e-01 1.374257206916809082e-01 3.038152353838086128e-03 -2.874382212758064270e-02 -6.359484046697616577e-03 -2.399582788348197937e-02 -9.503259323537349701e-03 1.654273867607116699e-01 -9.652366861701011658e-04 -9.523093700408935547e-03 5.296257138252258301e-02 -2.102585881948471069e-02 -1.651640050113201141e-02 6.587280333042144775e-02 8.809823542833328247e-02 1.538915038108825684e-01 9.893351793289184570e-02 3.778644604608416557e-04 -1.941718161106109619e-02 -5.209380015730857849e-02 -3.711936622858047485e-02 4.424062371253967285e-02 -4.254015535116195679e-02 5.218453705310821533e-02 9.907536953687667847e-02 2.878569252789020538e-02 3.160854801535606384e-02 6.966036558151245117e-02 1.165010631084442139e-01 8.590294746682047844e-04 4.954997077584266663e-02 4.746121168136596680e-02 3.912771120667457581e-02 1.168315485119819641e-01 1.707472354173660278e-01 2.098782062530517578e-01 4.398839175701141357e-02 6.467499583959579468e-02 -7.289928384125232697e-03 -6.882184743881225586e-02 -1.489640492945909500e-02 -4.332446493208408356e-03 1.000344157218933105e-01 7.160975039005279541e-02 3.551382943987846375e-02 8.903362788259983063e-03 -5.773538351058959961e-02 -4.415645822882652283e-02 1.663250289857387543e-02 -2.784845884889364243e-03 -7.675146311521530151e-02 2.041536383330821991e-02 6.461475044488906860e-02 1.348121613264083862e-01 1.002994924783706665e-01 1.239208281040191650e-01 1.529115289449691772e-01 -5.676919221878051758e-02 -1.067660599946975708e-01 7.704170886427164078e-03 6.961072981357574463e-02 6.369662284851074219e-02 1.719927042722702026e-02 -4.596691951155662537e-02 4.678636416792869568e-02 1.032714694738388062e-01 4.495127871632575989e-02 2.244084142148494720e-02 -2.068847231566905975e-02 -4.843072593212127686e-02 -7.659512106329202652e-03 5.455363541841506958e-02 -4.091950878500938416e-02 -6.159511208534240723e-02 -6.061948463320732117e-02 -5.313873663544654846e-02 2.043728344142436981e-02 -3.289290145039558411e-02 -6.413595378398895264e-02 2.111488580703735352e-02 5.143211036920547485e-02 1.381867676973342896e-01 7.763630710542201996e-03 8.206944912672042847e-03 8.933111280202865601e-02 -8.688405901193618774e-02 -7.664015889167785645e-02 2.967016212642192841e-02 -2.931163646280765533e-02 3.026869520545005798e-02 2.068933658301830292e-02 -1.122126504778862000e-01 -1.841856725513935089e-02 -1.478619407862424850e-02 8.904141373932361603e-03 6.111162528395652771e-02 -6.509139388799667358e-02 1.180100440979003906e-02 4.543192312121391296e-02 7.492971420288085938e-02 6.162164267152547836e-03 4.681711550801992416e-03 -9.721750020980834961e-02 -6.198966503143310547e-02 -8.552498370409011841e-02 -1.859996616840362549e-01 -1.467050313949584961e-01 -7.852628827095031738e-02 -8.282744139432907104e-02 -7.298068702220916748e-02 -4.486096650362014771e-02 -3.999422863125801086e-02 4.922931268811225891e-02 -8.171641081571578979e-02 3.115130960941314697e-02 3.842622041702270508e-03 4.427619278430938721e-03 2.073344215750694275e-02 1.793999373912811279e-01 -4.786073043942451477e-02 1.585501581430435181e-01 1.536717712879180908e-01 -1.156422775238752365e-02 -2.723370492458343506e-02 7.116628810763359070e-03 2.654846943914890289e-02 -5.579193122684955597e-03 -2.373670600354671478e-02 -7.611651439219713211e-03 -9.820919483900070190e-02 -9.950441867113113403e-02 -3.675746545195579529e-02 -1.514272540807723999e-01 -1.228484883904457092e-01 -3.197349011898040771e-01 -3.194720149040222168e-01 -2.623427510261535645e-01 -1.909179799258708954e-02 -5.613668262958526611e-02 -1.959124580025672913e-03 1.335679441690444946e-01 2.816249057650566101e-02 5.905764922499656677e-02 2.367287129163742065e-02 -9.853210300207138062e-03 -3.216638416051864624e-02 -1.626587361097335815e-01 1.592908799648284912e-01 3.147771954536437988e-01 2.299447208642959595e-01 -4.555216431617736816e-02 1.168411597609519958e-02 2.000094056129455566e-01 1.630041897296905518e-01 -5.751967802643775940e-02 6.169942766427993774e-02 1.896192580461502075e-01 -2.707272581756114960e-02 -2.912481687963008881e-02 2.251389995217323303e-02 -4.192160442471504211e-03 -1.281959563493728638e-01 -3.551113605499267578e-01 -3.488020002841949463e-01 -2.121803015470504761e-01 -1.192510724067687988e-01 -1.442186981439590454e-01 -1.837452054023742676e-01 -6.654830276966094971e-02 -4.690335597842931747e-03 2.581870742142200470e-02 -3.162364661693572998e-02 2.986703068017959595e-03 3.529638424515724182e-02 2.286370471119880676e-02 -4.714195430278778076e-02 -1.950357854366302490e-01 -2.021822482347488403e-01 -1.234799325466156006e-01 1.833934336900711060e-01 2.125810086727142334e-01 1.647213250398635864e-01 1.587574183940887451e-02 -2.385068498551845551e-02 2.794435620307922363e-02 6.449253112077713013e-02 2.314690351486206055e-01 2.822843492031097412e-01 2.109119594097137451e-01 5.891161039471626282e-02 -1.245418563485145569e-01 -1.263768374919891357e-01 -8.369080722332000732e-02 -8.088564127683639526e-02 -6.022454425692558289e-02 -8.113134652376174927e-02 -1.013185307383537292e-01 1.481008082628250122e-01 -2.389031648635864258e-02 3.155288472771644592e-02 -2.137315832078456879e-02 2.599757164716720581e-03 -1.461737602949142456e-02 -3.498997539281845093e-03 9.189949370920658112e-03 6.646821647882461548e-02 4.183528572320938110e-02 6.449138373136520386e-02 1.756349951028823853e-02 8.028202690184116364e-03 7.969959825277328491e-02 5.128746852278709412e-02 6.627744436264038086e-02 1.425192654132843018e-01 1.536295562982559204e-01 2.819690704345703125e-01 2.049053013324737549e-01 -4.640183411538600922e-03 -6.347221136093139648e-02 3.257175907492637634e-02 -2.297470532357692719e-02 1.831531897187232971e-02 -7.343613076955080032e-03 1.187373418360948563e-03 -2.309252321720123291e-02 -2.802615240216255188e-02 3.162888064980506897e-02 -5.278034135699272156e-03
-2.459231764078140259e-03 5.347669124603271484e-03 2.326780185103416443e-02 1.557403802871704102e-02 -8.024526759982109070e-03 -3.073238208889961243e-02 3.026737645268440247e-02 -2.495478093624114990e-02 2.554570510983467102e-02 3.518452122807502747e-02 2.655598893761634827e-02 -3.251599892973899841e-02 1.617592386901378632e-02 3.318542987108230591e-02 -3.393637761473655701e-02 -1.332041062414646149e-02 -2.364948019385337830e-02 -2.576753497123718262e-02 3.469258546829223633e-03 1.690987125039100647e-02 1.973163336515426636e-03 -7.082607597112655640e-03 3.160441294312477112e-02 -1.897084712982177734e-02 3.766048699617385864e-03 -1.769814826548099518e-02 1.759248971939086914e-02 -3.480599448084831238e-02 1.202822104096412659e-02 2.607148513197898865e-02 -2.242776006460189819e-02 -1.543966867029666901e-02 6.371377408504486084e-02 1.252559479326009750e-02 6.443060189485549927e-02 1.223311275243759155e-01 5.841062963008880615e-02 7.527010142803192139e-02 9.080022573471069336e-02 7.303719967603683472e-02 7.715229690074920654e-02 9.316892363131046295e-03 -8.588887006044387817e-02 7.703147083520889282e-02 1.387220248579978943e-02 1.397661268711090088e-01 9.140747785568237305e-02 1.043674275279045105e-01 1.503053754568099976e-01 1.028225645422935486e-01 1.449759155511856079e-01 3.244937956333160400e-02 2.210990712046623230e-02 -6.537215784192085266e-03 -9.932331740856170654e-03 1.112591102719306946e-02 -3.521630167961120605e-02 -8.620116859674453735e-03 2.029908262193202972e-02 1.545767486095428467e-01 2.124216556549072266e-01 6.442104279994964600e-02 6.541011482477188110e-02 1.202292889356613159e-01 8.200678974390029907e-02 -1.410154439508914948e-02 9.492241591215133667e-02 2.022991925477981567e-01 2.087680390104651451e-03 -3.478937968611717224e-02 -1.876164413988590240e-02 2.591372840106487274e-02 9.396348893642425537e-02 6.719728559255599976e-02 8.965125679969787598e-02 1.908630430698394775e-01 1.661311089992523193e-01 1.147319152951240540e-01 2.044862806797027588e-01 1.908305138349533081e-01 4.985802993178367615e-02 -5.361320450901985168e-02 2.492818608880043030e-02 -9.048199281096458435e-03 1.815101876854896545e-02 -2.246651053428649902e-02 -6.568951159715652466e-02 1.954927593469619751e-01 1.974512934684753418e-01 1.147579550743103027e-01 2.336461097002029419e-01 1.643455326557159424e-01 2.138718217611312866e-01 6.802173703908920288e-02 1.473325788974761963e-01 1.725272536277770996e-01 8.045304566621780396e-02 6.469855457544326782e-02 1.416865289211273193e-01 1.232806295156478882e-01 1.237013265490531921e-01 3.157163411378860474e-02 1.138892620801925659e-01 1.114973798394203186e-01 1.393969208002090454e-01 5.548370629549026489e-02 -3.466814011335372925e-02 3.878894075751304626e-02 5.275527015328407288e-02 -6.161211431026458740e-02 2.780218049883842468e-02 -3.312684595584869385e-02 -1.097796298563480377e-02 5.849665496498346329e-03 -9.247426688671112061e-02 -5.373128876090049744e-02 1.487061381340026855e-01 2.007221132516860962e-01 5.448342487215995789e-02 4.962458834052085876e-02 1.549417972564697266e-01 5.300641059875488281e-02 6.474186480045318604e-02 5.337651818990707397e-02 1.032798551023006439e-02 5.911749973893165588e-02 8.368115872144699097e-03 -5.467331781983375549e-02 4.685349389910697937e-02 -1.343875844031572342e-02 3.647046163678169250e-02 1.272959262132644653e-01 1.065188795328140259e-01 2.922377176582813263e-02 -2.721292339265346527e-02 3.273963183164596558e-02 -4.653484374284744263e-02 -1.097448542714118958e-01 -3.113802708685398102e-02 8.574395626783370972e-02 -1.777761802077293396e-02 3.285226598381996155e-02 8.745620399713516235e-02 1.636949628591537476e-01 1.753352284431457520e-01 1.612579822540283203e-02 -1.504880338907241821e-01 -7.380067557096481323e-02 -1.890183389186859131e-01 -6.463085860013961792e-02 4.203652590513229370e-02 -2.144316211342811584e-02 -9.092681109905242920e-02 -1.042828112840652466e-01 -5.532617866992950439e-02 -6.851036101579666138e-02 -2.304930239915847778e-03 -4.247314110398292542e-02 -2.655806578695774078e-02 1.287091523408889771e-01 1.363848894834518433e-01 5.140690878033638000e-02 1.201319694519042969e-01 2.103194445371627808e-01 1.701275259256362915e-02 -1.467944681644439697e-01 1.743029057979583740e-01 1.348452121019363403e-01 1.488505676388740540e-02 1.080593764781951904e-01 -8.842594921588897705e-02 -1.603326201438903809e-02 1.562114655971527100e-01 8.861055597662925720e-03 -1.449023783206939697e-01 -1.858169585466384888e-01 -1.435137819498777390e-02 -3.284366056323051453e-02 -8.596402406692504883e-02 -1.490427851676940918e-01 -1.565493792295455933e-01 -1.653182357549667358e-01 -1.302058100700378418e-01 -1.030434444546699524e-01 -7.765776664018630981e-02 -1.729094684123992920e-01 -2.097243368625640869e-01 -9.664946049451828003e-02 -1.380732655525207520e-02 -7.046271115541458130e-02 2.652370370924472809e-02 1.457199454307556152e-01 2.585679292678833008e-01 1.220428384840488434e-02 2.595840767025947571e-02 9.694850444793701172e-02 2.914090827107429504e-02 1.047347784042358398e-01 -1.260530203580856323e-01 7.423248142004013062e-02 2.190659344196319580e-01 1.023925319314002991e-01 -1.873903423547744751e-01 -8.469527214765548706e-02 -3.758355602622032166e-02 -6.787081062793731689e-02 -8.935940265655517578e-02 -9.525888413190841675e-02 -1.011614203453063965e-01 -1.181440800428390503e-01 -9.257661551237106323e-02 -8.937316387891769409e-02 -7.033643871545791626e-02 -1.082596406340599060e-01 -8.939925581216812134e-02 -9.540376067161560059e-02 -5.473603680729866028e-02 -7.545470446348190308e-02 -5.742128938436508179e-02 2.067422308027744293e-02 4.609937220811843872e-02 9.008444845676422119e-02 7.903994619846343994e-02 1.081156730651855469e-01 1.995968669652938843e-01 -1.654853522777557373e-01 -5.832781642675399780e-02 1.086886078119277954e-01 2.049004584550857544e-01 1.298957616090774536e-01 -6.909991800785064697e-02 -1.754566468298435211e-02 -1.187905445694923401e-01 -1.224428191781044006e-01 -9.945076704025268555e-02 -1.057343706488609314e-01 -2.162878774106502533e-02 -5.487097054719924927e-02 -4.891521856188774109e-02 -6.746403127908706665e-02 -1.076946705579757690e-01 -1.544198673218488693e-02 -1.120698079466819763e-01 -4.348702728748321533e-02 7.634208351373672485e-02 5.049691349267959595e-02 -3.883187100291252136e-02 -4.056522995233535767e-02 -7.669361680746078491e-02 1.159500777721405029e-01 4.290241748094558716e-03 3.740739077329635620e-02 -1.494993828237056732e-02 -1.699658185243606567e-01 -7.395508885383605957e-02 7.771489769220352173e-02 1.780065149068832397e-01 7.274032384157180786e-02 -6.201788038015365601e-02 5.715330317616462708e-02 -6.603436917066574097e-02 -1.734572947025299072e-01 -1.287142485380172729e-01 -7.435002923011779785e-02 -4.589215293526649475e-02 -8.615372329950332642e-02 -5.548950657248497009e-02 -6.320033967494964600e-02 6.112242117524147034e-02 3.926864638924598694e-02 -4.739195480942726135e-02 -2.414094842970371246e-02 2.346909791231155396e-02 2.203421667218208313e-02 -5.229979753494262695e-02 -7.942972332239151001e-02 -1.372887846082448959e-02 2.073689550161361694e-02 -9.674566984176635742e-02 -1.192318648099899292e-01 -2.935047820210456848e-02 -5.283590778708457947e-02 2.384239807724952698e-02 1.570404171943664551e-01 1.384006738662719727e-01 -3.269413486123085022e-02 -7.431476563215255737e-02 1.124011352658271790e-02 -3.842044994235038757e-02 -2.154827862977981567e-02 -4.794951900839805603e-02 -5.206963792443275452e-02 -5.591598525643348694e-02 7.404578849673271179e-03 4.386947676539421082e-02 1.018344387412071228e-01 1.333385407924652100e-01 1.132568866014480591e-01 1.974917016923427582e-03 -6.004181504249572754e-02 -4.270131140947341919e-02 -3.806905820965766907e-02 -9.271436184644699097e-02 -7.114071398973464966e-02 1.031524911522865295e-01 -1.383987814188003540e-01 -5.143940448760986328e-03 -1.514790654182434082e-01 -5.037673935294151306e-02 1.030432581901550293e-01 -7.259477674961090088e-02 5.710640922188758850e-02 -4.620531946420669556e-02 -1.805903622880578041e-03 -5.168079212307929993e-02 2.050640620291233063e-02 1.097119529731571674e-03 4.329732805490493774e-02 -1.178145222365856171e-02 3.238444682210683823e-03 -3.714184835553169250e-02 -2.227958105504512787e-02 1.476229131221771240e-01 1.879764646291732788e-01 1.413378566503524780e-01 1.498136371374130249e-01 1.020016819238662720e-01 -1.507013075752183795e-04 -9.862371534109115601e-02 -5.241737887263298035e-02 -9.088732302188873291e-02 -6.557598710060119629e-02 6.666880100965499878e-02 -2.698242850601673126e-02 1.185698732733726501e-01 -1.617185920476913452e-01 3.137826547026634216e-02 -1.524927001446485519e-02 -1.240938380360603333e-01 -3.786560520529747009e-02 -7.528217136859893799e-02 2.030452527105808258e-02 4.008449241518974304e-02 6.368102878332138062e-02 6.542569398880004883e-02 8.474242687225341797e-02 9.236264973878860474e-02 -4.325672984123229980e-02 -1.569558371556922793e-04 8.877066522836685181e-02 2.454158514738082886e-01 1.202993020415306091e-01 1.129485294222831726e-01 9.797040373086929321e-02 2.732108905911445618e-02 -2.996616996824741364e-02 1.823591883294284344e-03 -5.049594119191169739e-02 7.801886647939682007e-03 2.030389197170734406e-02 1.019744351506233215e-01 4.719242826104164124e-02 -4.158269613981246948e-02 -1.624925434589385986e-01 1.738346368074417114e-01 -2.041541971266269684e-02 -1.327819228172302246e-01 1.400545332580804825e-02 -7.357881218194961548e-02 9.544461220502853394e-02 1.505407094955444336e-01 -5.382204428315162659e-02 1.960719190537929535e-02 1.113145425915718079e-01 7.041780650615692139e-02 -1.567265577614307404e-02 9.174754843115806580e-03 8.133929222822189331e-02 1.384741514921188354e-01 6.249828636646270752e-02 9.249059110879898071e-02 6.203498318791389465e-02 7.399376481771469116e-02 1.013622805476188660e-02 3.001846186816692352e-02 -7.335388660430908203e-02 1.226228661835193634e-02 1.583856046199798584e-01 8.487867563962936401e-02 -1.421274431049823761e-02 -5.374824162572622299e-03 -3.237723559141159058e-02 4.948689416050910950e-02 1.619374938309192657e-02 -8.016505092382431030e-02 5.799837782979011536e-02 -7.233323901891708374e-02 1.532785892486572266e-01 8.431175351142883301e-02 -4.899379983544349670e-02 2.943145297467708588e-02 6.618361920118331909e-02 2.949897199869155884e-02 -1.797818392515182495e-02 -1.658373698592185974e-02 9.375202655792236328e-02 8.503545820713043213e-02 -1.899155438877642155e-03 5.866332724690437317e-02 -1.025521778501570225e-03 4.821522906422615051e-02 7.087054103612899780e-02 8.316636830568313599e-02 3.905745595693588257e-02 4.046168178319931030e-02 3.027742542326450348e-02 1.633882075548171997e-01 5.632799863815307617e-02 -9.399904310703277588e-02 -5.177564918994903564e-02 2.918280661106109619e-02 3.571094572544097900e-02 1.188121810555458069e-01 -2.922808565199375153e-02 1.338513493537902832e-01 1.469735503196716309e-01 2.184587158262729645e-02 2.339480631053447723e-02 1.344478689134120941e-02 5.753233656287193298e-02 -9.263983368873596191e-02 -1.006615683436393738e-01 2.377767115831375122e-02 2.890605479478836060e-02 3.695759922266006470e-02 -7.019810378551483154e-02 -8.303390815854072571e-03 -3.424110636115074158e-02 1.403437703847885132e-01 1.040804907679557800e-01 1.005881354212760925e-01 1.097821593284606934e-01 4.829431697726249695e-02 7.718798518180847168e-02 1.363214850425720215e-01 1.159768775105476379e-01 -1.311735212802886963e-01 -3.773770108819007874e-02 -8.899858593940734863e-02 6.753822416067123413e-02 1.172949094325304031e-02 1.206296235322952271e-01 1.110448539257049561e-01 4.717592149972915649e-02 -5.051351711153984070e-02 1.954154297709465027e-02 4.839831497520208359e-03 4.071884974837303162e-02 -6.819467060267925262e-03 -4.143492504954338074e-02 -4.148732125759124756e-02 6.450077984482049942e-03 2.906586043536663055e-02 1.318932883441448212e-02 -4.907105118036270142e-02 5.240112915635108948e-02 1.117021143436431885e-01 1.475786864757537842e-01 8.024891465902328491e-02 1.359688770025968552e-02 -7.180242100730538368e-04 -1.257431693375110626e-03 8.875704556703567505e-02 1.085947528481483459e-01 -1.288824528455734253e-01 -1.257105469703674316e-01 -1.615649089217185974e-02 6.184943020343780518e-02 -1.159267732873558998e-03 1.350787580013275146e-01 7.905735820531845093e-02 6.801769137382507324e-02 4.130572080612182617e-03 5.680356919765472412e-02 9.907339513301849365e-02 1.631485670804977417e-02 -7.236851751804351807e-02 -1.419035810977220535e-02 -2.876123972237110138e-02 -2.927693910896778107e-02 -1.893310248851776123e-02 -7.528842426836490631e-03 3.150757774710655212e-02 7.368050515651702881e-02 1.207557022571563721e-01 1.232049614191055298e-01 5.359638109803199768e-02 -9.257105179131031036e-03 -8.482193946838378906e-02 2.066819928586483002e-03 -1.392110884189605713e-01 -1.166124492883682251e-01 -1.962019652128219604e-01 -1.292723268270492554e-01 -1.711215525865554810e-01 4.388306289911270142e-02 4.020317643880844116e-02 2.313780486583709717e-01 -3.574183955788612366e-02 1.100145503878593445e-01 9.288201481103897095e-02 1.398859620094299316e-01 9.822498261928558350e-02 4.967162385582923889e-02 -2.825185889378190041e-03 1.663544960319995880e-02 3.805875778198242188e-02 9.267088770866394043e-02 1.112593859434127808e-01 1.111461222171783447e-01 1.196888685226440430e-01 1.301007121801376343e-01 7.275690883398056030e-02 -1.721763052046298981e-02 -1.512852460145950317e-01 -1.496198326349258423e-01 -1.341019719839096069e-01 -6.988927721977233887e-02 -2.110431641340255737e-01 2.312552928924560547e-02 -1.966281533241271973e-01 5.233678594231605530e-02 5.112047865986824036e-02 -6.211486458778381348e-02 -1.452982574701309204e-01 1.577893942594528198e-01 -1.953183673322200775e-02 1.362183988094329834e-01 1.093244701623916626e-01 8.289417624473571777e-02 5.545074492692947388e-02 9.961870312690734863e-02 1.102224588394165039e-01 8.650518953800201416e-02 9.267171472311019897e-02 1.416750848293304443e-01 1.965411156415939331e-01 1.611825227737426758e-01 1.670118421316146851e-01 1.005149781703948975e-01 1.846324838697910309e-02 -1.500498354434967041e-01 -1.338944435119628906e-01 -2.684980928897857666e-01 -1.498808115720748901e-01 -1.209140866994857788e-01 -8.730189502239227295e-02 -5.491555854678153992e-02 -2.341195754706859589e-02 1.502648368477821350e-02 -1.211634278297424316e-02 4.897169303148984909e-03 -1.722577363252639771e-01 6.204154342412948608e-02 2.273294143378734589e-02 -2.091801725327968597e-03 2.456110343337059021e-02 1.121637150645256042e-01 7.716880738735198975e-02 1.842860877513885498e-01 1.451894044876098633e-01 6.782946735620498657e-02 9.177546203136444092e-02 1.560380309820175171e-01 2.028602659702301025e-01 2.064256817102432251e-01 1.428998112678527832e-01 2.671598456799983978e-02 -5.418125540018081665e-02 -2.050083726644515991e-01 -1.634162366390228271e-01 -2.052692770957946777e-01 -2.071265578269958496e-01 -3.551470339298248291e-01 -3.097913265228271484e-01 -1.805726438760757446e-01 1.094253733754158020e-02 1.009207144379615784e-01 4.537186771631240845e-02 -1.991449669003486633e-02 -1.320568472146987915e-01 -4.527803137898445129e-02 -2.404317408800125122e-01 -1.944862008094787598e-01 -2.393427491188049316e-02 6.436672061681747437e-02 5.366329476237297058e-02 2.293059974908828735e-02 5.034853890538215637e-02 6.054726615548133850e-02 1.212193891406059265e-01 9.030982851982116699e-02 1.819678097963333130e-01 1.467497199773788452e-01 1.009247377514839172e-01 2.931797504425048828e-02 -8.468330651521682739e-02 -1.668286472558975220e-01 -2.507478296756744385e-01 -3.801080882549285889e-01 -4.052853584289550781e-01 -3.727289140224456787e-01 -2.556623816490173340e-01 -3.364412114024162292e-02 1.694552600383758545e-01 -1.743611693382263184e-02 4.040632396936416626e-02 8.610188215970993042e-02 -5.922285467386245728e-02 -2.109862864017486572e-01 -2.170436680316925049e-01 -2.312286049127578735e-01 -1.806536167860031128e-01 -1.139179840683937073e-01 -1.206739544868469238e-01 -4.633605945855379105e-03 1.566090062260627747e-02 5.521061643958091736e-02 7.684205472469329834e-02 1.307825148105621338e-01 8.170944452285766602e-02 1.011331304907798767e-01 -2.371069788932800293e-02 -1.148443967103958130e-01 -2.223978936672210693e-01 -3.155264854431152344e-01 -3.715448379516601562e-01 -3.775703012943267822e-01 -3.138558268547058105e-01 -3.337734937667846680e-01 -2.161354571580886841e-01 4.622792766895145178e-04 1.894820481538772583e-01 9.658368304371833801e-03 -3.307490795850753784e-02 2.384472265839576721e-02 2.091086059808731079e-01 6.934345513582229614e-02 8.170596510171890259e-02 2.077990211546421051e-02 -1.514675915241241455e-01 -1.919981241226196289e-01 -7.273939996957778931e-02 -5.867639929056167603e-02 5.696750804781913757e-02 -2.126818522810935974e-02 -1.807791367173194885e-02 -4.213283956050872803e-02 3.312486410140991211e-02 -7.712178677320480347e-02 -2.722678780555725098e-01 -4.797084331512451172e-01 -3.854017257690429688e-01 -3.078207075595855713e-01 -2.516931593418121338e-01 -1.665085107088088989e-01 -1.649987846612930298e-01 -1.544579416513442993e-01 -1.403796523809432983e-01 3.597434610128402710e-02 -5.452277138829231262e-03 -2.778400853276252747e-02 5.958303809165954590e-04 3.556042537093162537e-02 -3.139740973711013794e-02 1.095658242702484131e-01 8.799991011619567871e-02 4.229140281677246094e-02 -3.639721497893333435e-02 -9.858243167400360107e-02 -9.952850639820098877e-02 3.400329872965812683e-02 -7.022710889577865601e-02 -1.046222820878028870e-01 -1.392871141433715820e-01 -1.322099715471267700e-01 -1.208769232034683228e-01 -3.015428781509399414e-01 -2.840010821819305420e-01 -3.407911062240600586e-01 -2.109419554471969604e-01 -2.094895690679550171e-01 -1.069673448801040649e-01 1.156525164842605591e-01 -3.215218707919120789e-02 -4.543803632259368896e-02 -7.926319539546966553e-02 -3.900881856679916382e-02 -1.113673150539398193e-01 2.525454014539718628e-02 8.212551474571228027e-03 -1.190483197569847107e-02 2.623065747320652008e-02 1.690225861966609955e-02 -1.497567147016525269e-01 -1.372313350439071655e-01 -5.066862329840660095e-02 -4.878363385796546936e-02 -1.097963973879814148e-01 -3.648689761757850647e-02 -1.647156774997711182e-01 -2.609153687953948975e-01 -1.708926111459732056e-01 -2.014465630054473877e-01 -3.020992577075958252e-01 -3.028033673763275146e-01 -2.356346845626831055e-01 -1.851517856121063232e-01 -1.561616957187652588e-01 -1.506136208772659302e-01 -6.561231613159179688e-02 3.566057886928319931e-03 4.360748082399368286e-02 -2.482924610376358032e-03 -1.205128580331802368e-01 9.037552081281319261e-05 2.957572415471076965e-02 -5.727298557758331299e-04 -1.966846920549869537e-02 2.578178048133850098e-02 -9.823530912399291992e-03 -1.131334528326988220e-02 -1.487988382577896118e-01 -2.547696530818939209e-01 -2.390586584806442261e-01 -2.187334895133972168e-01 -3.646325767040252686e-01 -4.143140017986297607e-01 -3.921083807945251465e-01 -3.373732864856719971e-01 -4.001920521259307861e-01 -3.551132977008819580e-01 -4.142296612262725830e-01 -3.510375916957855225e-01 -2.367640584707260132e-01 -2.968696057796478271e-01 -1.680758893489837646e-01 -1.326982975006103516e-01 -1.555753648281097412e-01 -6.667654216289520264e-02 -1.029124930500984192e-01 -5.864442512392997742e-02 1.970976032316684723e-02 -1.589913479983806610e-02 2.922133728861808777e-02 1.096517220139503479e-02 -2.929745614528656006e-02 -2.673123776912689209e-02 -8.079061284661293030e-03 -2.382722124457359314e-02 -8.630783297121524811e-03 -4.409322515130043030e-02 -9.337557852268218994e-02 -1.091236993670463562e-01 -7.344981282949447632e-02 -4.937426745891571045e-02 -1.578729003667831421e-01 -1.301323771476745605e-01 -1.377748250961303711e-01 -1.575528830289840698e-01 -2.383296638727188110e-01 -1.222187839448451996e-02 -1.407309025526046753e-01 -1.468302309513092041e-01 -1.194849759340286255e-01 -4.350693896412849426e-02 -2.709869295358657837e-02 -2.161694690585136414e-02 -2.025054767727851868e-02 3.074483200907707214e-02 -2.060435153543949127e-02 2.705341205000877380e-02 2.942812815308570862e-02 1.890705153346061707e-02
-3.252818435430526733e-02 2.099400758743286133e-02 1.735510304570198059e-02 -3.505567833781242371e-02 -1.404710859060287476e-02 -9.141994640231132507e-03 2.502640336751937866e-02 -1.965318992733955383e-02 2.562937512993812561e-02 -7.392495870590209961e-03 9.055726230144500732e-03 3.033430501818656921e-02 3.495164588093757629e-02 3.253456950187683105e-02 3.030798397958278656e-02 1.225990429520606995e-02 2.436244487762451172e-02 -3.556936234235763550e-02 1.871502771973609924e-02 -2.051072195172309875e-02 -3.521494567394256592e-02 -2.595682814717292786e-02 3.185011446475982666e-03 -1.238357648253440857e-02 -7.258789613842964172e-03 -3.195430338382720947e-02 1.145663484930992126e-02 -2.717286348342895508e-03 -3.063479252159595490e-02 -1.038226485252380371e-02 -1.620339229702949524e-02 2.680775895714759827e-02 7.356009911745786667e-03 6.205764040350914001e-02 9.626497328281402588e-02 1.135012134909629822e-01 4.391618445515632629e-02 2.693597972393035889e-02 1.170469671487808228e-01 1.184749752283096313e-01 1.077144220471382141e-01 1.077557653188705444e-01 -7.117397338151931763e-02 4.838633164763450623e-02 1.065455451607704163e-01 1.902471929788589478e-01 1.096879616379737854e-01 1.337462961673736572e-01 1.236511245369911194e-01 1.266505867242813110e-01 1.070989072322845459e-01 5.059128254652023315e-02 -1.324976421892642975e-02 -1.015485264360904694e-02 1.242716610431671143e-02 -2.110902220010757446e-03 1.501512154936790466e-02 1.763104647397994995e-02 4.376843199133872986e-02 -1.314389556646347046e-01 -2.415142767131328583e-02 1.136617586016654968e-01 1.032117679715156555e-01 1.561574786901473999e-01 2.294740229845046997e-01 1.757311522960662842e-01 1.328022330999374390e-01 1.971352845430374146e-01 8.720371127128601074e-02 2.409042604267597198e-02 1.294334828853607178e-01 9.386531263589859009e-02 -6.157181039452552795e-02 -4.082107543945312500e-02 6.802403926849365234e-02 -1.814028364606201649e-03 -7.789212465286254883e-02 1.789064146578311920e-02 7.829821109771728516e-02 1.566238887608051300e-02 -2.226265892386436462e-02 -5.707057565450668335e-02 -3.047076798975467682e-02 1.722434163093566895e-02 2.360969781875610352e-02 -1.637629233300685883e-02 -1.183150485157966614e-01 -1.511300653219223022e-01 -5.270206183195114136e-02 1.552920881658792496e-02 1.000062525272369385e-01 -5.353371426463127136e-02 -3.969132900238037109e-02 1.605122387409210205e-01 3.014888055622577667e-02 5.040213465690612793e-02 -4.529669135808944702e-02 -2.864340320229530334e-02 2.056049741804599762e-02 6.125437095761299133e-03 8.150337636470794678e-02 3.945520892739295959e-02 -8.194085955619812012e-02 -8.429838716983795166e-02 -1.337922513484954834e-01 6.646520644426345825e-02 7.377373427152633667e-02 1.003578677773475647e-01 4.407276585698127747e-02 -1.595016568899154663e-02 6.995219737291336060e-02 -2.709273435175418854e-02 1.834600791335105896e-02 2.798046544194221497e-02 -8.844333142042160034e-02 -5.905489251017570496e-02 2.736749313771724701e-02 -6.995053589344024658e-02 -1.204879209399223328e-01 -9.451731294393539429e-02 3.089409321546554565e-02 1.617414951324462891e-01 1.086650118231773376e-01 -2.464988082647323608e-02 -3.171040490269660950e-02 -7.726119458675384521e-02 4.414457082748413086e-02 2.166978828608989716e-02 1.503432393074035645e-01 1.551417708396911621e-01 -4.384782165288925171e-02 -1.204885393381118774e-01 -8.795987814664840698e-02 -1.083487644791603088e-01 -1.579338014125823975e-01 -2.621192485094070435e-02 2.504500560462474823e-02 8.370826020836830139e-03 1.026896908879280090e-01 1.272791773080825806e-01 -3.188202530145645142e-02 2.297942340373992920e-02 -3.926945105195045471e-02 -1.403342038393020630e-01 -1.934100985527038574e-01 -1.040600389242172241e-01 -1.976002156734466553e-01 -7.841553539037704468e-02 1.393178254365921021e-01 7.347198575735092163e-02 3.020494431257247925e-02 -1.963274553418159485e-02 3.177428990602493286e-02 -7.675436884164810181e-02 2.478733658790588379e-03 -5.681012757122516632e-03 3.348502889275550842e-02 -1.607997715473175049e-02 -1.844078004360198975e-01 -3.228426724672317505e-02 -1.211348548531532288e-01 -1.737675219774246216e-01 -1.405337303876876831e-01 -1.105648502707481384e-01 -5.352875590324401855e-02 2.613070420920848846e-03 1.380816102027893066e-01 1.451561897993087769e-01 -3.622982650995254517e-03 -4.457540810108184814e-03 2.576214261353015900e-02 -1.886146813631057739e-01 -1.525287777185440063e-01 -1.798739656805992126e-02 -1.185926944017410278e-01 -9.154368191957473755e-02 6.123609095811843872e-02 8.582230657339096069e-03 -9.159047156572341919e-02 3.622702881693840027e-02 1.023666709661483765e-01 -6.518319994211196899e-02 -1.141927167773246765e-01 -1.603316813707351685e-01 -1.746707260608673096e-01 -1.049771234393119812e-01 -1.695535480976104736e-01 -7.103125005960464478e-02 -1.265662759542465210e-01 -2.137029469013214111e-01 -1.056407541036605835e-01 1.728441938757896423e-02 -4.571620665956288576e-04 4.152189940214157104e-02 4.104714468121528625e-02 1.458830237388610840e-01 -2.650503255426883698e-02 -9.226886928081512451e-02 -1.139321457594633102e-02 -2.570871412754058838e-01 -1.386964917182922363e-01 -8.637016266584396362e-02 -1.155388951301574707e-01 -5.322992056608200073e-02 5.300189927220344543e-02 1.119681075215339661e-01 1.419182121753692627e-01 1.122623458504676819e-01 -1.545209158211946487e-02 -2.413663566112518311e-01 -2.748419046401977539e-01 -1.545520573854446411e-01 -2.335190623998641968e-01 -1.377029269933700562e-01 3.130248934030532837e-02 -2.001414448022842407e-02 -6.558617204427719116e-02 -8.581772446632385254e-03 5.073495209217071533e-02 1.857195422053337097e-02 8.861176669597625732e-02 1.944918036460876465e-01 4.180616140365600586e-02 1.198685839772224426e-01 5.314039438962936401e-02 -6.467368453741073608e-02 6.403241306543350220e-02 -9.969104081392288208e-02 -4.841781035065650940e-02 -4.881867393851280212e-02 4.539137333631515503e-02 4.763105884194374084e-02 5.047900229692459106e-02 1.376622915267944336e-01 9.892469644546508789e-02 6.483076512813568115e-02 1.410709042102098465e-02 -1.623326241970062256e-01 -2.032862305641174316e-01 -2.253570109605789185e-01 -1.788760125637054443e-01 -6.322164833545684814e-02 -7.449209690093994141e-02 -5.393277853727340698e-02 2.602448128163814545e-02 6.608460098505020142e-02 -2.923338860273361206e-02 1.190768703818321228e-01 9.435126185417175293e-02 1.084757670760154724e-01 7.328941673040390015e-02 7.291818410158157349e-02 8.465973660349845886e-03 -6.929782032966613770e-02 1.100618168711662292e-01 -1.846602372825145721e-02 -5.366336926817893982e-02 -1.394955366849899292e-01 -6.550055695697665215e-04 -3.209137124940752983e-03 -6.117881275713443756e-03 4.868343472480773926e-02 1.476679276674985886e-02 9.324858337640762329e-02 3.580620046705007553e-03 -9.025335311889648438e-02 -1.486333012580871582e-01 -2.322086691856384277e-01 -1.009269803762435913e-01 -4.590038582682609558e-02 1.998035050928592682e-02 6.340003013610839844e-02 1.607768796384334564e-02 8.805634081363677979e-02 1.912706717848777771e-02 1.698448359966278076e-01 1.092665120959281921e-01 -1.420071348547935486e-02 -3.728156164288520813e-02 -9.091772139072418213e-02 -1.458151079714298248e-02 -8.228620886802673340e-02 -1.410763990134000778e-02 -4.851565230637788773e-03 -1.026785746216773987e-01 -1.214336752891540527e-01 -2.465051785111427307e-02 2.219879254698753357e-02 4.010660573840141296e-02 1.200851052999496460e-01 9.071683138608932495e-02 4.337403923273086548e-02 2.001215890049934387e-02 -9.679808467626571655e-02 -1.197215989232063293e-01 -1.005333140492439270e-01 -9.511243551969528198e-02 9.486500173807144165e-03 -1.763785816729068756e-02 5.271080136299133301e-02 -3.149115294218063354e-02 4.345662891864776611e-02 6.155883520841598511e-02 7.456298172473907471e-02 2.086945772171020508e-01 -1.812843233346939087e-01 -9.481418877840042114e-03 -1.331124305725097656e-01 3.447995521128177643e-03 1.904694736003875732e-01 3.694736585021018982e-02 -4.223760217428207397e-02 -1.233381479978561401e-01 -1.021915674209594727e-01 1.125247497111558914e-02 2.611447311937808990e-02 1.275288406759500504e-02 1.046764329075813293e-01 1.926177740097045898e-02 6.932746618986129761e-04 8.608123660087585449e-02 -2.270540967583656311e-02 -2.019380033016204834e-02 -3.306239843368530273e-02 2.928214706480503082e-02 -2.057858183979988098e-02 -2.859570644795894623e-02 2.901999466121196747e-02 -3.438185900449752808e-02 8.777902275323867798e-02 -2.720441855490207672e-02 -7.239015400409698486e-02 1.080403253436088562e-01 7.096263021230697632e-02 3.902913630008697510e-02 -1.005225032567977905e-01 -4.321642220020294189e-03 -3.910659998655319214e-02 -4.806213825941085815e-02 -8.341770619153976440e-02 -1.916165947914123535e-01 -1.108953058719635010e-01 -7.250775396823883057e-02 7.951206713914871216e-02 7.300662994384765625e-02 9.405007958412170410e-02 -2.760104462504386902e-02 1.760709658265113831e-02 -1.795376837253570557e-02 9.789027273654937744e-03 -8.800071664154529572e-03 -1.147236791439354420e-03 4.116259980946779251e-03 3.904113080352544785e-03 5.849892273545265198e-03 5.344158783555030823e-02 6.273610144853591919e-02 1.624212972819805145e-02 -1.363094081170856953e-03 -4.111909121274948120e-02 2.609746158123016357e-01 1.745118498802185059e-01 -5.970703437924385071e-02 -6.509722024202346802e-02 9.343697130680084229e-02 -5.224724486470222473e-02 -5.023507773876190186e-02 -1.375022381544113159e-01 -1.577783674001693726e-01 -5.976643878966569901e-03 -3.278589621186256409e-02 -1.619263924658298492e-02 4.768834263086318970e-02 2.874254062771797180e-02 -7.107251137495040894e-02 -9.641858935356140137e-02 -2.995656616985797882e-02 -3.320179134607315063e-02 -1.872762339189648628e-03 3.987913206219673157e-02 -3.490924835205078125e-02 -6.640119105577468872e-02 9.805510193109512329e-02 1.733639687299728394e-01 1.163741126656532288e-01 6.148411333560943604e-02 9.268338233232498169e-02 4.735515266656875610e-02 1.152044832706451416e-01 6.006235629320144653e-02 4.037359729409217834e-02 9.466063976287841797e-02 -7.472440134733915329e-03 -5.126822367310523987e-02 -7.175259292125701904e-03 -4.424421116709709167e-02 -1.935791671276092529e-01 1.065651029348373413e-01 -4.061070084571838379e-02 2.557366341352462769e-02 -1.037619635462760925e-02 -5.916202440857887268e-02 -8.894883841276168823e-02 -2.483158558607101440e-02 -8.051009476184844971e-02 -2.040563523769378662e-02 6.222149729728698730e-02 1.039478927850723267e-02 -2.521506324410438538e-02 -5.458690226078033447e-02 6.648556888103485107e-02 5.844939500093460083e-02 3.248413279652595520e-02 1.681724563241004944e-02 1.474698632955551147e-01 -8.241152390837669373e-03 -2.041818946599960327e-02 -3.167615970596671104e-03 -3.837531432509422302e-02 9.415571391582489014e-02 1.834812574088573456e-02 2.701354213058948517e-02 -4.231527447700500488e-03 1.495880261063575745e-02 -7.335440069437026978e-02 3.137885406613349915e-02 4.996259137988090515e-02 9.120114892721176147e-02 6.769530475139617920e-02 -8.001849800348281860e-02 -6.658440828323364258e-02 3.791750594973564148e-02 9.144426137208938599e-02 9.924133867025375366e-02 1.391674727201461792e-01 -2.072593010962009430e-02 -9.921623021364212036e-02 -4.872817173600196838e-02 3.117581643164157867e-02 1.015747804194688797e-02 -4.944565519690513611e-02 3.125882241874933243e-03 3.589243814349174500e-02 6.861065328121185303e-02 -1.313056889921426773e-02 3.451650217175483704e-02 -1.710934489965438843e-01 -1.067026108503341675e-01 -7.397396862506866455e-02 -1.094051636755466461e-02 -9.207196533679962158e-03 1.519696135073900223e-02 -4.328844323754310608e-02 -2.688894513994455338e-03 -3.580175340175628662e-02 -1.036076843738555908e-01 -2.187476865947246552e-02 -1.606778800487518311e-01 -6.770912557840347290e-02 5.219040811061859131e-02 2.303356379270553589e-01 1.568038314580917358e-01 9.968215972185134888e-02 2.954444475471973419e-02 6.839120388031005859e-02 2.824850752949714661e-02 1.157914381474256516e-02 -7.296607643365859985e-02 -1.101536676287651062e-01 -5.627063661813735962e-02 -5.691602081060409546e-02 8.241339772939682007e-02 -2.937052398920059204e-02 1.521549373865127563e-01 -1.770495921373367310e-01 -7.542762160301208496e-02 5.826584994792938232e-03 -1.962068118155002594e-02 1.753189414739608765e-02 8.389006368815898895e-03 6.476052850484848022e-02 -3.193746134638786316e-02 -1.330603063106536865e-01 -2.301838994026184082e-01 -1.177626177668571472e-01 -1.683365553617477417e-01 -4.694157466292381287e-02 1.281327009201049805e-01 1.834266781806945801e-01 1.388353854417800903e-01 1.202408671379089355e-01 3.579421713948249817e-02 4.709811136126518250e-02 -1.862382330000400543e-02 1.156821995973587036e-01 1.821949891746044159e-02 -8.586269617080688477e-02 -5.153036117553710938e-02 4.836696013808250427e-02 8.824494481086730957e-02 1.033773496747016907e-01 3.822041302919387817e-02 -1.927749961614608765e-01 3.537190333008766174e-02 -1.875180192291736603e-02 -1.337956916540861130e-02 -2.582927420735359192e-02 5.497891083359718323e-02 4.934716224670410156e-02 -8.863095194101333618e-02 -1.102479845285415649e-01 -1.293628066778182983e-01 -1.877235770225524902e-01 -1.271247118711471558e-01 1.529258955270051956e-02 9.901341050863265991e-02 2.172306776046752930e-01 1.861417889595031738e-01 7.543911039829254150e-02 -2.385433763265609741e-02 -6.303040683269500732e-02 -2.295107953250408173e-02 6.631574779748916626e-02 -4.640929773449897766e-02 -1.338439434766769409e-01 -2.558803744614124298e-02 -1.427255850285291672e-02 -5.053097754716873169e-02 1.722172647714614868e-01 2.565505728125572205e-02 -2.314365953207015991e-01 -2.554410882294178009e-02 -3.888338059186935425e-02 -5.827680602669715881e-02 -7.898935675621032715e-02 -4.748824238777160645e-02 -1.300995945930480957e-01 -1.099756807088851929e-01 -1.483382731676101685e-01 -1.307244449853897095e-01 -1.455374211072921753e-01 -1.016235649585723877e-01 6.435357779264450073e-02 2.338054180145263672e-01 2.288986444473266602e-01 1.612522453069686890e-01 8.705320954322814941e-02 -8.073513954877853394e-02 -1.164307147264480591e-01 1.192381605505943298e-02 4.449225962162017822e-02 -1.861415430903434753e-02 -7.516653090715408325e-02 -2.866885624825954437e-02 1.966162584722042084e-02 9.547821432352066040e-02 5.381111055612564087e-02 -4.672979190945625305e-02 -2.304789051413536072e-02 1.799080148339271545e-02 -2.539669349789619446e-02 -6.233015097677707672e-03 4.838564433157444000e-03 -4.265736788511276245e-02 -3.536789119243621826e-01 -2.288864403963088989e-01 -2.467920780181884766e-01 -1.168243661522865295e-01 -1.184583380818367004e-01 6.865205243229866028e-03 1.308247447013854980e-01 2.695968449115753174e-01 2.761803865432739258e-01 1.806349009275436401e-01 6.246640905737876892e-02 5.456586368381977081e-03 -7.980714738368988037e-02 1.649151381570845842e-04 6.506228446960449219e-02 1.395503524690866470e-02 -4.624168947339057922e-02 -6.645458936691284180e-02 4.058214649558067322e-02 -4.879241343587636948e-03 -6.141154468059539795e-02 -1.059880200773477554e-02 -1.592211425304412842e-02 -7.338092476129531860e-02 -2.765826880931854248e-02 -5.502347485162317753e-04 -4.774522036314010620e-02 -4.353250190615653992e-02 -1.379673928022384644e-01 -1.308739334344863892e-01 -2.033099830150604248e-01 -1.713518500328063965e-01 -3.450308740139007568e-02 7.546582818031311035e-02 6.265573948621749878e-02 1.937530785799026489e-01 1.995630115270614624e-01 1.595008224248886108e-01 1.216713190078735352e-01 3.870803117752075195e-02 -6.963515281677246094e-02 6.423599272966384888e-02 -3.435654565691947937e-02 -1.116073923185467720e-03 5.732065811753273010e-02 -2.958561759442090988e-03 1.288820654153823853e-01 8.224471658468246460e-02 -6.998401135206222534e-02 1.289959438145160675e-02 2.184989005327224731e-01 -1.907211542129516602e-02 -5.711225792765617371e-02 -9.931178763508796692e-03 2.838442660868167877e-02 -5.687210708856582642e-03 -3.989188373088836670e-02 -2.035897970199584961e-02 -1.735032200813293457e-01 -1.421235799789428711e-01 -8.252421021461486816e-02 5.731000564992427826e-03 4.110793024301528931e-02 7.998808473348617554e-02 1.449616104364395142e-01 1.228871643543243408e-01 5.685692653059959412e-02 3.987038135528564453e-02 -1.149127446115016937e-02 -3.450611606240272522e-02 -5.007613077759742737e-02 -3.414253145456314087e-02 -5.191672220826148987e-02 -9.304658323526382446e-02 1.549450028687715530e-02 9.789222851395606995e-03 -8.501366525888442993e-02 1.456261873245239258e-01 1.397350281476974487e-01 -2.625492401421070099e-02 2.154942974448204041e-02 1.325300708413124084e-02 1.432102080434560776e-02 -7.536461204290390015e-02 2.976382896304130554e-02 -1.144617144018411636e-02 -1.793223470449447632e-01 -2.268544435501098633e-01 -1.820782274007797241e-01 -1.358528584241867065e-01 -1.093210577964782715e-01 -6.945941597223281860e-02 8.675111085176467896e-02 9.662633389234542847e-02 1.418091654777526855e-01 3.305322304368019104e-02 8.379524201154708862e-02 -9.271867573261260986e-02 -1.543790251016616821e-01 -1.188731342554092407e-01 -1.786123961210250854e-01 -8.775137364864349365e-02 3.116513229906558990e-02 6.148764863610267639e-02 -1.939619779586791992e-01 2.768848207779228687e-04 -2.496339194476604462e-02 2.075824514031410217e-02 -2.244270779192447662e-02 -2.199686132371425629e-02 -2.689884230494499207e-02 -1.274289041757583618e-01 -4.027559608221054077e-02 -8.328662067651748657e-02 -2.614021003246307373e-01 -3.862975835800170898e-01 -3.583227992057800293e-01 -2.829060852527618408e-01 -2.274174690246582031e-01 -8.604616671800613403e-02 7.556547969579696655e-02 1.482931673526763916e-01 1.433826833963394165e-01 9.356745332479476929e-02 1.520772129297256470e-01 -1.220286190509796143e-01 -8.376809954643249512e-02 -4.949728026986122131e-02 -1.440809071063995361e-01 -3.326553851366043091e-02 4.196475818753242493e-02 -3.252729400992393494e-02 -1.729724705219268799e-01 -1.070108413696289062e-01 -8.813272416591644287e-02 -3.595151007175445557e-03 -3.277104720473289490e-02 -1.763499714434146881e-02 -1.299735903739929199e-01 -4.091008380055427551e-02 -9.252910315990447998e-02 -1.834594607353210449e-01 -1.509584486484527588e-01 -2.203640788793563843e-01 -3.210236132144927979e-01 -2.801518440246582031e-01 -1.125207096338272095e-01 -5.856391042470932007e-02 -8.405201882123947144e-02 1.256320811808109283e-02 1.255830228328704834e-01 2.046693712472915649e-01 1.806759387254714966e-01 1.609662622213363647e-01 1.057499051094055176e-01 4.279215354472398758e-03 -1.142992824316024780e-02 -5.628810450434684753e-02 4.935121536254882812e-02 4.427724331617355347e-02 -4.620092362165451050e-02 -7.308786362409591675e-02 4.048169031739234924e-02 3.603775054216384888e-03 -2.590011432766914368e-02 2.264598384499549866e-02 -3.744591027498245239e-03 -3.268531709909439087e-02 8.009786158800125122e-02 4.636929556727409363e-02 -1.011601984500885010e-01 -2.420068830251693726e-01 -1.663109213113784790e-01 -2.223084867000579834e-01 -1.952590793371200562e-01 1.787419617176055908e-02 1.169357001781463623e-01 1.515109743922948837e-02 -2.220049947500228882e-01 -2.403080612421035767e-01 -1.659268438816070557e-01 -8.461868762969970703e-02 -1.279549747705459595e-01 -1.510293632745742798e-01 -1.998517066240310669e-01 -6.046186015009880066e-02 -1.050484031438827515e-01 -1.274737622588872910e-02 1.007972657680511475e-01 -2.847637981176376343e-02 -3.509051352739334106e-02 3.501257672905921936e-02 -3.481508418917655945e-02 3.023917600512504578e-02 -1.360341161489486694e-02 -3.114170767366886139e-02 2.476147934794425964e-02 1.245021820068359375e-02 2.109833247959613800e-02 5.754451826214790344e-02 1.109614223241806030e-02 -1.618022471666336060e-02 -5.815954506397247314e-02 -8.215487003326416016e-02 -5.418966338038444519e-02 6.487424671649932861e-02 -1.363375931978225708e-01 -1.045449450612068176e-01 -4.296126216650009155e-02 -1.800020784139633179e-01 -1.744113564491271973e-01 -3.057952411472797394e-02 -3.231974318623542786e-02 -6.213148683309555054e-02 -1.710018143057823181e-02 -3.140956535935401917e-02 7.535781711339950562e-03 1.919811591506004333e-02 2.469560503959655762e-02 -1.861563883721828461e-02
