-4.997132718563079834e-02
-6.863778084516525269e-02
-6.066079065203666687e-02
9.454123675823211670e-02
9.559009224176406860e-02
3.176385909318923950e-02
-6.303247809410095215e-02
2.259239554405212402e-01
5.229062214493751526e-02
4.314536228775978088e-02
1.016925647854804993e-01
-1.647499948740005493e-02
2.326979935169219971e-01
1.036443263292312622e-01
1.112645044922828674e-01
6.791926454752683640e-03
2.952811866998672485e-02
3.083165548741817474e-02
-8.168215863406658173e-03
-1.163179576396942139e-01
9.923461824655532837e-02
-7.954049855470657349e-02
-6.115099042654037476e-02
3.841451834887266159e-03
-4.521103110164403915e-03
8.258289098739624023e-02
3.234660625457763672e-02
8.011492341756820679e-02
1.373371630907058716e-01
3.586350753903388977e-02
4.105353727936744690e-02
-1.150791794061660767e-01
2.322789467871189117e-02
-2.031160145998001099e-02
6.868986040353775024e-02
1.771228015422821045e-02
-8.856954425573348999e-02
-1.977377943694591522e-02
-1.085430476814508438e-02
1.358784884214401245e-01
-1.041497290134429932e-02
-9.556767344474792480e-02
4.854274168610572815e-02
1.012421250343322754e-01
-4.742963984608650208e-02
3.514369204640388489e-02
8.387272059917449951e-02
1.847308501601219177e-02
9.825167059898376465e-02
2.588026523590087891e-01
1.428291350603103638e-01
-7.214263081550598145e-02
1.916061043739318848e-01
-1.664485968649387360e-02
7.668890058994293213e-02
-1.046020090579986572e-01
-4.451322834938764572e-03
4.084016755223274231e-02
2.388587594032287598e-02
-2.949605323374271393e-02
3.861751407384872437e-02
-3.598122298717498779e-02
-1.182288751006126404e-01
9.262511879205703735e-02
8.711706101894378662e-02
1.540207564830780029e-01
2.320995181798934937e-02
1.297588199377059937e-01
-1.264438927173614502e-01
-3.007496148347854614e-02
7.776899635791778564e-02
1.130825206637382507e-01
1.129018366336822510e-01
3.045676462352275848e-02
9.835302084684371948e-02
1.056967899203300476e-01
-5.933438614010810852e-02
-3.606989979743957520e-02
-3.785272315144538879e-02
-9.145686030387878418e-02
-2.191055379807949066e-02
-4.760793410241603851e-03
1.672168225049972534e-01
3.316622693091630936e-03
5.230935662984848022e-02
6.601466983556747437e-02
-2.944309450685977936e-02
7.308629155158996582e-02
1.190311089158058167e-01
-1.583582311868667603e-01
2.480726540088653564e-01
-1.270857919007539749e-02
6.324484199285507202e-02
6.624004244804382324e-02
-2.199642173945903778e-02
8.274572342634201050e-02
1.695186793804168701e-01
-4.606312140822410583e-02
5.725646391510963440e-02
8.518189936876296997e-02
