-1.119102239608764648e-01 -1.839351505041122437e-01 -2.896725200116634369e-02 -1.480110734701156616e-01 1.492660939693450928e-01 -3.229928910732269287e-01 9.506133943796157837e-02 -3.032742440700531006e-01 1.020561158657073975e-01 -1.243454888463020325e-01 -7.432937622070312500e-02 2.164237014949321747e-02 -4.390275478363037109e-02 -2.815924882888793945e-01 1.329990327358245850e-01 -3.148532509803771973e-01 1.924787163734436035e-01 -1.461316458880901337e-02 -1.788284033536911011e-01 1.604434102773666382e-01 1.452359743416309357e-02 -1.179046109318733215e-01 2.492670714855194092e-02 1.142415450885891914e-03 6.682854890823364258e-02 1.501459181308746338e-01 5.087054334580898285e-03 2.319161444902420044e-01 -3.671973198652267456e-02 -1.770249903202056885e-01 -1.348423063755035400e-01 9.511585533618927002e-02 1.760486662387847900e-01 -6.941157579421997070e-02 -3.170476108789443970e-02 -5.963490903377532959e-02 -1.699343472719192505e-01 -9.076091647148132324e-02 1.482829153537750244e-01 1.719842553138732910e-01 -8.385353535413742065e-02 -9.235367923974990845e-02 -4.933903366327285767e-02 1.479600071907043457e-01 -3.974946439266204834e-01 -5.674328282475471497e-02 1.763553172349929810e-01 -3.213758766651153564e-02 -1.375947296619415283e-01 3.220549598336219788e-02 -1.122385612688958645e-03 8.124044537544250488e-02 1.132096424698829651e-01 -2.150787562131881714e-01 1.478126794099807739e-01 1.489401310682296753e-01 1.722765117883682251e-01 -9.793858230113983154e-02 -1.892530769109725952e-01 -4.175173938274383545e-01 -2.036802172660827637e-01 -3.573628664016723633e-01 7.804685086011886597e-02 -9.019968099892139435e-03 -1.294914400205016136e-03 -1.089179441332817078e-01 1.289859600365161896e-02 1.845451146364212036e-01 -1.170700639486312866e-01 9.495563805103302002e-02 7.531969994306564331e-02 -8.861126005649566650e-02 2.699168026447296143e-01 4.335903748869895935e-02 -2.782257795333862305e-01 -1.424237042665481567e-01 -1.375512965023517609e-02 -3.544254601001739502e-01 1.951539888978004456e-02 5.126555263996124268e-02 3.398413583636283875e-02 -1.159582883119583130e-01 5.888540670275688171e-02 1.441771239042282104e-01 1.749916821718215942e-01 -2.026401758193969727e-01 1.431896984577178955e-01 -1.524814516305923462e-01 -1.244358047842979431e-01 9.233613312244415283e-02 -1.788299083709716797e-01 -5.422269552946090698e-02 -5.285388603806495667e-02 1.536842584609985352e-01 1.898525953292846680e-01 -1.672832816839218140e-01 -3.021240830421447754e-01 1.041406765580177307e-01 -2.509360015392303467e-01 2.245607599616050720e-02
-3.419669270515441895e-01 1.592514663934707642e-02 5.156658962368965149e-02 -6.267210096120834351e-02 1.197054013609886169e-01 2.381841838359832764e-01 -1.729026734828948975e-01 -1.126309260725975037e-01 -1.221885755658149719e-01 7.208425551652908325e-02 1.739623993635177612e-01 1.174117699265480042e-01 1.293434202671051025e-01 1.527690291404724121e-01 5.222248286008834839e-02 2.902651429176330566e-01 -2.322021126747131348e-01 -5.603451654314994812e-02 -1.822846382856369019e-01 -2.637682259082794189e-01 -5.924618244171142578e-02 -2.262860834598541260e-01 -1.042889580130577087e-01 9.349370002746582031e-02 -1.258449703454971313e-01 -2.188701033592224121e-01 1.504175215959548950e-01 8.779162168502807617e-02 1.973249912261962891e-01 -1.697245985269546509e-01 1.321521252393722534e-01 -4.246102273464202881e-02 2.596601843833923340e-01 1.887364089488983154e-01 2.151848077774047852e-01 8.865062147378921509e-02 -2.555686235427856445e-01 -2.317353785037994385e-01 -6.142678670585155487e-03 -1.694553643465042114e-01 -4.924183785915374756e-01 -2.094619870185852051e-01 1.329679936170578003e-01 -2.767692804336547852e-01 1.360256820917129517e-01 -1.427986621856689453e-01 1.597235053777694702e-01 -5.286114290356636047e-02 6.265941262245178223e-02 -1.341026648879051208e-02 1.753546148538589478e-01 -2.717767059803009033e-01 -2.511438727378845215e-01 1.864965558052062988e-01 1.196307390928268433e-01 1.085736379027366638e-01 1.862884461879730225e-01 7.025388628244400024e-02 -8.891416341066360474e-02 2.232718616724014282e-01 1.843302249908447266e-01 3.935420885682106018e-02 2.196805924177169800e-01 1.866331882774829865e-02 2.346138358116149902e-01 -1.788707673549652100e-01 -7.621603459119796753e-02 -6.478527933359146118e-02 -3.129888772964477539e-01 4.104832932353019714e-02 -1.608037799596786499e-01 -3.132828697562217712e-02 2.161341309547424316e-01 -7.826058566570281982e-02 1.574375033378601074e-01 1.760433018207550049e-01 4.228509962558746338e-02 -1.083258818835020065e-02 1.764660626649856567e-01 7.154488563537597656e-02 -2.677267193794250488e-01 1.603977382183074951e-01 -3.509732186794281006e-01 -7.559886574745178223e-02 -2.697160840034484863e-01 -2.813243567943572998e-01 -6.752965599298477173e-02 -2.071252465248107910e-01 -2.558266371488571167e-02 -3.597792088985443115e-01 1.262264549732208252e-01 -4.129645228385925293e-02 -1.759189367294311523e-01 -2.386827319860458374e-01 1.613634675741195679e-01 4.220360890030860901e-02 -1.291040331125259399e-01 -6.378670781850814819e-02 -3.575051128864288330e-01 -1.283367425203323364e-01
-2.780246436595916748e-01 -2.802365645766258240e-02 -2.057657539844512939e-01 -1.541457977145910263e-02 1.986694484949111938e-01 -2.788971662521362305e-01 -1.741067916154861450e-01 6.083359196782112122e-02 2.587817907333374023e-01 2.488209158182144165e-01 4.176298528909683228e-02 9.339509904384613037e-02 1.523657701909542084e-02 1.320097446441650391e-01 1.904918402433395386e-01 -1.102056540548801422e-02 1.321765184402465820e-01 1.034270077943801880e-01 -1.049500852823257446e-01 7.443957775831222534e-02 2.947958745062351227e-02 8.650038391351699829e-02 1.128849238157272339e-01 1.682094633579254150e-01 -1.679441779851913452e-01 -1.625004559755325317e-01 -2.918628975749015808e-03 1.744457148015499115e-02 7.060334086418151855e-02 1.542459279298782349e-01 -4.202444255352020264e-01 5.504348874092102051e-02 4.926797002553939819e-02 2.001991719007492065e-01 -1.258003860712051392e-01 -1.119235605001449585e-01 -3.146159350872039795e-01 4.763752594590187073e-02 -3.961419761180877686e-01 -1.442684829235076904e-01 -4.914404079318046570e-02 4.879551380872726440e-02 7.202129811048507690e-02 -5.438033025711774826e-03 6.173617392778396606e-02 -1.708345264196395874e-01 1.705476790666580200e-01 2.989630773663520813e-02 4.033042863011360168e-02 5.958832055330276489e-02 -4.699641168117523193e-01 -1.118234843015670776e-01 9.543891996145248413e-03 -1.142614241689443588e-02 -1.433248668909072876e-01 -3.210881352424621582e-01 -2.138346582651138306e-01 -1.270409207791090012e-02 -2.938610613346099854e-01 7.365804165601730347e-02 -1.638051718473434448e-01 1.579315811395645142e-01 -1.024958640336990356e-01 -6.541197746992111206e-02 -2.260060161352157593e-01 3.634066134691238403e-02 -9.034508466720581055e-02 -2.095416635274887085e-01 -6.689253449440002441e-02 1.798661351203918457e-01 2.035346180200576782e-01 1.101615466177463531e-02 -2.341322749853134155e-01 2.108269780874252319e-01 -1.848803013563156128e-01 2.268436849117279053e-01 -2.687382400035858154e-01 1.051537543535232544e-01 -1.877100169658660889e-01 1.232120543718338013e-01 -2.341847270727157593e-01 5.173146724700927734e-03 2.293761074542999268e-01 1.695210784673690796e-01 -1.238262057304382324e-01 1.345336586236953735e-01 -9.210211038589477539e-02 1.131575331091880798e-01 2.863780595362186432e-02 -2.707491442561149597e-02 1.237434595823287964e-01 -5.940509587526321411e-02 -1.952906250953674316e-01 -1.697182506322860718e-01 -8.164637535810470581e-02 3.164164349436759949e-02 9.672598540782928467e-02 -3.003642261028289795e-01 1.880610287189483643e-01 -2.610238194465637207e-01
2.449282556772232056e-01 -9.217345714569091797e-02 -1.804067492485046387e-01 5.538990348577499390e-02 -2.721113562583923340e-01 2.310630977153778076e-01 7.842784374952316284e-02 -1.533784270286560059e-01 -1.238283514976501465e-01 -1.383117884397506714e-01 1.322629451751708984e-01 -2.468641102313995361e-02 -2.773253619670867920e-01 3.966544568538665771e-02 4.663615673780441284e-02 -1.298407614231109619e-01 -1.530457139015197754e-01 1.663854271173477173e-01 7.117562741041183472e-02 -1.613939851522445679e-01 5.229369178414344788e-02 1.594818085432052612e-01 8.314777165651321411e-02 1.343280915170907974e-02 9.703075140714645386e-02 3.633398562669754028e-02 8.532232046127319336e-02 6.247855257242918015e-03 -1.529031842947006226e-01 -1.680164784193038940e-01 1.362792551517486572e-01 6.941651552915573120e-02 -4.192135632038116455e-01 -4.375727381557226181e-03 -4.327028393745422363e-01 -1.488958597183227539e-01 1.214703917503356934e-01 -1.342239528894424438e-01 7.956821471452713013e-03 5.694117397069931030e-02 -2.541911602020263672e-01 8.707173913717269897e-02 1.710635125637054443e-01 3.185873478651046753e-02 7.557152211666107178e-02 -1.280274689197540283e-01 -4.120538830757141113e-01 -2.254756167531013489e-02 1.343792080879211426e-01 -1.007371395826339722e-01 2.087556570768356323e-01 1.397909373044967651e-01 3.175910189747810364e-02 -5.333707481622695923e-02 -2.154891490936279297e-01 -1.743100583553314209e-01 -2.164448052644729614e-01 -1.179473772644996643e-01 -2.107731550931930542e-01 -5.663191527128219604e-02 1.445749104022979736e-01 1.756103932857513428e-01 -3.405136168003082275e-01 -1.138352155685424805e-01 -4.332668483257293701e-01 -2.216416969895362854e-02 -1.035805121064186096e-01 -2.120264805853366852e-02 1.272807866334915161e-01 5.731746554374694824e-02 1.203936412930488586e-01 2.694144658744335175e-02 -3.095714747905731201e-01 -7.262331992387771606e-02 1.725853979587554932e-01 -4.202590882778167725e-01 1.104305684566497803e-01 -8.322923630475997925e-02 -2.525005340576171875e-01 -2.601481974124908447e-01 -1.137075200676918030e-01 1.791721731424331665e-01 1.418708264827728271e-02 1.364592164754867554e-01 7.918857783079147339e-02 -9.815169498324394226e-03 3.962556123733520508e-01 -2.333575487136840820e-01 1.540668755769729614e-01 4.597187414765357971e-02 -5.518416687846183777e-02 6.347208470106124878e-02 -2.490493841469287872e-02 9.878927469253540039e-02 -9.549523703753948212e-03 1.424226909875869751e-01 -2.663477659225463867e-01 1.326774954795837402e-01 9.860237687826156616e-02 3.224935010075569153e-02
4.349316284060478210e-02 1.570931971073150635e-01 -3.639263212680816650e-01 -4.361583665013313293e-02 1.604803353548049927e-01 -1.541680889204144478e-03 2.613522708415985107e-01 2.349544316530227661e-01 7.972905784845352173e-02 -1.554603576660156250e-01 -1.538679003715515137e-01 -5.244137346744537354e-02 -1.450534909963607788e-01 -3.709923103451728821e-02 -2.874066121876239777e-02 3.512538671493530273e-01 -3.465095162391662598e-02 -3.841506540775299072e-01 2.146880030632019043e-01 8.929679542779922485e-02 -1.251201480627059937e-01 -3.902853727340698242e-01 1.318667978048324585e-01 1.013963073492050171e-01 1.206669509410858154e-01 -1.252252887934446335e-02 -5.133559703826904297e-01 -3.700171113014221191e-01 2.083583623170852661e-01 2.000598907470703125e-01 7.402696460485458374e-02 -3.185556083917617798e-02 3.523146212100982666e-01 1.019086763262748718e-01 1.759219169616699219e-01 2.718395888805389404e-01 -2.066278271377086639e-02 -3.351232111454010010e-01 8.040773868560791016e-02 9.814335405826568604e-02 1.455352306365966797e-01 4.496048390865325928e-02 -1.588725149631500244e-01 -6.302924454212188721e-02 2.420282177627086639e-02 1.288666576147079468e-01 1.347847580909729004e-01 -6.445224583148956299e-02 -4.966336488723754883e-01 1.246971637010574341e-01 -1.714459508657455444e-01 7.964501529932022095e-02 -4.166426062583923340e-01 -3.902545869350433350e-01 2.483841925859451294e-01 1.179808378219604492e-01 -2.619793713092803955e-01 3.597594052553176880e-02 1.665682941675186157e-01 9.450369328260421753e-02 5.997744202613830566e-02 -1.368912458419799805e-01 -1.278216689825057983e-01 3.376065939664840698e-02 -3.874225169420242310e-02 -2.228048443794250488e-01 4.732774943113327026e-02 -1.370664536952972412e-01 1.521798670291900635e-01 -2.906767725944519043e-01 9.032613039016723633e-02 7.795272860676050186e-03 -4.147592186927795410e-01 2.999415155500173569e-03 2.457878142595291138e-01 -8.415678888559341431e-02 1.811346560716629028e-01 5.492338165640830994e-02 1.444185525178909302e-01 -2.948424220085144043e-01 -1.481817066669464111e-01 -1.262496560811996460e-01 -4.193101450800895691e-02 6.273750215768814087e-02 -2.794900238513946533e-01 -2.260752581059932709e-02 -2.551790475845336914e-01 6.999184191226959229e-02 -1.882299184799194336e-01 -1.006840914487838745e-01 4.923304170370101929e-02 -3.421813715249300003e-03 -3.260382711887359619e-01 1.371775120496749878e-01 -2.307476699352264404e-01 -1.968801021575927734e-02 7.502251863479614258e-02 -1.966747641563415527e-01 -4.462125599384307861e-01 9.607443958520889282e-02
-1.480944305658340454e-01 -4.316268861293792725e-01 1.056827381253242493e-01 -5.177450552582740784e-02 -1.575004458427429199e-01 1.929743140935897827e-01 -2.215732634067535400e-01 -2.043021172285079956e-01 -3.693547844886779785e-01 3.319365903735160828e-03 -4.903510212898254395e-02 -1.979108452796936035e-01 -5.969163402915000916e-02 8.822999149560928345e-02 -5.891781672835350037e-02 1.964563578367233276e-01 -1.773370057344436646e-01 2.583352327346801758e-01 -1.508513838052749634e-01 9.138118475675582886e-02 -3.567085862159729004e-01 1.307856142520904541e-01 -2.266051620244979858e-01 -4.308633133769035339e-02 9.758377820253372192e-02 -1.204196810722351074e-01 2.061319947242736816e-01 -1.092835366725921631e-01 4.510461166501045227e-02 -1.356288194656372070e-01 1.719502657651901245e-01 -6.057262048125267029e-02 -4.672162532806396484e-01 -1.828424781560897827e-01 -2.567906677722930908e-01 -1.941672861576080322e-01 1.206187233328819275e-01 3.345330655574798584e-01 -6.138249114155769348e-02 2.461394816637039185e-01 2.693026363849639893e-01 1.917224228382110596e-01 -1.812343895435333252e-01 -1.496819704771041870e-01 -1.277862815186381340e-03 -1.553263701498508453e-02 -4.782476276159286499e-02 3.960030153393745422e-03 6.407772749662399292e-02 -3.574786782264709473e-01 1.393157755956053734e-03 -2.057548761367797852e-01 1.089952066540718079e-01 2.086449414491653442e-01 -1.499793082475662231e-01 -1.019150614738464355e-01 1.487528383731842041e-01 -9.948426485061645508e-02 1.393526978790760040e-02 1.101406738162040710e-01 -3.346987767145037651e-03 1.192793622612953186e-01 1.633598059415817261e-01 1.052386164665222168e-01 8.387339860200881958e-02 1.502738893032073975e-01 -2.181364223361015320e-02 1.547750979661941528e-01 1.961353123188018799e-01 -3.050504066050052643e-02 3.602968528866767883e-03 2.040803991258144379e-02 -5.278319120407104492e-02 4.575800895690917969e-02 -1.368859261274337769e-01 -1.043979600071907043e-01 -5.883112177252769470e-02 1.329471766948699951e-01 -2.881135344505310059e-01 -1.723190397024154663e-01 1.947522163391113281e-01 -2.084573209285736084e-01 -2.295256853103637695e-01 -1.072944104671478271e-01 -1.497044563293457031e-01 -2.345968224108219147e-02 -2.441467195749282837e-01 1.325983405113220215e-01 9.444666653871536255e-02 -2.853240445256233215e-02 1.150573641061782837e-01 -6.120389699935913086e-02 1.709442883729934692e-01 5.848535895347595215e-02 4.983210936188697815e-02 4.519458394497632980e-03 2.490586042404174805e-01 2.214966118335723877e-01 1.669747084379196167e-01 -4.394755065441131592e-01
-2.607752978801727295e-01 6.439576297998428345e-02 9.512667357921600342e-02 2.016405202448368073e-02 4.264735803008079529e-02 6.502997875213623047e-02 2.395623028278350830e-01 -2.492463439702987671e-01 -2.762618660926818848e-01 -7.273399084806442261e-02 -1.809943169355392456e-01 -7.771347463130950928e-02 6.689532846212387085e-02 3.265267238020896912e-03 9.684843569993972778e-02 -2.190754562616348267e-01 1.772628426551818848e-01 -3.949878215789794922e-01 -1.399840563535690308e-01 1.039009988307952881e-01 -2.052055001258850098e-01 -3.850630521774291992e-01 -2.712199687957763672e-01 9.748742729425430298e-02 -2.496134787797927856e-01 -1.400545090436935425e-01 -4.951723814010620117e-01 1.732521355152130127e-01 -2.532221190631389618e-02 1.600211858749389648e-02 -7.865729928016662598e-02 -8.530241250991821289e-02 -1.339056938886642456e-01 -3.493635952472686768e-01 -1.424203217029571533e-01 2.841827869415283203e-01 1.259648054838180542e-01 -3.040028549730777740e-02 2.638772428035736084e-01 -3.565524518489837646e-02 1.188627555966377258e-01 8.281942456960678101e-02 -3.664968013763427734e-01 -2.121036350727081299e-01 6.846784800291061401e-02 1.104211583733558655e-01 -1.402588486671447754e-01 -3.360224887728691101e-02 -2.782497107982635498e-01 1.263246983289718628e-01 -4.849143326282501221e-02 -2.558959722518920898e-01 -1.336266659200191498e-02 -7.153590023517608643e-02 -3.863924145698547363e-01 1.580078005790710449e-01 6.356866657733917236e-02 -6.972737610340118408e-02 -8.854574710130691528e-02 1.570089906454086304e-02 -3.178251385688781738e-01 -6.409277208149433136e-03 2.260647416114807129e-01 3.141369298100471497e-02 -1.384718120098114014e-01 1.454963088035583496e-01 -1.028272509574890137e-02 1.364965587854385376e-01 8.958959579467773438e-02 1.637508422136306763e-01 6.818906217813491821e-02 6.626485288143157959e-02 5.253278184682130814e-03 -1.067588254809379578e-01 -1.191720515489578247e-01 7.205855101346969604e-02 -1.615348011255264282e-01 -3.206293582916259766e-01 2.803109884262084961e-01 1.287320554256439209e-01 6.826028227806091309e-02 -3.540455698966979980e-01 -9.281034022569656372e-02 2.132923342287540436e-02 2.168762534856796265e-01 -4.429611265659332275e-01 1.194396838545799255e-01 -1.596866995096206665e-01 -1.141042932868003845e-01 -8.955432474613189697e-02 1.529595106840133667e-01 -2.903169952332973480e-02 1.845810748636722565e-02 -2.743766643106937408e-02 2.324954122304916382e-01 -3.120389878749847412e-01 -3.271458446979522705e-01 1.713981181383132935e-01 3.061822950839996338e-01 1.484546810388565063e-01
-3.690540045499801636e-02 1.555250287055969238e-01 4.267749842256307602e-03 5.666853114962577820e-02 -1.486103236675262451e-01 -1.563725173473358154e-01 1.146946996450424194e-01 1.493651717901229858e-01 2.439171820878982544e-01 1.331803202629089355e-01 -1.794064533896744251e-03 4.012239351868629456e-02 -2.320650219917297363e-01 -2.493726164102554321e-01 4.781047627329826355e-02 2.609663903713226318e-01 -3.333020806312561035e-01 -9.718441963195800781e-02 -2.958810701966285706e-02 -7.911232858896255493e-02 1.225695088505744934e-01 9.347455203533172607e-02 1.280541867017745972e-01 -2.690166532993316650e-01 -7.842479646205902100e-02 -2.545480988919734955e-02 1.984859406948089600e-01 1.496995687484741211e-01 -3.601610660552978516e-01 1.274391412734985352e-01 -2.786832451820373535e-01 7.149563729763031006e-02 2.083232104778289795e-01 -5.562585219740867615e-02 5.700192973017692566e-02 3.928145393729209900e-03 -1.238299831748008728e-01 3.486377894878387451e-01 3.252898454666137695e-01 1.375163197517395020e-01 -3.723360300064086914e-01 -3.397534489631652832e-01 7.629481703042984009e-02 1.542846709489822388e-01 2.628683447837829590e-01 -2.900302112102508545e-01 8.149149827659130096e-03 -2.520361728966236115e-02 1.574365049600601196e-01 4.848606139421463013e-02 1.056285202503204346e-01 1.394575536251068115e-01 -1.439408212900161743e-01 1.268154829740524292e-01 1.293224841356277466e-01 -2.929691076278686523e-01 -1.505769491195678711e-01 -8.044971525669097900e-02 -3.395063569769263268e-03 -1.308106333017349243e-01 8.768860995769500732e-02 6.278311461210250854e-02 2.261918485164642334e-01 -7.186524569988250732e-02 1.479772925376892090e-01 -2.486240565776824951e-01 -5.344555526971817017e-02 -3.134841918945312500e-01 -1.833396404981613159e-01 -1.441041082143783569e-01 8.572020381689071655e-02 -1.004270762205123901e-01 2.317307740449905396e-01 2.269685640931129456e-02 -1.331705749034881592e-01 9.194920212030410767e-02 1.314597576856613159e-01 8.911687880754470825e-02 -2.176474928855895996e-01 -1.514947973191738129e-03 -2.158048897981643677e-01 4.218751564621925354e-02 -8.885868638753890991e-02 -8.091993629932403564e-03 -2.118069976568222046e-01 1.103606820106506348e-01 -2.968790233135223389e-01 1.401584744453430176e-01 -2.779941856861114502e-01 -4.586227610707283020e-02 -1.073768436908721924e-01 6.006842479109764099e-02 -3.621998429298400879e-02 -2.942513525485992432e-01 -1.784298866987228394e-01 -1.764655709266662598e-01 3.131051734089851379e-02 -1.048600748181343079e-01 7.424198836088180542e-02 1.025735661387443542e-01
-8.148887753486633301e-02 9.905881434679031372e-02 5.899195745587348938e-02 3.252977505326271057e-02 -2.561420500278472900e-01 -3.935946822166442871e-01 -3.372612297534942627e-01 1.419088244438171387e-01 -1.310631781816482544e-01 1.212068891618400812e-04 1.308060949668288231e-03 -7.032251358032226562e-02 2.048968225717544556e-01 5.084865726530551910e-03 4.228727426379919052e-03 -2.132877707481384277e-01 -4.141847416758537292e-02 -3.778885900974273682e-01 1.284351944923400879e-01 2.966955304145812988e-02 -9.161901473999023438e-02 9.520650655031204224e-02 1.927853524684906006e-01 6.005480140447616577e-02 1.262278854846954346e-01 1.050279960036277771e-01 -1.878330260515213013e-01 -2.317395359277725220e-01 1.066740676760673523e-01 2.102003432810306549e-02 6.425002962350845337e-02 2.013045735657215118e-02 -1.055013909935951233e-01 -1.534481644630432129e-01 4.107251763343811035e-03 -1.344514936208724976e-01 1.820616126060485840e-01 -1.749564111232757568e-01 2.038747817277908325e-02 -2.471399158239364624e-01 -4.524172097444534302e-02 -7.332387566566467285e-02 5.341875553131103516e-02 -5.633249878883361816e-03 -6.184025108814239502e-02 2.627881467342376709e-01 -3.973576053977012634e-02 1.014201249927282333e-02 3.948224335908889771e-02 -4.610069468617439270e-02 -1.094264164566993713e-02 -4.827360389754176140e-04 1.348512917757034302e-01 4.184448160231113434e-03 -2.941614985466003418e-01 -2.655301429331302643e-02 -2.389313429594039917e-01 2.164276875555515289e-02 2.026440054178237915e-01 1.381384301930665970e-02 -3.234567865729331970e-02 -3.483835607767105103e-02 -2.666243910789489746e-01 -1.361786276102066040e-01 1.149173155426979065e-01 8.532096445560455322e-02 -2.088479883968830109e-02 5.441187322139739990e-02 -9.848633408546447754e-02 9.675028175115585327e-02 1.085073919966816902e-03 7.799132168292999268e-02 2.002004384994506836e-01 -1.745902299880981445e-01 1.639647632837295532e-01 7.971202023327350616e-03 -4.626540839672088623e-01 1.447093784809112549e-01 -5.962228775024414062e-02 1.476386040449142456e-01 1.440174132585525513e-01 5.422947555780410767e-02 1.778359413146972656e-01 -3.853048384189605713e-01 3.691475093364715576e-02 -2.632451653480529785e-01 -2.363496571779251099e-01 -2.655231952667236328e-01 -3.003570437431335449e-02 1.597390025854110718e-01 1.593106240034103394e-01 7.082318514585494995e-02 1.802108585834503174e-01 1.030476093292236328e-01 -8.863440901041030884e-02 1.045850217342376709e-01 -3.724106550216674805e-01 -1.054546311497688293e-01 -1.354629844427108765e-01 -6.689257025718688965e-01
1.451444029808044434e-01 5.405347421765327454e-02 -5.983997508883476257e-02 -5.930810701102018356e-03 8.345428109169006348e-02 5.660319328308105469e-02 -1.046993210911750793e-01 -5.618318170309066772e-02 -1.249890178442001343e-01 -5.765886902809143066e-01 -1.351577490568161011e-01 -4.812995791435241699e-01 1.414381116628646851e-01 1.066827923059463501e-01 -4.782912433147430420e-01 -3.251153230667114258e-01 -1.749597042798995972e-01 1.206319034099578857e-01 8.359432220458984375e-02 6.978518515825271606e-02 1.689074039459228516e-01 6.568259000778198242e-02 -1.320272218436002731e-02 9.879534132778644562e-03 1.638318300247192383e-01 7.049444317817687988e-02 -5.121539905667304993e-02 -2.051182091236114502e-01 -9.324128925800323486e-02 1.383549124002456665e-01 -5.313241109251976013e-02 7.719138264656066895e-02 -1.787473112344741821e-01 9.770464897155761719e-02 1.804139465093612671e-01 -3.868590593338012695e-01 1.336450576782226562e-01 -2.639428675174713135e-01 -3.190675675868988037e-01 -3.208555579185485840e-01 9.843073785305023193e-02 5.273872613906860352e-02 7.814883254468441010e-03 1.554394364356994629e-01 -6.629852652549743652e-01 -1.592977941036224365e-01 9.741672128438949585e-02 -7.671624422073364258e-02 -1.907145231962203979e-01 8.426158130168914795e-02 1.655861586332321167e-01 1.697435826063156128e-01 -1.077716648578643799e-01 -3.408433198928833008e-01 1.625228114426136017e-02 8.325753733515739441e-03 2.653605043888092041e-01 6.830963492393493652e-02 3.324436768889427185e-02 -2.014647722244262695e-01 1.334241479635238647e-01 -4.549571275711059570e-01 -2.721866965293884277e-01 -5.925411358475685120e-02 -6.331658456474542618e-03 -2.137341797351837158e-01 -1.011214312165975571e-02 -9.735356085002422333e-03 -3.003001585602760315e-02 -1.710658669471740723e-01 -2.932707667350769043e-01 -2.266083285212516785e-02 -2.639565765857696533e-01 -3.030666112899780273e-01 -9.703625738620758057e-02 1.590780913829803467e-01 1.907423883676528931e-01 3.388735279440879822e-02 -4.507620260119438171e-02 -2.717944979667663574e-02 1.848171502351760864e-01 5.726785585284233093e-02 1.910760998725891113e-01 -2.531365863978862762e-02 -1.484282547608017921e-03 1.636925041675567627e-01 -7.271871715784072876e-02 1.983532011508941650e-01 -1.324266195297241211e-02 -7.128993421792984009e-02 2.937806583940982819e-02 6.171897053718566895e-02 1.016205623745918274e-01 -4.054420813918113708e-02 1.907396018505096436e-01 8.680073916912078857e-02 2.083306610584259033e-01 1.153163015842437744e-01 -4.179604351520538330e-01 2.341907620429992676e-01
